#include "kernelMLP.h"

#ifdef HIGH_RECALL_CONFIG

const long long w0[][26] = {
        { 1479,-149069,33001,-149968,-2976,-84286,35140,120233,-97409,50003,15718,117818,107841,-2357,151114,21777,82474,-181925,-150115,146930,-170570,2543,132116,-30940,-15443,37307 },
        { -182603,95581,-68401,-5239,79745,194403,30488,-148488,88311,-142789,113381,7436,137699,10830,-185343,154024,-130197,148295,105374,-147358,107847,170820,130125,82877,177111,163026 },
        { 94872,-126099,104470,-192433,155475,-6139,143514,-93659,-21383,163699,-22046,82040,35288,133174,-116186,-81077,89421,106466,-42212,36908,-52254,131200,-162477,-35196,30983,-16754 },
        { -39722,-41543,-98790,-3785,138963,-123450,24548,34864,-23208,-56722,-168941,-96452,186450,190707,-177420,-25699,-93322,-53009,-142504,-161242,182724,95208,-32806,-105552,194056,165940 },
        { -74789,-48845,-50089,-123108,-184603,-14666,-42315,132889,-12165,-73331,49454,-30663,30846,45780,5393,-121230,-149095,12327,33462,72907,165188,146532,-196287,-195513,62358,-114266 },
        { 6139,89949,169939,-145715,144807,5862,150822,86965,-188986,-138100,-168364,-7239,-167484,126200,-107495,-117577,-91148,-78784,48966,48886,-138644,-55413,147252,-66057,186280,-81775 },
        { 163328,87630,-15138,135300,37857,40115,-45216,-73975,31462,143674,-175653,166042,-94687,142648,35373,67475,-135758,-183382,-188367,-1441,192917,141074,-104390,-213680,55970,180309 },
        { 90376,111972,-3686,153306,82916,152814,8720,-81332,131184,-86505,68095,-176805,111589,-51269,-143083,72380,-189684,-153739,170466,-143405,90070,-120478,67430,180295,99712,-139540 },
        { 100135,167998,-24542,41257,84719,38627,172837,144625,-16771,116899,91635,-83171,-5874,117971,-182979,5933,-37934,-134887,-57211,-16420,12002,159943,-195081,25526,54263,53176 },
        { 149425,120890,124338,-137261,174644,71429,-23764,-60207,117524,-74253,110586,-18733,-45539,88572,-57673,-158746,146,-97928,-26474,24357,-158751,186745,-139842,-174943,157210,-94860 },
        { 166621,4508,161506,172072,-104347,179229,42144,164855,-2391,10887,129668,-193522,193842,78835,45191,-174603,166521,-134735,171450,-24343,-170853,142869,-153639,148539,-146921,106147 },
        { -187023,13251,62135,-130131,16531,45950,83814,56629,-167040,2666,87919,28244,-130703,58815,-126094,137681,83050,60014,-186236,75813,13341,-167721,-197647,77247,-15122,-152572 },
        { -115983,41766,56847,115501,5523,-192993,43960,169095,-50300,-79082,76356,-92446,-79838,58621,-90353,50691,-95969,154297,59272,72294,-140516,54614,132728,-11715,-194264,135721 },
        { 118033,-24123,-193076,-53443,52556,65251,-169565,106161,-51403,144152,96929,-52471,-146111,-126970,-179180,-143718,-45100,139907,118721,-193309,147986,8333,45137,210917,-204181,107665 },
        { -149885,-57367,71705,77194,-191556,17443,-185947,-61995,-60611,-168668,99616,172461,107206,50578,-118769,-56097,46839,168694,-94834,-165447,177458,-116486,176275,60360,-56284,-11235 },
        { -134197,169707,-92996,158837,136079,-131907,-77918,164693,-48855,126465,146576,-17125,-153877,41159,-188415,-176790,-4222,-91850,-68500,71585,-38623,95383,-164075,182267,111546,42375 },
        { 44180,-152517,99790,-120080,-101807,61587,76369,105314,-153200,193819,133618,134305,-45530,-145842,114163,-5872,-122423,-32263,-150009,-135649,9431,103560,145848,-27136,-7035,139825 },
        { -200662,20230,170139,-67076,152363,-56158,-129399,11787,-132160,-172352,-25753,-53565,125724,179503,119431,-124014,-155850,9296,-82277,-135296,-12493,167687,-5374,-134889,151259,180854 },
        { 28767,56121,-121649,-107923,-153978,-58084,95093,-150800,-150131,141557,32524,-161250,180972,87752,57521,-37447,-54650,61722,-34405,-97248,-93816,-28432,-183005,-170828,-101154,-96667 },
        { 126546,118686,-7425,-121349,-121530,-190057,184976,-130722,7664,16126,111856,-93389,80357,-194036,71533,125150,-88959,95099,180038,155837,73798,134179,-5274,-149,28366,-91171 },
        { 186638,-111518,25231,70771,31059,-26898,-179295,183491,128772,40854,-107634,-143225,-111390,179444,-28656,-96378,-47948,-167140,-118773,-24499,-189024,101902,-25219,-134590,-6059,-92691 },
        { -48426,-92986,134591,85336,-17711,121543,8637,-99208,61834,111632,-157374,-59463,107833,-128583,-88836,-175356,160439,175071,116612,-119951,95459,-45788,-180723,171563,71231,16072 },
        { -67099,-120084,-100773,119401,59040,38593,100663,68809,-63460,-953,105691,56661,-77539,168594,-19799,-160283,-144290,-65556,35589,71461,-184226,138650,121507,111463,-60483,149000 },
        { -128417,-163064,-146204,-63701,80124,-79137,180260,-149072,-108834,-81591,-84303,-26620,-7186,57472,91868,-171959,-108740,57934,60403,184980,162934,126573,-136185,20933,-77951,30443 },
        { 19741,-85198,117167,-74797,-61684,-51958,123199,-54152,-4326,-9705,-9345,68979,-52916,166704,42716,-97608,115588,70118,15589,-9838,-106331,185486,40567,172468,104822,-99892 },
        { 72040,-36946,-146076,49321,-3067,-20977,-9727,53622,-92299,183992,13419,-108796,19266,161640,124404,169298,-79553,99196,-180037,10739,-11387,120919,37525,-222978,-52036,-130027 },
        { 110671,-56567,-116489,188666,-79766,80861,164842,157295,-114054,139880,20880,187235,-80748,-79692,-13918,74402,-107180,43853,-163184,-24377,60792,-152027,124764,105826,179135,-180406 },
        { 172472,-86218,-121734,-39246,50965,84159,56841,-70064,-3864,105824,117474,-182782,-56587,-154062,-73255,96691,122882,151238,134209,5243,191460,194614,-82529,-89264,100379,-66267 },
        { 192997,-153543,-9487,121484,58597,-64135,140652,-17605,174491,38717,-157238,57855,-171415,-4827,-104352,-108461,28600,-122414,-145846,69844,112072,94590,-57390,-164978,-140281,169731 },
        { -4686,73962,31623,-91396,-95026,122860,125975,-108774,-153170,-139169,-122650,186288,-140829,-174736,170355,-36713,-84521,-132852,68017,-48491,182483,92085,-138813,179244,186427,-158484 },
        { 96067,137496,84470,103847,139290,130045,-113662,-54876,-148302,191876,-70216,-122228,-16562,99151,68023,-71787,-165307,190554,68084,-95153,138467,-68629,-35417,-118787,171465,77300 },
        { -57463,-124136,33616,-176610,-23281,16787,167114,-10832,-137697,-111587,39306,-104112,125349,-3480,-31506,22285,-135141,-18188,39628,-40800,116222,-138935,-130069,15194,-34172,97767 },
        { -191521,167476,-135045,114899,-39582,87578,32490,-18234,-157380,8499,-147612,52746,-81172,-67959,113342,-183006,109665,-157656,-99052,-175880,186643,-178004,-33509,-2455,-164110,-104237 },
        { 25946,187103,-190260,65516,185262,161330,28849,82956,151483,-36828,100886,161481,135035,64467,-7483,26241,-39810,-129588,177571,-128568,-117154,-55204,-166336,7957,-79251,-132803 },
        { 151218,-51649,192549,-56708,-53074,-84816,166215,-10715,89180,76779,-133711,-123536,-148626,138451,-47190,93249,-95395,108045,54828,30690,-142714,155689,-91065,-132752,2067,-61299 },
        { -134811,-4363,107780,2650,6459,-88824,-34204,32812,131440,-173007,-192515,131972,137046,-61558,-100216,-140238,10416,39942,16273,180384,151901,55058,-171677,58216,-174663,-7263 },
        { 59247,146848,129891,-36290,169382,140415,-180429,-181984,-108394,-12294,-143934,-189802,68372,-24335,130786,-181159,191208,26995,-51813,-130864,-117439,113876,59579,-212606,89300,-84294 },
        { 113971,193731,190777,-33455,-76821,129650,-58709,174441,17889,162906,103141,-48550,-72561,-191945,26809,-133197,-14368,145773,154533,164264,-177330,72121,151285,154618,-91258,109763 },
        { 66848,181299,37309,92154,37555,99685,114785,155247,-143759,-143772,-165871,-177734,123008,106570,-148639,-47640,44190,-157589,131121,75475,-163379,23423,204037,159667,-180748,10538 },
        { -127843,48000,-133330,-18676,153402,81187,142992,57576,-39554,-45734,136630,-78484,-28571,116965,43479,-150861,163506,46196,-109009,-38911,31699,-75035,104627,-55053,149465,-134863 },
        { -33752,-70239,-110078,-122064,-168588,-108211,8929,156526,-4417,-103622,-95874,-75748,-39200,-96721,163122,87840,-50682,130319,-11906,-74847,162571,55988,-97962,160420,64503,134833 },
        { 59537,-192717,-139130,-55295,-15221,69947,150531,127922,-16928,-49099,180763,83168,27588,24901,-72197,24333,168119,109801,89098,117459,113188,189592,159887,74863,163111,159133 },
        { -186491,-41165,-126999,50799,-97741,171666,83883,42125,86950,-95163,27799,-1153,-124779,168024,37667,-191069,-153669,117604,-140525,-52689,-159421,191923,-97195,53738,163045,73747 },
        { 131989,80348,-126367,137961,62053,-59358,-150839,-3404,74697,-130240,-172773,41111,66415,-160208,24737,125093,112054,158624,-44430,-180860,73505,-148210,-21646,-144815,165350,118071 },
        { 167595,183539,-162615,36758,161346,60881,191771,-103473,155371,118798,-131927,-146358,91214,58992,-86784,-111263,-187084,-20960,6723,17635,-29706,-173117,-115851,115910,12608,-68373 },
        { 9694,-124738,25627,12618,-158398,-149343,-175398,-186443,146595,-100639,162252,121576,189495,-159176,2509,-58487,151151,-10533,-88250,-63457,-89718,110018,26820,165340,-42452,37354 },
        { 117686,82088,107895,-154795,192688,132794,70428,140193,-127213,6609,93232,141400,151491,94817,152199,174808,-102028,-61234,187788,72564,-172172,159481,-158325,-183977,33439,163745 },
        { -121006,-118615,-175162,-138195,148692,113968,-66484,41761,82469,-135567,137602,9081,69888,59898,148078,-146475,181509,21055,-178604,-194313,-103966,-180103,168611,-116728,-88234,83873 },
        { 97477,-42057,-190771,-30758,41958,178132,66552,192317,96770,-119403,-154677,-105227,85230,93872,159662,76691,-71464,-138435,-138249,125121,-187651,47946,32793,-199099,131545,190207 },
        { 183354,188347,114069,108028,59132,-68358,-99171,-117955,-176909,67980,123647,-65051,178783,35750,170080,67286,-159266,-20644,-184929,-81342,14078,-49529,-54573,-28138,-93159,-81851 },
        { -138047,-137059,102291,128022,-91699,-156579,-142519,91341,121705,-84837,101193,-93829,161827,15878,152617,188634,-68479,-188224,-159695,-160668,-193835,170142,-25384,-57097,-121608,160032 },
        { -182620,93076,77152,-110628,183342,-189411,191222,-107927,193421,-134539,109550,50088,-95439,-116419,1934,113610,-80666,-65867,-24497,23474,-167539,154749,155386,-62207,186704,34003 },
        { 131425,95948,-58718,24498,145993,83814,69980,-116608,-161078,-86550,-62548,192767,173410,-68940,85012,-89771,-70973,15406,-34349,107240,-49589,59661,-32394,203645,36176,96693 },
        { 181828,-119711,-28226,176961,-168407,156710,-44316,-87418,7668,151582,-98348,-69964,-20605,-159844,105981,-2887,88667,-50805,-164782,-87182,49034,-141216,-19403,-200510,107380,-147998 },
        { 68478,16628,-88799,157010,-60854,185536,76598,-25728,-7019,161074,41117,167492,75330,6493,75847,145952,-150427,147531,-38872,188828,32591,40359,-61573,-152438,44607,12686 },
        { 152999,-72441,-77115,-188275,-86967,10965,90189,16718,57936,-100543,68087,-43376,-132867,-31627,-36812,82522,-22554,40112,-135214,-76109,-190560,14239,-191318,156466,170143,120551 },
        { 192231,-173812,169107,-8071,77682,-72571,187984,100153,123593,-192476,5078,-41892,116391,-158398,-2980,193318,147314,-152894,75302,-88083,-176029,-45180,-104858,-79088,-54961,-99174 },
        { 104578,-10497,-122307,76594,123925,-141124,-65952,30177,-48858,-45934,59318,16852,-1361,-82608,151802,-81144,-107385,54058,134247,185936,-110565,28825,195623,-24853,110239,59877 },
        { 8996,13551,-73668,-38888,6432,-177150,-6808,117321,-60935,188032,104977,-64223,-57768,-77658,-40742,-183971,134896,137368,-179101,-151501,18610,-18342,59873,-61000,-45639,164661 },
        { 174055,-167620,42893,178505,25447,-32955,-168665,-24343,68366,-70884,-56184,-69532,189848,90484,-172903,-115831,98022,-100713,117,97596,-124184,44077,34561,175611,-204862,2728 },
        { -67426,-56682,-84413,179484,19110,-45910,80070,16476,29662,-140465,66991,-157088,178449,53497,100547,-159647,-184592,-20222,-195007,38401,-45487,160009,188181,11632,-184118,684 },
        { 117665,-181335,-175144,86657,-161022,-81478,-65356,85240,134249,15570,109465,-12010,-77885,-26683,90905,-19617,-98804,106120,-72285,-21010,-192787,-1820,204735,195940,-230237,-168816 },
        { 63096,-68065,153353,-140402,-43221,-90556,-21597,-21566,114625,83765,176667,-115571,110340,62329,-28641,144139,-63483,-110595,-52256,-22595,96492,68706,-129924,-145079,2891,104685 },
        { 135942,76980,-171790,-76302,63177,85417,-155046,166834,-133863,-50586,-81351,132755,-135809,-78997,-151710,-105795,35280,-183159,-38040,88124,-149655,87750,127338,64666,-8787,-60441 },
        { -51429,-188519,168191,164373,-112134,-12999,157126,142580,-66781,-86934,156125,-182744,154378,73298,-110927,49136,-162284,-164868,-117186,-87859,45633,150688,157771,55741,91739,-206487 },
        { -132331,-71650,42584,-191350,-42178,128956,135274,88023,40277,-111022,136412,-164144,45117,166451,131115,-166527,-142430,-137326,-57449,-15904,177211,195856,-117778,-58138,793,-23770 },
        { 100478,-164560,33571,177335,88776,-103124,30439,-183691,22755,16610,118602,-181390,150140,-162036,-136862,123995,170003,80597,-31077,126382,177902,38509,63278,40951,31450,49375 },
        { 114039,142997,-91917,-28875,184149,155828,-133747,-123269,-46321,-181742,-95004,-123978,93267,-31644,134880,-88786,-147168,134366,-130007,108445,93889,-97749,26134,165214,145663,-193727 },
        { -188747,-175038,127015,189409,79009,156855,129494,92279,156438,33056,-137277,99046,41266,-17746,119196,70695,121213,183883,94458,-135491,21775,-22514,-95576,-195737,136451,42396 },
        { -122318,-39061,-114353,-10717,-141530,37337,-105170,-104353,91645,-6844,97460,154349,145883,19989,-70539,141818,-88010,87139,-51040,-75908,49323,-117771,-177431,-2929,-41051,-122420 },
        { -98255,-32882,-158356,93264,-104647,-180465,17055,21504,144113,-191866,-195026,182344,-164974,-39615,-60944,-128798,-4324,-53515,73433,-28517,-48502,-161899,151933,1644,-135143,-130990 },
        { 135527,106566,-177081,-9192,-15461,51105,-142729,-91295,53602,171032,-75369,128972,-122340,-111422,-185718,-155998,25467,-82471,-133283,75765,10982,-104027,-135901,181637,-153484,183649 },
        { 3836,48201,61320,-128365,-999,14252,-186383,-64185,104612,20740,-158335,18182,-109880,21094,-8275,136539,-145118,-84180,-176888,52566,-95184,-183787,103960,2169,-25719,-53417 },
        { -135135,-70690,47818,-156435,-53049,134820,-177732,120311,-187753,31893,-194372,-27796,162300,-121008,5697,111419,161843,-157976,184389,170964,52481,-127638,-129825,-174643,-49113,18323 },
        { -120412,65304,100591,-174408,70771,-33360,46811,-83536,-4321,-183915,37859,52572,-14517,98614,-130494,110066,-160942,185320,-184194,-4365,121718,128238,113931,39702,95158,-186678 },
        { -101155,105574,34743,47290,-154860,-175438,49015,122237,-115297,-134390,-91717,172921,177113,-139520,-30856,-107121,-119728,190328,-58563,11546,-107144,-131495,-106152,136911,155478,108531 },
        { -70426,9838,-19126,-144936,185726,-124231,18288,167124,-51026,-123343,-162506,-148611,-121085,179138,58786,-136413,-55952,62153,51551,114987,-156390,-184097,-20638,204186,164133,6525 },
        { 159883,71146,157299,-136037,17079,78136,-102371,190052,-104604,61290,108753,175668,179376,-14437,-66576,89800,156769,17867,-146836,131194,-66186,-81125,-4384,-214840,-235711,39813 },
        { 48248,57006,23302,104122,-140540,-185442,187139,59315,128776,178558,118438,155432,87711,56969,-150927,-184851,95460,-131497,-191549,-72790,-62179,-16520,-114077,162947,123246,45555 },
        { 143452,193314,-60150,54314,1018,-91316,153771,67782,-64873,-177759,136176,90509,-169853,43325,35146,-31178,-188590,106813,-102124,-67542,157273,70775,-117715,173307,-21162,-48730 },
        { -157554,-166979,72970,59392,-141393,6501,-53315,41585,13198,141319,172805,-24044,51373,52151,163093,86327,-153154,179285,80591,-116255,18954,-173834,-201303,-60802,90018,182849 },
        { 79184,148289,-58881,176381,123519,105548,-25047,154539,-16716,24403,-121687,-67539,-164802,112232,27384,90862,144810,-93914,-114698,49704,145574,55939,-157570,161448,113635,151314 },
        { -153167,103028,-44790,177885,142400,-110599,21780,171473,-180947,-390,-151765,150181,173843,133913,-55958,158447,85970,-158276,14637,83545,-24766,-103773,139362,-185880,195806,14929 },
        { 66209,-113114,-66421,-139720,-21834,-177120,141759,143947,17154,-50359,-165120,9019,-169898,-122324,-90640,99827,126888,136358,-5134,-29079,-121133,51512,-133672,119546,67855,144919 },
        { 53827,192390,43035,158304,-46657,39714,-106233,-39818,175904,-67650,-182272,118467,135106,-104658,-85280,141089,72742,-14475,173622,-116380,-149033,79156,188172,180691,125878,-194698 },
        { 170782,80816,-113043,-87664,-34292,160405,92987,-6266,57053,-160106,-58538,86533,189007,122427,-32556,-32525,131693,10221,121219,102456,-73477,-68337,60101,79399,-33243,-88188 },
        { -63956,-118066,-126733,-98814,-6753,48310,19349,-66016,163177,43091,37000,35213,153428,140932,16800,-102184,11477,-166506,-88024,-99962,103668,-145194,32301,56079,-82854,-199645 },
        { -176625,-190454,-39334,-184899,-141474,136969,66632,-130224,-101911,-155957,129940,-162037,-58493,-3707,-30386,-165464,-70995,-23375,47927,105805,-28842,60422,-151228,102347,-38805,87065 },
        { 23968,-114345,-194420,11374,-9539,-156490,19191,181549,93053,-33687,89523,-179253,-104501,-17125,-95220,-135530,-132912,134298,-137777,-174685,80411,-194556,126245,-71540,120943,-101091 },
        { -27987,-176788,97197,-176290,127242,-148104,19762,-48090,170098,149509,88132,41882,166746,-107542,-168619,-86622,-175413,-83806,-70995,-18428,7319,120308,-13855,-83787,-62489,27018 },
        { 141911,-83417,-188894,35294,-37894,184219,75197,123775,57020,15003,67250,-36398,74720,44381,-192825,-97299,-85125,194003,85835,36147,-102367,-191128,-196011,-11260,-77216,-140271 },
        { -124295,133005,-116995,60357,-193738,-3499,-157607,-156114,92303,-35662,30486,-161191,108126,181057,20352,-171447,-135483,65132,23143,-137513,47546,-176474,-181722,-101767,-30699,-61767 },
        { -68030,167682,-146671,117995,-110279,143307,52044,120343,-126571,3089,-75727,-133991,-184843,47137,52946,-46783,155307,125255,-136724,-58034,-7870,104484,137994,85898,94363,141958 },
        { 118375,-183244,-106519,-17589,31221,34914,-49182,-193434,60028,-88174,-56327,-54176,-7481,102807,63340,186586,104698,191616,-53919,75832,182845,19722,203247,129572,-149796,12705 },
        { 37280,-31750,-95752,187698,-8525,-53922,24209,-29123,171967,159244,-189044,-8736,-137813,192886,120125,112482,-137572,192810,-109813,-44613,126302,-4932,187953,-75008,47587,-148607 },
        { -113270,182073,-134415,119777,-22103,89362,-168754,127925,-136435,117374,-36756,-43059,-156356,146559,-30873,105573,-186746,-177230,70256,-174499,71510,-49489,165036,-150240,189610,-184002 },
        { -131864,-149592,-165222,-184523,164820,-64866,-151516,77386,-47829,39927,-112956,7753,-81550,-32670,-148613,38306,87969,139852,139938,136449,44631,81438,-81719,31490,-61836,126459 },
        { -69566,117775,-98224,107571,54932,-86933,93672,101617,84725,183844,85100,-122509,-87265,59970,-78883,19834,70769,21685,88498,153317,-147471,-147304,-67416,3837,137491,-192231 },
        { 82718,-134977,115806,-1934,102994,14667,42272,-41239,-161245,51713,-64491,82726,111155,-33228,-44152,-46462,376,34564,-151537,29991,-143617,65685,73593,-89642,162109,188516 },
        { -45894,168935,-160170,69109,-1435,50735,-142538,-10665,124843,-96615,54316,-182135,-118745,171905,-176624,-9394,184872,-138320,19936,-121738,41810,-36858,-192161,-139705,-102906,42040 },
        { -736,-99065,-178977,-28383,62327,185069,-41027,68315,-75868,-116379,-32595,-128491,43034,130201,-38836,-76887,-74792,-55326,-37969,148736,-66296,-189543,192268,194305,-131208,-180774 },
        { -12352,-133016,-182467,-180128,-79617,-13542,160826,41388,163320,-143459,7621,102168,-31089,44096,-19057,-122729,181998,38891,-1028,-103948,-15172,-136106,163616,104562,-33635,-194268 },
        { 111464,134999,-173464,-64625,87745,66138,172037,-66894,-100752,-13508,130282,109136,-42189,45828,116485,-146918,18497,-57266,-10739,32077,-135800,-108723,-62057,-155418,37042,-129375 },
        { -123777,-57834,95784,-18492,1600,147241,178200,-110930,164070,127569,-87257,17086,190272,-192503,1102,139238,53041,-36125,167110,101760,-96463,-118044,67290,158133,76236,-9795 },
        { 8169,-96255,23917,-146639,101702,75750,49706,-159397,-32975,-152920,-61070,183869,-13738,92985,-162953,6955,-10983,63346,-174302,127639,-176479,32015,-139212,104443,75424,-33480 },
        { 47818,-148456,136171,-189067,-79016,-53106,187015,-58839,61240,95060,76988,-36285,100994,-147980,130667,178521,-136572,-85881,-180810,176461,77511,13724,63221,14015,-17266,56328 },
        { -30846,87178,91594,41300,130000,-189028,96176,99443,17706,29197,-159751,-151734,-113343,-53408,-65191,73838,141189,-158070,80770,-24271,113886,121934,196480,-91040,-192456,-76802 },
        { 14630,-141690,-80738,-191528,189624,192053,-82088,60811,-148694,140437,-58808,155842,-82025,-37151,-129498,-116227,-140948,91175,57071,103485,15130,-153014,-114841,87659,105576,121942 },
        { 48236,9035,74341,9688,22556,149191,66290,36079,-48813,93833,108927,96202,-185869,26123,-84758,-115164,183110,181481,-191074,117589,145458,102687,-71606,-116001,-21800,-58510 },
        { -34142,-11538,8712,11547,82378,-75076,-107997,77325,-110862,-181397,64416,-169408,99172,-131986,-17772,-114087,120497,138577,-154340,-74892,165821,32532,91376,120440,1622,116790 },
        { -153175,63999,49229,-188006,-63607,-129408,147031,157260,-59262,-13863,26071,180617,-83319,-43684,-78885,-100956,113297,-9662,-152427,-38667,170988,-81757,101421,138848,91887,48555 },
        { 157487,51371,46461,-44058,-119429,159380,-186269,25928,-160860,114734,-98421,-184924,90369,-147789,183230,44760,-96154,-12518,-115603,11906,-150055,40727,167965,70456,-124681,-139804 },
        { -2750,-123821,3630,-150325,-20832,38754,76554,145791,145491,152039,44823,-51881,45190,-19091,-52091,55721,173556,-23041,3546,130728,-157145,66703,189830,41271,190413,-177839 },
        { -148434,10615,-32837,-165346,-58233,-44877,102475,-70075,-136912,-56852,35557,-142964,157348,-126367,59252,-144793,113538,36339,191874,-177770,170571,-3900,-54016,-152238,-78710,100232 },
        { 87322,-191269,-72614,-85908,23878,-81205,-50679,-153773,34444,-35831,21249,134620,29447,163466,102948,-113512,104980,-71790,119789,180511,-93560,-4964,170906,-55073,48653,-68499 },
        { -112173,-61646,-161413,-161064,33227,-160348,-109675,-43983,145433,-155998,-24590,23519,33555,-59613,-82754,-2484,127029,103943,287,53402,101582,-156010,43558,-196775,55615,-42372 },
        { -191950,-34962,12540,-26738,109228,-66993,-27742,146507,181428,-88856,119873,112787,-50496,-114471,76840,-127134,-115492,-41393,-113936,-26958,-41939,-136843,78864,-82707,-1894,-127664 },
        { 153573,87494,157261,11150,132872,153310,185759,21605,192425,-47310,-115034,-134875,-146877,122534,-184989,-21625,38967,-78455,80591,-25618,-18807,-67259,-105615,-184722,115228,155011 },
        { -133001,-51471,1587,-727,-187836,188831,-7399,-166684,163954,-82972,-109327,-86838,-35843,-94265,-131745,-131638,96567,42308,-80850,158389,-67811,-143218,140025,-78653,-214123,-118477 },
        { -169884,-187958,110783,95730,144456,54918,-105318,-169289,-81652,-11376,-4808,-51743,2663,-187800,-193558,32503,-85949,-169826,116063,-118275,16891,15611,-17383,-189032,-199799,4365 },
        { -89713,-199191,90283,-55697,-10975,81926,-106663,166742,114756,-66905,-33077,-103447,-183997,-379,-175420,-16366,-132436,-186618,-121154,-51812,101162,181465,10700,-39445,205051,99929 },
        { 146245,126201,-176340,24415,103774,-7565,83366,-40096,-147959,66918,-155163,-141882,-82792,-68157,27689,-115568,-113417,-151655,53801,55910,89943,-69926,-109648,-113880,-7242,-198506 },
        { -131008,11730,128758,-112036,-159998,23062,138566,144081,107693,-100099,99665,142697,51199,61205,-80309,120461,-66167,141756,140654,-173792,-72351,126000,178655,-40930,182082,98046 },
        { 158472,-133470,7334,-160811,33449,-164551,7395,110445,-182150,-156961,62640,-48939,-70123,-31396,-120760,-123973,-75236,-119957,138413,81433,102432,50869,204002,46186,-144531,-188992 },
        { -82642,-65183,-185393,161019,125027,144269,43739,102164,-77810,114619,-129729,-52389,155928,-79613,114081,-154010,-23867,119014,-11233,144038,-61876,-178771,-56119,-220789,54048,-39565 },
        { -95863,131765,25717,-97432,163360,87774,-186823,73030,165874,169722,-156455,-150670,31890,-138557,-140703,-173409,188488,-114191,141988,87518,58781,155689,-160782,-18970,-48300,-132953 },
        { 114816,-170955,-140777,59374,-47790,-139204,-113206,-123315,-43932,-99321,3780,-56618,187084,183650,-127324,-73145,54909,3696,-169527,92935,180373,69716,73179,-152481,-190161,31174 },
        { -185411,-116577,-189403,81032,-116977,108098,-81609,-75709,34303,-164511,-46637,81392,69498,68427,-123870,26636,-82631,64338,109557,29809,84803,165903,85754,157576,-107196,27011 },
        { -113198,84027,-26427,-96067,-102351,-70318,111806,-141730,-149222,56396,-79093,178939,-126769,53024,77939,46309,162712,51983,178013,-49645,-131077,158145,-68564,-77606,-169967,-140377 },
        { -187653,192435,-46496,95249,-69974,168869,-181811,-88049,4819,147162,-47813,-172095,-61623,-33923,94007,170987,74929,177601,-2439,135887,-140050,-54080,-180040,-163262,-82455,69217 },
        { -146248,182124,90439,-96596,-80392,-27470,6387,-29456,79615,151229,-10000,-152681,1616,-69712,-64565,76068,75108,183106,173968,-134975,-172662,48559,-168847,146429,16791,-141301 },
        { -72745,121137,-3483,89403,-166953,-5941,175532,-185385,180803,-168757,160895,147224,-129987,155082,-43871,-127720,57091,-3309,-145503,122897,-155992,148376,35867,-66269,-70087,-20705 },
        { 85349,-25844,128520,6609,123729,72241,111478,4337,-56041,19538,23486,-46382,-28227,-133619,25600,176193,-186558,102235,-65634,190178,-30584,-20327,141724,36902,-1936,114129 },
        { -173715,45119,140687,81023,-173308,-56544,172493,193592,181193,-13633,-187444,136506,-125386,111178,61795,-37951,-30672,1152,-75621,113019,49581,-51689,142766,185063,-7678,-179461 },
        { 154395,-2407,107,108062,-131493,-26817,106628,-33373,56379,172831,-93826,-147109,38270,167789,153936,88489,-59068,128541,-73062,153869,116774,3265,-56575,3962,191688,44363 },
        { 20886,178127,-26638,-87118,118492,-140628,157524,-143122,140981,-115912,190796,80156,-192371,66210,13216,59826,21628,100146,-101990,-124300,-159516,115580,-80522,54701,-154027,-27867 },
        { -24007,151842,-84202,21420,-143933,-10693,96605,161732,93501,-109163,22301,-186471,-19497,-114777,-71538,34242,187350,-170097,-155727,-50821,177156,133699,-8761,-41984,33468,-145508 },
        { -156813,9913,28697,169878,64811,-96844,-47237,191049,-139650,-31264,-107725,-26003,-55919,59941,-127012,-125637,-52271,156364,23006,182025,176107,-15979,-116283,-27647,-185378,14390 },
        { 112994,63146,-1251,13563,92784,25803,-19131,-187698,-25864,88965,92957,-40366,66077,-132385,-93510,-107526,-181392,100056,-122127,-172691,-132346,132251,-56747,-79906,-75251,-108468 },
        { 40752,-99159,190225,-182920,-89779,47350,-49470,-656,-152777,94355,157782,-85753,-61989,166139,-68088,23370,95751,64017,64368,-14228,24856,-40597,108314,-85424,63962,-36682 },
        { 6401,22148,-131112,-15936,139083,-169993,-163921,69611,164063,-50301,61262,-71453,-31132,188865,77828,-107777,-10216,101123,-191859,-168969,22115,-35798,-8384,-7535,-56073,106484 },
        { 73497,27261,146069,-86686,113486,-191634,-2482,-34999,-37264,-116198,91050,-32772,181992,-50027,-99597,-112766,-80819,-87100,-42614,175938,70967,73206,-13312,161591,130715,48646 },
        { 78237,-177815,146226,-21142,80923,-169539,47671,-173167,100826,13937,135433,49204,-74092,169716,-80624,4820,170054,17970,91109,179081,-150859,98241,-43920,216097,-156424,-6168 },
        { -36169,141699,89435,-68347,47943,36746,-71468,159973,162285,36531,79413,-40206,173089,-8743,13854,-75980,71201,152020,188856,-111870,48623,186600,-106933,-11523,-137819,-74768 },
        { -162867,-109798,-139159,130554,-28597,156091,-78817,23718,16560,111845,185397,194082,120357,157498,-128594,67457,-73743,85124,15836,-78834,-176504,55982,-11791,60956,63685,122612 },
        { -60937,51408,32681,-172093,-161981,188868,-83425,3060,1506,3642,-19417,179595,182956,-53418,-175226,65390,133540,-63485,160995,183616,-39396,-113434,2783,201241,-187119,154487 },
        { 29984,-28599,-162903,56303,-188139,-6286,-107169,-96297,-114622,-156729,-174609,-11846,-18661,6583,188273,47069,-64230,-34346,8921,86492,183376,15322,148489,181315,-45361,78421 },
        { 181308,-172628,-30916,145433,-186940,11359,82270,54277,-164049,-12028,158632,11305,-135236,-130172,76892,-153700,67199,180383,26831,-181338,-53882,-90949,-156647,-160541,94605,79155 },
        { 73549,-91200,-175022,21181,-62428,-94396,-35922,-188121,-182052,-80360,26676,44645,75033,-31216,-115970,167300,9714,-174627,22362,120216,-100802,7697,-116883,-168464,-49088,199743 },
        { 181177,-78693,4239,-97342,173671,-53317,-135654,81095,-82907,-44455,-78790,91515,156347,-63044,138634,-87658,-82909,-95946,-154993,159345,123619,73668,-32863,-118354,-62835,85146 },
        { -107840,-44598,45391,169380,111794,-193373,-14981,78718,106998,-21120,145001,-76114,103675,-141795,-21416,-32518,191472,-86067,-144732,182838,-31380,-1846,107082,78183,69733,-159599 },
        { -170963,-84069,-179709,-188080,-105577,-142147,22369,5215,85162,12977,112206,160245,-5095,-125147,151598,-143709,-105832,158123,-76977,-43114,-104147,138260,138551,-42300,151934,74263 },
        { 132520,130947,-192254,-38934,-123152,91175,-119398,-10904,136554,-98377,-33643,80672,120617,-186648,14659,54809,109627,-131357,122434,29889,130767,-133262,123519,111614,-33499,-35896 },
        { -122424,69851,5243,145731,38981,-92834,-126742,-57575,-129354,135230,-169364,179056,-38513,-153137,23520,-64273,51336,-66913,-36389,86501,89187,33806,46242,-97044,39642,-57672 },
        { -61801,-54238,-5663,68094,-11399,-184282,147411,8563,136069,93912,-29682,-135592,153144,-123279,-48918,10145,130817,86746,-103232,31293,141634,-192745,137529,-4150,-78304,190008 },
        { 100007,69381,-180059,616,53898,-128485,48,-57575,16326,-188553,73799,60048,29393,-103798,-163204,9045,161129,-72096,69104,116510,79727,-147175,-184248,-116914,-30255,-80013 },
        { -25889,-126067,-140465,27645,-55281,174045,182916,115818,132778,-60820,-116834,-162912,-12117,102858,-47062,-35828,3098,148987,45983,125309,100407,132062,6519,124564,-80281,-6948 },
        { 181878,-1476,34546,-69227,132788,-137348,76239,138379,184642,-183707,110358,-52178,28146,-5035,-1584,112910,-128644,-129221,-108180,16159,189922,-116444,173941,-169107,-221512,60776 },
        { 141300,-89720,115914,-57918,-15249,-54019,-165595,125402,42739,161670,-182679,-17045,36101,-65339,180042,-166508,-114231,173534,-169571,194489,-134327,76110,-85514,-212874,28585,30836 },
        { 29407,-84329,99908,140904,-46815,-124254,-185947,71226,183683,192269,-179326,22907,171681,-168220,-148778,-94431,-12282,173181,100671,-94739,114784,-149895,-181540,-44733,158266,148692 },
        { -81014,-125869,-64098,182786,-65041,60207,179141,120968,189042,76953,-173794,141579,14194,-143951,101946,169184,-184255,24288,-92615,58231,-77693,170180,-178749,-107081,220415,49988 },
        { -19945,-154381,181652,73224,-161306,66155,28279,26443,-76509,-64403,60545,75247,191717,54887,-140105,-97525,-119794,18950,99266,36828,73199,-56154,-130090,16622,-190837,57 },
        { 20826,131,157259,186496,121256,59337,-9141,2608,-128666,94434,-102992,-149616,70263,-105723,-192784,169341,-35066,71412,84885,118893,-175607,126990,125755,-18975,-146204,-217914 },
        { 50525,32490,-77198,-137208,-114282,-67437,-106642,33889,-58043,61611,194712,-89167,98629,-168551,-54077,-149936,-112339,-118745,32820,-10288,58927,158264,-14274,-7825,-180443,-83336 },
        { 124521,178246,29573,-174462,130881,-6080,-126964,12149,2031,57115,-116908,18950,122019,83810,139160,-153334,65501,100724,152090,-137367,85218,-74309,-72790,188698,-184603,47226 },
        { -170903,29559,137434,90599,172427,188360,109950,47349,-30786,140863,61268,132837,-134910,85225,-142720,123131,9503,-167056,-8394,-131764,-71092,-188295,-158517,-179541,96118,92528 },
        { 62665,-146802,-66416,20494,82137,-184264,-165094,111427,-156046,-45258,25233,-193546,-128035,-159792,170248,-34999,110739,-70525,-112270,-44900,174104,-47189,78873,-214194,-33026,195462 },
        { -16713,88409,189232,177339,138433,160530,50227,94923,145834,127922,-169603,149572,-75422,173810,154205,27173,-88891,-126856,127965,121449,81281,102135,-56029,184864,38286,129197 },
        { -21681,39916,-39133,160004,91111,-122007,190994,140332,47924,34340,-165707,-184168,-110251,-32925,-65989,-115633,-153000,-134704,171599,-98520,-190441,-113567,-180791,-168796,-162577,-119800 },
        { -128713,-87591,64271,146470,-60897,80487,121610,156139,92047,77866,-64592,-86636,145172,153063,-157373,189898,151933,-3834,-63815,183030,98626,97899,38663,107101,-371,115692 },
        { 5840,139176,-32599,-193185,136655,144914,155932,-78008,16371,-172512,50892,66749,-168357,-114156,108006,-63158,-91711,-180230,83967,185627,164139,-611,159608,166328,148466,-166142 },
        { -129249,-117844,-146053,108769,-162272,-125893,146681,-141011,146688,-79521,19421,-64839,-191051,46192,114459,92825,62594,-26329,47125,58920,-100449,57036,-167558,38400,37719,-201305 },
        { -185406,156439,48827,29876,-135776,18180,112406,-73864,175626,177678,-89914,9742,178562,139201,-61295,-169882,138375,-133955,129451,121541,131795,101475,-38139,215140,131101,-29417 },
        { -3571,158426,-67876,-144886,66698,86064,93508,-171619,-131880,13208,106044,-114921,-126399,-179073,133844,192911,-159707,12846,187685,-9512,-187372,197688,-172367,222567,81671,-104907 },
        { 1332,102006,-150425,61705,-72499,91995,96035,114612,-106343,-90869,140630,70807,11006,-101354,12045,189845,192160,-180650,-124204,-62223,160582,-112779,-130464,54290,-190295,-207273 },
        { -103689,-152432,126923,27214,125959,155905,104302,99076,-5208,37705,37530,8721,182861,45680,49028,173335,-90472,156346,173134,-177458,-138770,20795,-168663,183647,97175,140541 },
        { 32902,-94696,67152,-134461,-165436,-98641,-116912,-152480,152527,-68031,-47377,-116055,160738,16270,-85152,163270,161909,-61964,-178121,37525,50497,-49041,42217,116374,181138,135645 },
        { -19217,3514,190539,145336,-187265,-169788,78437,17529,104196,104824,-81215,51058,35096,-180511,-6752,8775,-14349,-68721,175859,116641,158021,-39054,-192411,-37692,-134712,38212 },
        { 167084,-43646,-152526,64518,-3260,-140068,120928,22083,128825,-165634,-100530,114433,-101134,-165253,-93787,-76052,-165481,192403,-128734,40596,115606,11369,43735,98002,115052,-164640 },
        { -129717,-729,-159753,78973,134397,-73015,-118103,122708,-77513,190569,-155204,-83786,-48294,158338,72575,175834,-68981,37781,90147,-63831,-84705,-166470,-176027,-52214,-99296,-7822 },
        { 138870,-160038,30419,179402,129696,117924,167666,23277,145366,148828,183058,181795,120125,-168203,-60909,151297,-47814,-133850,-3657,-42169,174189,-116607,-152679,-19513,-50489,83064 },
        { 47617,-41519,62102,2816,78654,-183063,-62253,149957,175560,-94811,-12468,-175012,-93789,47937,83724,100498,-97669,130120,-165797,-74913,160720,-23375,-27391,193997,20131,-114647 },
        { 125931,165025,23734,71764,-177227,100256,-133230,-51882,142639,-122855,-154078,-53823,99873,-73932,-79130,63263,-176634,12863,-156712,99371,75277,-188309,-171487,96041,-53708,-29180 },
        { 141548,5898,-10638,121508,-40383,-45424,167448,-109826,133740,-93185,17759,-95189,121217,-188671,96118,-181451,104406,-477,8528,-63239,4800,-68211,196133,-83207,66315,166732 },
        { 90343,35643,88609,-190081,-84431,-90480,-183680,132396,17860,-144923,-190808,-43969,-107230,-94929,-15258,47029,-4628,123864,88582,-115617,-145775,115879,188558,-11519,-37896,73682 },
        { 200417,-8895,-130172,-105807,13175,164149,-62934,-132009,37486,-156894,11619,45879,56948,-150740,-191371,89249,-158114,113763,-137296,190794,147781,17205,3566,132988,-40679,50679 },
        { 167210,-72976,87959,-33273,35306,-100854,137555,33057,-107010,53244,2982,-140367,43417,153042,-88472,147799,-146081,-97349,57077,-13654,16623,185135,207216,214476,-74471,14971 },
        { 196608,-111044,-130783,-114962,-28582,3109,-135793,-24459,163290,-70648,55880,-69556,137056,-114889,-153906,-22005,-26969,-155011,-168523,-92929,56761,-193598,-117452,-121470,12855,-69390 },
        { 77684,-85832,27625,99391,-168526,-134284,-24787,-18579,-62202,-10045,-70820,22470,-145489,-66856,-21853,143928,-117920,93321,120867,77774,136253,38115,148482,176824,-99813,62039 },
        { -39857,23908,-194970,8173,-17423,-143214,24806,161788,-16879,-173615,10438,96361,-14789,94139,-156267,-37856,105144,-38327,-128762,-92986,-88997,-129484,79380,90783,-120720,178919 },
        { -130133,7912,53968,105746,171842,83941,140761,131613,37398,188925,180475,131803,-163162,-115181,106498,-127554,-124201,-9743,-105306,11017,-150152,-189275,90440,-137764,96311,79395 },
        { -25425,129948,-95902,168714,-103021,-130720,-25671,104382,-175917,-88053,-158315,57809,58091,-82520,-130376,152573,-116898,110846,128980,-25001,-100145,-158485,139628,41058,64563,-76153 },
        { 80757,-7901,173650,8336,71368,1088,5646,-67754,84355,31802,-76813,177180,159106,125031,-62751,167277,12089,102429,-188386,-31432,-33835,-157636,-7346,-204547,-182601,-64181 },
        { -184394,65980,179056,80770,79921,-1571,17870,-7245,78436,-38553,140810,183968,-3814,-134571,-19900,190424,86097,175279,-23769,-86297,-18203,-102778,137169,-199896,105692,-56850 },
        { 175117,167975,-81899,44078,151448,-140176,70505,43238,-131901,62115,74766,120084,-25161,-4575,-64633,68635,-106539,194028,-3937,37810,-171891,-16106,130498,-184290,-11945,150568 },
        { 15242,-68678,-11098,-77211,180997,121696,19236,-156258,83406,-175015,-4560,-192811,173902,-62725,-77655,-40619,11643,17110,116700,123005,145733,88014,156344,-208427,4869,-58659 },
        { -77705,-93479,136287,-91664,160638,90258,83673,16661,-84909,183574,41748,122712,38451,-20099,-187156,-75128,98118,186319,27536,-47670,-80082,-55065,-60644,-197363,-4705,-204466 },
        { 50923,-135246,-65169,-55063,61829,174952,-49914,-168164,121565,48528,-148054,117016,-159175,5702,154370,-2144,175449,-20610,-50073,64131,-165013,40011,-207320,40378,188228,-1762 },
        { 134245,62092,47112,107868,-132244,127976,-181091,-142129,-120278,-172292,100071,59090,133177,33868,114363,-65037,152986,126300,106756,15089,142192,-165269,-38824,-79856,80439,119651 },
        { 132864,77819,-147580,104352,160880,165637,-140412,-103282,135091,-140639,-84520,100728,31838,156916,67293,60610,182410,-176111,-80034,141324,-8958,-7472,-18221,195780,338,65369 },
        { -17460,-174185,66106,-108750,-76363,-181589,23930,29608,-20700,39076,78181,87498,17755,-71046,19002,-124984,-181921,-3840,168054,177171,-149254,186392,93533,50122,-65374,58140 },
        { 58159,21996,81538,-78807,-31885,179360,-154396,8769,-186301,-156263,-184085,-174086,-190773,154560,94605,86674,25417,-25529,69230,-6302,-121284,-141441,125464,-111444,-103046,145256 },
        { 15607,-117677,-120503,154677,182629,-49040,55064,166248,157915,-48943,-57679,-58115,61657,116734,-155468,-162780,-98186,45036,-177861,112602,185450,-163214,-121986,-213012,-145884,102772 },
        { 126218,64840,-150878,121601,39735,70631,120050,-108619,-18996,-178668,68247,128700,-71382,-194597,127219,31588,-63774,166232,-25249,56418,-90828,29130,144603,50140,188591,-137105 },
        { 113410,-65924,-17906,-26680,83395,161790,-134265,50441,123122,-165200,-101058,-77131,-125721,-52134,-10073,-183594,59232,-126317,59061,45325,-172532,126286,-12601,80304,-210800,-66104 },
        { -167300,62683,74159,146518,84142,36992,-159373,-77842,-20960,-67257,-191511,74266,-172138,134980,165776,-4420,-82274,-80815,118162,116859,38450,-42811,-41329,-30176,-143315,115143 },
        { 100660,17677,-36570,-45754,163875,-29109,53503,-40014,14230,-62264,7748,-13265,-185411,-47583,18382,101450,157983,162802,10391,163798,-66411,-180841,9876,85507,83224,-150036 },
        { 48015,189373,79236,54423,-130100,-190646,139801,-156216,-50435,1858,181647,-115797,-10941,-178936,-76378,107003,165508,84975,148717,-136211,-62054,189212,175648,-121083,-206949,142737 },
        { -188501,116026,-102842,-19233,-115857,124379,-159506,105582,-170760,-25309,158327,115580,34014,125253,-11076,-70793,75057,-199,-97205,-3022,-47794,30173,-78888,51189,37085,7020 },
        { -66237,119989,63704,141525,-4527,11880,-137913,93895,-3264,47607,101292,63103,-73121,-166189,-57286,-11381,152815,61297,44093,-188844,77700,-146562,134807,-197835,-184983,151340 },
        { 168389,-32800,91683,93914,-122978,91356,-5413,-76555,189119,22344,5076,42216,-74465,111314,-176328,130184,-48616,63531,75320,-54985,167677,8737,-192711,189610,-76367,193745 },
        { 65714,95983,13816,186119,-36361,71935,187100,19962,140898,36966,11989,153698,-92294,-63267,-88006,172742,75406,-91792,-171164,-50382,82005,34078,-157473,107474,74414,73858 },
        { 21942,177697,-136323,-73863,186261,-111417,-177915,-91177,95603,65641,164935,1806,-6915,100300,142086,56552,179589,-187643,-52831,36159,114661,-63704,-163101,-111587,26116,21057 },
        { 93155,46921,-43285,15952,-98618,-66449,60761,-138255,-65812,22187,-172513,-149996,-62675,42055,180575,109063,75354,136536,166431,-125498,-155863,139398,176034,-195451,-117879,-125994 },
        { 91845,126393,145135,70480,-76391,179009,117217,139197,156095,-1244,-164087,128609,-74880,-1451,143112,119990,-150332,-119577,112505,-129974,-172106,97853,-149561,-8432,26427,-181869 },
        { -75332,-147280,75009,-143120,-115002,-184972,-30713,14415,-190769,112970,-113538,-83582,188891,69131,30159,-182720,-78772,116305,-157762,31417,-123372,-108619,-8550,183870,-8123,-183135 },
        { -74551,2636,-71034,-82186,70719,47309,-134696,-158922,161083,-182765,-97484,110014,-181507,-76883,137363,84065,124111,121612,43650,189478,103103,122841,13385,-27821,64430,-341 },
        { -181705,-115340,-183257,173121,3503,148417,43506,117413,-121594,9671,113595,-90900,-44021,-40857,188986,-59184,49770,-180887,190165,119846,164528,-73886,-74175,-65107,-136352,110647 },
        { -14398,-146992,-58734,-152289,-183971,9801,-96235,-4779,-154335,-133602,-119641,-3138,-28701,50088,-34227,-184235,-27264,-26530,-100503,-78830,-177200,184033,57421,-148928,-195226,-72130 },
        { 113734,-79536,177086,188852,-2797,74798,-1703,-194254,-186102,-83762,151355,103622,137222,61170,90403,32416,-174509,92563,12611,-36695,-90721,-166336,-176939,203407,-126702,155006 },
        { 48911,-21774,76338,4619,-76333,-28888,9913,-113093,-141471,-79437,126690,10796,33554,-173059,-168667,-138692,-135083,108294,-126489,84632,-79120,-111326,-113978,-453,-33785,187203 },
        { -12029,172823,72770,-12979,54614,186346,129581,124637,121753,-111133,-139926,-150602,-109286,189019,-172292,87929,145339,52068,-185324,-112246,148083,-40994,148432,26809,-42185,-194156 },
        { -167000,-102627,85078,21090,-129297,-66317,-125557,-61456,2916,139647,70374,76239,104708,146409,181551,-90076,-36629,-3544,194072,188391,-43265,79165,50973,173860,54652,95446 },
        { -39694,-32057,22515,-177695,133160,35910,167803,74247,-107684,-87099,-103689,-3103,129724,90319,-104032,-121146,-178556,-70539,-165227,5469,90704,-99933,101399,-202489,-99955,-136298 },
        { -176107,57076,64205,130615,-159868,-39184,-51121,-58283,-33295,-37743,-59674,1631,76784,-164596,186643,-170483,-127595,109095,-123497,62793,60639,-53398,103428,59920,-195490,-41363 },
        { -10781,-42359,-142447,33171,116024,-178397,141227,-110503,23170,-20285,98799,-13843,-126570,-162842,-18745,-151194,181214,10246,57749,-28581,-73591,-12475,-157342,-77814,57596,83559 },
        { 169902,30915,146146,56772,-179954,20403,-126025,-54927,-99562,-165088,125111,-58663,-4678,-36696,-155105,-191403,-51721,-57519,8578,-160007,-180024,180003,93667,212301,29265,-153692 },
        { 55569,-64170,-132223,125598,56867,-32874,83170,-177013,-13777,165713,20603,52847,71011,19084,6180,-16018,-44791,-6219,173127,106910,100703,-111197,-182488,-135302,129376,50242 },
        { 122446,178654,51570,159656,24905,60584,38318,-29923,146308,-151556,141199,-187617,13066,40169,-35774,97981,162483,-163860,17399,-138974,-119870,159605,162180,-214659,-220903,162451 },
        { -203190,-94229,-75530,165989,-60204,-82871,6276,-36863,120937,-54022,7345,-92506,-114436,1519,-38026,162847,-30536,43323,-168978,60159,187421,101929,-131048,-209916,75539,123013 },
        { -133300,-111858,24919,-157299,-170504,-12761,-68835,178320,501,-83721,31785,128856,-44225,4378,126454,17662,-171258,-14752,-121395,62197,171298,-44976,-152598,-79679,-3110,-170436 },
        { 118903,-127745,-42312,-13793,83105,-105657,-152852,49461,-21236,30754,-17986,139662,-41491,108599,179149,79232,150421,-140943,-11737,92323,15015,46784,-102278,-208594,-109842,-19756 },
        { 23084,187624,120211,163935,-15894,-74922,147207,-84680,134626,-193872,71946,-182966,56085,-187742,-87320,28291,-130969,-25343,-130318,35914,38829,-110337,124914,88251,-90925,141589 },
        { 130223,-1010,84789,-47376,132775,-178673,-166607,51171,-185092,122644,-20962,-185364,-363,111749,32579,-151481,-9242,3265,169226,-70909,76802,-6200,-182569,145619,140175,82511 },
        { 146838,-62249,-168626,-101936,26888,-137840,128600,140829,-144156,-190422,-155685,132987,143796,-30323,90549,77622,76267,-59378,-97289,139051,110352,183534,134289,190795,-164116,74141 },
        { -124596,148843,14562,182703,61333,74512,-30689,177248,-106394,-105661,24246,-27606,-68176,-39375,-170341,122088,60085,-131919,47257,170584,-111080,24866,-114677,-133884,78804,-150527 },
        { -154533,-148613,-5038,-111013,-30506,-179505,115501,-78399,-88199,5855,174616,42090,-179486,-137023,-36719,-27679,123317,103212,-165441,151372,-20221,155601,3932,-190494,-89348,-63858 },
        { 43797,-108402,54196,-34528,-56601,151157,6571,9275,107868,135475,129481,185160,-72552,177908,26901,-147181,-155287,87269,56862,-71494,134986,-167429,-6575,178656,-120737,130124 },
        { -186198,-192137,-10311,55167,23129,173893,-108586,39585,171293,-91798,-109303,-57754,117006,136530,-162264,35361,-96168,85354,7922,-108421,-9132,-183650,8075,-137320,-96844,53234 },
        { 28520,-165991,146968,-110175,77028,188097,9887,-93559,161089,-141533,148552,156022,-24808,-183474,25449,145409,-121567,-19383,-173361,180859,41367,-122028,109413,-183244,78308,-99726 },
        { -8389,-71101,97848,128273,-187540,128602,137235,143098,-125183,33962,-74768,-185988,86525,-85257,84306,-183069,6023,133574,163482,-26982,30656,-121231,-177503,-85083,56957,-27698 },
        { 149622,-68665,31889,-2229,46250,-119064,97564,-108164,-71991,91863,-20470,56329,-110314,-16900,16569,111110,-24244,77537,149507,-181381,13810,-147608,19718,-41937,42197,35463 },
        { 93486,126931,131268,-162691,97571,-62084,103294,66145,-137234,-133996,-149439,-13055,-105999,-118283,-41065,-142348,152739,93083,2375,161497,96498,7440,-180816,-163260,-58524,-222 },
        { -130145,-4619,-101101,139574,-10775,34616,-177512,-50370,-117085,78765,-41473,47075,-59059,27713,38842,46043,-162987,115516,-36640,159657,-156356,-179021,95668,-164022,-40757,142352 },
        { 105628,-26062,-162510,140783,129911,-87329,117021,4978,-78097,178665,51345,105039,88428,132795,-125765,-170994,-48271,-19572,-45660,-5953,-18553,33623,185012,-119115,-132412,-148944 },
        { 154757,87350,292,-56596,41185,-57657,67361,-32823,129055,33920,158066,164033,-149367,86017,-121745,66538,85832,-133862,-78208,25755,123253,78848,20725,-85495,-97991,-105005 },
        { 121030,134333,-114043,-87425,-109508,-68522,109648,86522,150805,-42217,27125,30552,121960,-152314,-23360,134911,58870,-168265,-166464,160168,-141363,-53750,178861,-58699,-39220,-110469 },
        { -204279,72780,-66988,-13170,-58739,185435,176330,92788,-85955,-122707,-114622,-88897,125369,14908,-7308,-110151,78427,97895,-71009,-22392,-182615,-33827,-125451,-158297,146392,171077 },
        { 100506,119202,33807,149071,-12558,61049,-88827,66444,-30728,8245,37921,-2311,124988,154525,-165435,175276,-43189,120983,-161442,-150436,-122798,-21050,153596,9456,-106124,46973 },
        { 107259,111478,-131437,46487,131814,-62798,67878,-138957,-164419,-65611,81899,139590,101128,-111742,65873,-63992,130275,78673,104997,-91785,-72879,-57371,-173199,-203997,116858,-150725 },
        { 147631,76686,78340,-154337,11649,-13284,78687,106279,148473,-50673,-5759,-81617,138751,169239,-125575,32835,134015,189645,-172032,-176322,194062,31144,-180622,93204,53191,-22235 },
        { -135481,190315,-59260,177820,-15290,-162266,-37056,-58811,-192934,68312,99514,-117544,-166199,-39192,111585,60169,185650,147892,-131059,-32800,-46544,18808,-80146,-161616,-184,113309 },
        { 67996,-137307,117687,-130095,50280,129901,-97349,-163945,117108,-1014,165851,40611,8705,-42119,-99616,-132929,-117706,-85356,38851,98565,-70146,-106512,-112193,-15338,172869,-64038 },
        { -107546,-41074,-143365,10837,-82604,121110,-163178,-48407,-117945,124394,119415,20349,146508,17517,59563,-20154,-78603,25399,-117617,72246,23771,-48096,35651,-198295,-173017,6549 },
        { -193183,35061,-19112,-184157,78820,-59012,189927,159067,104215,-27866,48612,4574,50477,-191431,26276,-85186,-36055,-182418,159200,-3204,56992,40723,-16449,121395,-19439,67217 },
        { 196126,33468,-125485,153756,96981,150891,-186596,87301,-104235,149101,12955,69312,-106511,-11504,11569,-65529,-109317,51519,-106201,103628,-189698,102954,193811,-30893,193568,-125368 },
        { 62344,43197,81650,14476,73873,6543,-180247,143978,126397,-163891,-172390,10650,141576,-186075,68091,-161365,67300,149007,-76824,-191292,-143261,-187257,-131965,-198565,-38694,61454 },
        { 11607,131651,-99094,72940,-136164,-113175,142366,94526,-114091,-148754,-43073,9327,-96664,-107181,-152218,-159391,-42137,-75816,-50753,-155762,73508,129204,147538,102106,25750,75342 },
        { -102522,-186231,-51684,121544,1400,-9869,-128299,108848,-112409,-86913,158071,140520,161324,-121415,-154214,-46161,279,-81216,67164,8928,-77932,38297,-115534,106400,24855,42020 },
        { 124063,-13249,-63270,-169809,46244,-65614,-106300,-146456,-79892,-145011,133696,167225,164921,-176396,156351,35984,-192115,-1098,116066,12620,1845,195458,-57672,-184121,-4083,-85068 },
        { 117060,-174132,51269,13100,-170298,186586,-33070,-141558,115872,27415,-110778,-94480,113910,34441,109421,121230,-108921,-25741,174084,-19309,152595,129079,-85882,-27759,-18398,70042 },
        { -102079,-14442,160392,-29286,9111,-186699,138575,-179363,-128522,138430,25553,-30856,-109044,-193631,48442,-61326,157267,24197,-131169,39074,-9067,-127911,122425,-136932,91594,-125198 },
        { -71153,139471,158891,-71586,92979,137761,138222,107634,175066,122799,-180351,-169666,189657,92656,-135988,81697,92125,115631,-45232,-117161,175546,116109,188793,72180,103993,-147696 },
        { 80885,-1980,-84314,69501,41265,31290,-101394,-62296,-110279,-126676,-159196,-131673,-54845,-16159,-16714,93800,150862,-182448,46878,-30591,-146665,171707,-146191,201710,36207,169323 },
        { 84731,26897,88114,-37218,162744,-48955,-67491,42335,-18524,-60314,118834,-126180,117182,190910,129387,-19747,-114516,191597,-95090,-133181,-116708,-81213,-55760,-195433,-170356,76679 },
        { 38649,-59482,182503,-182981,-53424,79608,-87206,-182300,-136920,122278,-118114,11703,-187292,-21281,108992,166137,104748,-15805,15093,-168390,51703,170520,142013,53514,77200,-55275 },
        { 122136,-154315,-95937,-118881,109827,-43183,148800,-128740,98899,97120,-10891,-313,132442,84264,19529,-28195,82655,104571,74226,-85552,-50488,164118,-12346,28966,123482,-51215 },
        { 157247,74685,186893,167650,-174407,151729,81922,-7658,73682,-117287,-39771,97565,-39858,44506,30614,61270,-132177,59898,-54686,165560,-60657,175788,120015,-43253,-212589,153310 },
        { 149719,81077,-186192,-106986,23884,79732,-64540,125581,73941,46458,-31505,27529,-135083,123901,181211,-144826,-172416,-76723,148341,88103,131789,38415,-56440,-103763,-121468,-178056 },
        { -81987,-74371,2988,89574,-140632,-51700,-149928,-167176,-15795,-80386,-19110,86491,-115359,175251,-123290,-106680,-152948,147387,37940,54369,-91096,-89259,128209,183383,104718,-94 },
        { 140757,55708,164297,180651,178548,56018,-60903,186427,-53801,150375,50959,11795,-47444,-60505,-145372,116112,-130479,-98198,-75025,169866,-43017,-24344,-31653,-4401,-170124,49934 },
        { 65062,110187,104766,-18808,-96666,152993,-180041,-78028,148221,38582,50187,154648,-38217,-180290,-100439,-112180,181321,-98647,116692,191696,-182205,-49972,-180851,80968,69651,-73140 },
        { -77447,-112478,-111432,60310,64329,-112837,31756,-23778,-139295,-92582,135541,115355,140822,116678,22489,-179204,187449,-186412,-154911,-71593,-1580,44091,98246,136557,-118787,-91410 },
        { -38227,-160887,-46106,-130963,-135590,35743,20744,-152873,70918,-13750,-177632,-33354,-97214,114462,-38217,109307,-140155,-131472,-137125,-123843,-188138,-3159,-160719,36001,507,-56726 },
        { 184144,60571,177011,-106647,52574,60885,25661,-55276,-28245,-34983,151778,101845,161370,179856,-177190,8398,-118281,103015,-114554,-44658,97297,-83396,-135718,123962,67558,-189230 },
        { 91427,-79248,-137865,68127,139172,76615,174670,-119287,144550,105476,-197,26341,66604,-191180,95020,59173,98537,-83839,158153,-41108,74242,15078,67480,-135611,-88523,-42097 },
        { 105507,46737,-185258,113777,-62089,-151619,-67523,-65826,-22537,28838,-118721,159667,-71285,-100333,29987,29355,58934,145117,-177374,15909,166806,-18308,43309,161250,-165651,-39157 },
        { 129888,-149614,-67387,72871,124504,39938,185657,34673,-126386,-154997,-146355,-191175,108831,-163621,169998,138226,-39952,126038,-177822,-130338,90485,-152287,-60970,139517,15751,-152821 },
        { 58593,-55522,152608,-102143,-84215,-130634,-49909,36942,190645,86182,-171252,25414,120286,77551,-69335,24942,95244,122469,41662,-16370,18087,106826,85401,31898,129616,150442 },
        { 88225,-137270,58909,63575,110260,-26717,-136113,-180942,-154536,-193488,101157,-152189,-39616,-32710,-69763,-14308,20384,127887,-6018,88965,43085,85810,-171374,185664,-86733,67552 },
        { 92379,85387,-108311,31859,-29340,-76943,66552,168914,183583,-119509,87208,-83430,126151,134190,62118,-53612,57166,83766,173395,-140436,125897,182563,146306,130239,-68576,-105261 },
        { -117416,-105408,-69222,-46919,-79634,52298,-30526,171657,-171259,119672,-74632,71303,-65433,-161089,112500,111847,171377,65561,-40152,39993,39792,192170,-63047,159113,-78854,83446 },
        { -15168,44610,178164,-128613,58601,145313,122600,164577,-97036,-32830,-139588,-165957,187295,89484,145757,103835,-17643,170719,47087,-122489,151310,-155034,87682,147404,92195,2287 },
        { 30023,-39604,182106,-36447,129185,-101528,-183630,-131468,-123074,-172029,137168,102,48625,-121260,108226,-192162,9895,39133,-150231,116270,152940,-169597,-22716,-187099,166812,98549 },
        { 29668,117827,-55602,102426,-15005,8485,-31111,4262,-158211,-66992,-148011,-123339,-14830,152351,131960,86664,-161967,-119528,-69161,-157666,62817,191683,95232,-10261,-208053,164522 },
        { 64186,-20695,44491,7987,115256,19928,40947,-151473,126222,-172581,-145676,-12061,192781,-194736,44779,-147631,129406,9644,-48351,-103220,117309,129366,-33323,-139603,61469,-10764 },
        { 126888,79105,32924,167993,125715,5213,49569,-74815,-179928,173230,88207,137875,18504,-79078,18704,117495,107095,38910,64951,125961,-165570,126379,144555,-95761,158156,-89116 },
        { 72727,-167711,156250,156152,-61170,-32736,112176,163974,-126185,10435,165149,185317,-7004,-169357,81984,36276,-8790,-150699,23845,76217,-13738,-162074,202239,149458,63246,144959 },
        { -122440,-155657,-76197,181591,-29998,60064,145958,-2040,143897,-99543,-161355,160304,-8050,-64990,-194641,69699,88379,145738,173712,-100968,-19384,-104923,42988,-189206,-134958,-146657 },
        { -80299,-153367,-78995,-96154,-61303,168861,188133,-94959,85901,-110157,-179565,30307,131281,-178736,104954,-183148,-143495,71407,-172507,166170,81558,-162545,-133431,-205307,-55635,-182894 },
        { 153666,57976,-87656,16883,27778,-101365,3879,116674,98132,160574,-147353,-120386,-75108,-81935,-136551,40512,-26123,-37130,32094,-118913,-177621,-113470,63990,205441,151053,-9515 },
        { -96479,-9822,-131986,47593,-183384,182811,109996,155456,-177051,-47921,40815,-75700,147308,-148708,-70263,-13161,-71525,-35594,51199,58558,142623,115712,84812,-139402,136128,-6138 },
        { -41621,47306,-105665,86089,-147960,148452,-49376,81006,-76412,150881,62288,-135894,44537,-117765,69013,-9878,-57207,121838,183322,-79950,65788,-116887,117123,181357,166400,-54266 },
        { -35655,-9434,123055,134384,162656,53802,109631,-86516,-73422,178785,-16550,60973,33055,136837,50983,89972,-166430,-159918,-37660,73528,-14936,178175,109290,180515,-206366,129801 },
        { -176574,-55302,154782,-193350,-87207,-77677,100404,-122397,166575,67,-62345,-155430,-118093,-116010,-163507,-71248,170616,-157058,130518,-144565,71790,-71292,154314,-179017,-22756,74590 },
        { 165811,-92477,66428,-115341,-96866,-104955,-163620,-30249,9693,-69480,-154872,11229,88119,95744,-152922,76301,-19298,-26137,-151075,-104943,-97735,181169,36592,206962,28660,-104823 },
        { -81638,-90845,-55334,37752,-150712,-72534,186918,-194742,-1187,-43044,187537,3965,-62777,-165987,-55628,-104921,55212,176455,-86669,186831,-40571,168737,83135,-166394,-143860,201751 },
        { 98044,-158273,95379,-30884,-193802,170609,160202,171495,-135994,108424,-139355,-192404,-161391,77344,-111355,-100598,8443,171224,-87897,-126865,4211,146678,-164826,96330,80156,190402 },
        { 65464,15362,-4799,44002,-17170,-2104,-66293,-12128,-81200,187053,-120129,156021,169285,47349,62043,-115434,-183181,37968,111446,59881,7209,146960,-80748,108054,-191949,-149946 },
        { 113426,-118555,14511,188148,-111923,-91577,90416,95202,27468,-141750,-105005,-42674,-151231,5796,-178269,127834,-188393,180600,-4471,30961,-61878,-9119,85866,-199044,-75428,2998 },
        { 128264,60667,27749,59320,-174312,116634,36260,-71719,-3773,61385,113354,84847,-172621,17797,53046,46818,-148091,-169566,122181,50068,4591,-123779,40145,-126231,140395,190967 },
        { -100616,-186598,21378,180706,-171557,-155718,-127167,24820,-21434,6877,22737,94530,-188941,-49162,194856,29720,-177867,39440,-105809,-166094,-106017,95696,-135441,122078,-20641,-140335 },
        { 156124,-46740,169299,-14701,-188219,-73509,93228,84936,124110,66082,174794,-33286,-5124,120196,175036,4079,-157472,186,177358,-106692,50748,-120902,18541,48961,-142623,-92386 },
        { 186628,33131,94479,165453,-134659,-145212,-150940,-89434,-9280,-86820,-104386,-8997,28692,-5805,127285,-76963,113088,43287,62007,-136050,62846,-96690,172874,132366,128895,88041 },
        { 168899,18496,159269,-18334,102876,11369,-148725,-81119,-44522,156022,154471,121372,-54112,-122907,30930,78650,188270,178982,80770,-131036,-25133,-14531,-99262,-121057,212669,-87281 },
        { -84870,113114,60962,125086,100359,-72986,-90165,-176862,-65818,87612,68954,-180134,-187109,179961,59484,-35809,112504,138986,34675,45667,-44555,-563,-7333,12892,11323,85280 },
        { -55733,-102892,92942,169290,18616,-143833,10465,48823,-175764,-35273,-175253,-58198,-1924,116114,37693,-88659,-105491,9500,-55012,44407,-178888,74439,-103760,151270,-143319,-95749 },
        { -118605,4503,-19715,-14699,-128798,61326,97004,-8234,-172964,-7096,-41589,120956,-94846,38523,166066,-62939,-23047,130275,98799,-114449,34277,-185624,68638,75732,-11220,-187753 },
        { -32696,114757,174124,154016,-50219,181030,112327,184403,-102502,-57696,42253,-111910,180625,-8588,29872,-153976,-19135,-132522,-31230,21056,-44795,185092,-86984,-212264,30971,-47729 },
        { 149330,-186757,-122548,167087,26451,59302,-163601,172174,-39248,181666,-30412,116360,-111664,114700,-66901,156301,-140585,-193479,39184,118574,176727,-114100,145141,-24991,-55825,-44062 },
        { -168225,-188678,79921,-151804,-101100,155275,-117520,49384,175199,59710,-187432,-94311,147876,-145872,-160508,158974,-120015,-90371,127854,-170413,170284,-118168,-2441,208078,179038,60767 },
        { 119264,47898,2003,131845,-38384,67538,-144482,60394,-99901,75056,39034,179333,13336,-42642,-160202,122733,36939,163103,-92582,8084,-141026,22974,-66575,102906,29023,-137442 },
        { 77529,-151444,30843,146992,32530,16700,109374,-12169,-50309,-186291,-118611,101471,25150,-62217,-146151,30130,-43396,101995,-27551,186986,-140312,73489,121195,-181745,88499,-192480 },
        { 121115,9915,-77009,-140603,-161437,-1816,76147,-31379,-114946,-2967,162835,-156853,-59417,-67609,-31898,-78487,130997,-128032,71034,128280,-16003,122780,-40923,-171895,-100870,-111608 },
        { -188151,112417,132090,-33433,-33246,-18922,125934,-10180,-164881,-73154,8822,128328,70620,-169869,-86275,63334,39172,178271,-160829,-167729,-67308,-140680,-39578,213241,-103590,89265 },
        { -173441,-15942,-47735,-85664,-136097,71330,-105163,83753,99714,-30940,-25778,-27133,-26604,50076,37765,189341,-104696,34421,-17897,-56152,133248,-114777,80059,31325,-53206,58780 },
        { -121686,-28348,51196,-98780,-137541,95642,55186,150592,115285,-181088,-156674,-78779,-69214,-136280,-113844,-33310,154788,-87006,132338,-103916,162114,61855,-71053,18992,-155679,-50677 },
        { -117030,64560,73175,111086,193043,-14906,-76460,72136,-126228,115213,154582,-84510,-113432,-71273,-66621,-121209,-111761,-176689,96739,159777,-106384,-29652,167186,-63697,107026,183162 },
        { 141805,-79369,-123781,-122852,103461,169429,111137,-167594,148310,-84998,-137589,-86457,83013,-190334,13071,164868,-39218,103594,-121801,-187522,161175,8085,-168697,-68917,111501,-84032 },
        { 113753,24421,-97909,-76737,180641,-92910,30019,-99079,33541,-80330,-158724,-140757,-95486,52063,-115880,-159363,-193055,102819,62042,-40973,-125232,-62391,-135354,160711,-165421,-17614 },
        { -119958,-76666,-179149,20546,-134229,40334,-26907,146744,4428,156854,-190065,75076,-49659,167534,-107463,54494,21920,103176,2909,-152320,44168,154595,124909,-70971,-89026,72757 },
        { 46341,-45715,18694,124711,149006,175061,-51208,43687,-137411,69061,-161447,107127,-9630,149009,-35614,-24031,193308,-99210,171956,47346,48704,-4766,-104321,93104,-28718,112637 },
        { 62246,32735,155803,-15563,-127174,19830,31309,171370,-6933,103212,144992,-166911,194085,185836,-46778,-125833,110933,25859,173373,32329,76157,-48403,-176357,132493,-112939,-1408 },
        { -148619,-112182,-158543,-142062,-36868,-183040,71280,118919,-190640,170752,87842,-131489,163395,97524,-154948,153420,194580,-121491,-127633,-20229,-143721,17660,-52860,99257,146383,-82608 },
        { -169816,-54245,19908,-101105,113385,161365,-99241,-66197,108878,172090,22730,-11437,89392,-57887,-156500,-154482,15739,-73625,116282,-178973,-108961,-182440,-14629,106094,-153535,32496 },
        { 164294,-168063,-515,31022,-95516,1780,68666,156012,3471,54958,151594,-60074,-126636,-25475,31886,57302,123024,155883,61510,-32472,-24063,69678,-133235,-195812,-172704,106369 },
        { -77663,127076,-1277,-154255,58655,-60994,126962,70186,77981,-142790,134513,-57126,4237,92484,132501,30399,164062,-37722,27722,-160294,-179367,168799,-182941,-21327,-97735,72222 },
        { 2878,-89611,-51822,-38775,77543,-41358,-27574,119077,-75279,46180,-88773,121610,-163990,-84606,69899,150798,59512,-167417,121032,-110994,63658,184418,-112780,455,-151703,-101565 },
        { -35015,92229,-123958,-181775,-12437,137127,117301,-39414,166681,-53708,-61549,160325,-111709,-124473,-193873,-66383,-132098,-93992,175630,70495,133946,-19160,-154461,183298,-7441,192268 },
        { 50819,-83371,-25303,112402,71385,-82971,168067,-1671,-60504,126678,745,-185429,24157,-164943,-150106,-181995,-101124,102872,-64103,45168,64415,-128080,-205998,-28544,119500,-168523 },
        { -61835,-179320,-36331,100603,54778,62681,11992,-115521,-155952,61980,85642,163676,-152394,40826,-79102,181104,-20895,-75435,-142589,11237,-30482,-20726,52355,78866,-190313,132650 },
        { -131844,186731,-33784,193764,128340,-95565,178991,2630,-22767,31484,-98083,36568,-61119,94079,15870,127429,-42186,-64414,-54020,41037,-109592,117143,-94577,10413,-60672,-32059 },
        { -49957,-14060,-29,110608,-148304,-11365,26506,180424,-53091,50007,-104660,-20254,24168,29007,34133,-155871,22690,57203,121204,37166,11184,74867,-174419,15776,90404,-77825 },
        { -40378,-83975,-124723,172305,-17520,-155578,173306,-56143,-126311,-104210,-11332,158267,170204,-15673,11106,-18238,96727,68774,175354,54534,12967,-144683,134034,-143836,26864,-141183 },
        { 28106,-130725,45688,-44796,-181806,-154364,15681,81821,184708,168941,-153512,-126104,130754,149951,-190799,-181300,55634,112603,140362,115718,95929,-128288,-8762,-98787,47450,174608 },
        { -16474,-71230,-49358,145320,-6813,129264,-171031,71796,-64357,-120815,17746,18249,94234,194406,115213,-151212,176500,178924,-49583,173737,-94260,180534,-26430,-27480,3429,55767 },
        { -180145,-186763,193683,131705,-133484,-143748,-101442,109022,80667,35932,162882,-34709,-75881,105295,95949,168707,-152682,165003,167030,11577,-149225,-32149,-79795,-49572,29961,-115220 },
        { -67527,47140,-27099,-32027,115826,50972,-72929,-4433,-188359,98976,-170276,188137,23712,108074,-192660,52116,101574,13946,-158593,26796,-138289,35903,36853,106258,100095,-17448 },
        { -3555,-103323,135799,77430,-17599,-176103,160142,-109962,78805,-86467,159833,-151723,65887,99515,-60195,-2726,-679,-148473,-115499,-53940,26473,172214,155259,-54932,-40007,99785 },
        { 184795,-176819,26339,-5048,55391,163802,-16789,95579,-151267,40454,194114,-83366,94741,-32241,-103120,141325,-66881,58591,44845,-40914,-112217,-170358,-113399,-121139,193696,91122 },
        { 96652,-183366,114270,58077,-175788,-56363,-46070,54127,-183087,-152606,-35977,-47465,184722,-76230,105505,186033,-175528,-118417,-107620,154494,-125380,189624,42435,7958,-50812,81232 },
        { -93494,-140830,66559,-10735,-90939,-108202,-114212,-190954,-188481,-127400,-2691,-190598,-186790,-126607,-14687,-92845,45404,59387,-185414,-138498,-149523,-54403,-23728,-207349,-190670,-8168 },
        { 116552,62551,194382,-85997,-53446,-74922,-56964,49926,82758,-124007,-33183,86626,-39310,172975,175349,-61394,23522,-89027,-23593,135617,77170,63618,-79448,56669,65421,172960 },
        { -180251,-171982,-184578,86345,56557,-187224,-96952,-6761,169930,124990,69808,19171,-54644,-157794,-91328,-127138,-73624,-122575,-188444,-8213,-11789,-132336,85537,-41741,-53135,130998 },
        { -26456,-67717,-112214,-138817,66876,48804,-165776,-48197,182293,-94027,-156899,79428,-145266,136905,63445,-109633,4741,123196,118237,27128,107353,-194530,107629,-106356,-119379,-19510 },
        { -163477,81097,-26264,122568,25914,95372,-69708,66897,95970,140504,-88747,-128,-30613,-62960,-69516,-161632,17511,-76460,130064,69041,-29081,46067,-140509,99026,-38922,109394 },
        { -73527,73755,-181118,-15629,90623,86144,110335,101519,106423,-118172,96596,-26350,-158724,-181098,-6061,-58614,174252,149430,-133034,-46338,-114618,21224,178083,-193234,87476,195209 },
        { -46406,160529,109268,-95936,-1585,-58825,99046,180381,185247,-109134,29804,26434,-66729,-55029,-186815,87181,165156,124295,-193895,-140000,-94360,-148457,-172604,-108471,122725,184392 },
        { -103199,-97490,-185082,-35450,-183651,48124,137794,72581,-175599,135081,149932,-105609,-113258,-84166,-98714,88431,-121722,-96083,189953,169028,-106779,-114885,-136217,5514,142626,-153812 },
        { -66936,177839,11534,82645,-138932,85028,1828,-64034,118250,-174474,-165358,-172219,42672,-147664,88298,59819,-28053,174863,193634,160543,-113899,-175490,144388,-185418,-190365,-128359 },
        { 157973,158584,-78987,-27197,-33101,-188615,-142657,71374,138296,-85905,-109578,119918,62056,-88130,74045,-7627,33237,113370,-77861,-170438,147662,-107402,177959,-23230,36712,-5407 },
        { -199534,162743,-114149,114100,-12067,-65038,128657,8746,152151,164728,170238,-73642,18506,-145398,-97209,-79112,8810,-126299,49929,8578,-183440,150503,-145799,-125794,-137336,15742 },
        { -146561,-140907,-190249,-59030,-49412,-160774,-81939,188985,27513,29218,39983,22639,25883,-162214,-109850,90290,-14854,132507,-152741,-188395,-76618,-42573,-19112,153886,-152276,-95091 },
        { -24757,107922,164587,181557,-104098,174596,-133763,145445,-117785,90612,-173369,-122766,-63821,143863,121110,76469,-81246,-190025,56524,-1518,97595,-19982,166350,145564,151268,-186006 },
        { 154104,-90878,15487,61593,73713,-156297,39591,-4607,104533,98509,-173578,-186871,-13902,176732,106289,163179,-29744,3222,44034,27569,85345,-30385,-45844,-145891,-35171,96780 },
        { 181306,100548,172238,-68384,43645,-163807,8461,-179999,-162586,168449,-191585,-28894,-172592,-79615,-47523,123681,-589,-127779,-74910,-186344,-174193,-171730,-18012,136511,53552,-26376 },
        { 166488,168956,183178,12799,-114890,-24635,52872,-41311,-45109,-63719,-93703,-30168,154629,-143735,-169979,-4120,22297,-66822,50724,-24038,-193025,40524,-99108,-148713,-129518,89920 },
        { -179216,-117383,133028,3912,-12029,123619,-12060,-172550,-59621,3994,168051,66490,-148459,165235,57867,-4514,-18140,-6095,-12391,84823,103248,121674,7652,96057,178262,105313 },
        { 133104,194326,-92546,-178266,59329,78797,-98830,76717,96558,-143089,-74953,22242,173321,101921,19254,106879,-84379,60308,108334,159788,168318,111495,113879,188696,-166232,130755 },
        { 56282,-106715,-161213,-169132,148998,74155,-20309,95227,-95454,9842,-143766,-30492,-107642,-47974,-98619,-158133,162817,-23899,-99038,146402,165266,-113985,76980,-64365,13902,-126520 },
        { 22115,181345,-149081,-91417,-86492,-23427,100036,179335,-163833,171295,-14805,184355,-165821,111117,-77822,31822,-79415,-157856,-67034,-108147,-132540,-137061,169814,-44919,-176360,9811 },
        { -177585,-165116,-71629,-98599,-95788,9449,135844,-4789,160480,-62512,-114681,173532,10439,48162,-184426,-23487,27395,-65009,-121034,155474,127761,154244,-20264,167793,-68319,-4444 },
        { -79144,-121020,14557,-103860,-137743,115835,-183535,168549,-10073,-26321,151609,-70015,-33686,109038,38680,56109,26849,-168917,-156050,-36047,-66371,116220,-18452,-55790,-129129,201332 },
        { -54224,32097,180727,187525,86865,176253,59800,1920,-62819,-44428,148351,87182,-190233,109359,89103,24576,-2537,-112186,-192323,164964,-101839,96956,139055,-48767,-18642,65369 },
        { -36478,-111113,-44076,-76532,-183415,88509,-143972,46874,190015,-145014,58417,74749,128944,-149402,-96012,-46324,-144917,-106480,-72396,109334,-109581,159648,-181859,196299,132427,-193810 },
        { 86206,162711,20481,168175,-46633,-15050,1293,40867,-23835,142735,-104921,4632,-171066,-89531,-81161,-4138,-116405,85356,94320,-65405,-176149,119762,-96018,-5078,-145474,91261 },
        { -82358,55933,115784,-84680,18427,25196,156679,-89820,-171385,58426,21190,-132324,-51133,-25257,-35754,185998,-76001,19933,109570,49666,175574,-7445,-1628,-176464,93539,-156821 },
        { -19224,46263,-185173,-74979,-134262,-142949,-179391,-184081,-166222,-128291,-93185,-191377,120932,70043,122456,103152,-69224,173158,-134467,-176934,-11123,-133178,172302,16820,-217818,-144171 },
        { -184057,106882,-125505,49651,138907,127924,-117300,-44867,-107111,183956,-30059,97059,-96045,-99972,87416,-59577,-10610,-134458,5255,129641,-116262,165046,82155,204923,-149081,-146242 },
        { 114411,171020,139274,75649,137569,160999,46288,-143016,124536,52759,-142597,134147,108410,-5662,-77626,-85522,39270,186507,-131603,-172234,95746,68679,-39544,-156057,54422,-131006 },
        { -56811,-167323,138606,22651,-163776,118261,-141158,-103918,-62280,-128593,51760,-86424,155982,-10362,-27844,-137519,20238,-117589,126830,178020,71209,187265,128493,162862,114587,20837 },
        { 116418,-41165,-168292,161375,30394,-157221,-125399,79993,154730,-29872,165813,157045,39203,-126483,176425,-62868,-13606,-48227,125182,169882,-179827,87999,-136691,-188747,-167803,22691 },
        { 141682,56728,132937,171120,115386,119332,-163104,-108178,-41896,-77093,-178349,160366,31569,-19182,-60791,40824,44020,-72896,11151,-134507,100102,-23812,186608,162763,-88485,-156772 },
        { 65787,-12586,16065,144489,-78167,8110,-133325,78145,31464,-134660,137022,175680,-25513,-53514,-152354,151263,23516,115979,15895,67477,182064,-98786,-129270,-206189,-54744,-128630 },
        { 16015,-113133,-46817,70525,158136,18819,-139796,4399,87897,-66470,-47944,-69849,-177692,70806,-184874,94436,-102688,-5635,-113904,166720,166593,-154829,164938,-188578,168739,-188583 },
        { -136361,193872,63650,79003,32819,-64568,22446,-75728,54827,-53712,-53996,-100350,-75875,138174,117819,-7609,142020,186000,127150,-81997,104237,141364,22623,-91657,-194593,-15215 },
        { -157894,-64168,-67291,-117724,-136344,-163037,141392,-125987,-84152,-88108,182508,-37088,-187603,-162014,79255,-118565,26634,59362,178487,-87125,-2917,-150431,-70120,153276,214783,86997 },
        { -168116,152321,-2498,54167,136657,175339,170132,164823,-7046,67178,87417,92395,169506,-92579,80917,-13247,-118585,156718,105989,-50933,-25352,131440,151598,-145525,202221,153050 },
        { -139842,-93211,158736,50818,131225,-184348,30521,-89336,-130122,150927,140181,164137,190900,6496,-42634,-174219,-12227,53691,187364,7698,103788,-128658,84252,-18348,-80712,184467 },
        { 19744,-61636,-131986,132136,179710,48302,50636,150848,96975,-168614,144602,134923,-21842,-136227,191896,-135479,-78535,-156074,-10823,-106092,74369,98760,-74481,192901,10988,-112604 },
        { -187909,7356,-157337,125510,-140148,-103265,-43829,11672,-20995,186753,-80365,-11303,47777,144300,183774,-154245,-159317,-184681,187588,-153096,-193504,81759,135780,158736,-86786,200639 },
        { 36922,61017,39652,376,-182029,-64846,145826,-77819,-97616,-166078,138571,-145484,102753,-72602,-141680,65509,-30361,93131,-38673,55476,3932,-68344,41109,-174093,-176643,-101925 },
        { 135891,-54399,-102004,14820,41605,156631,-80403,39767,28226,-172012,67193,-90672,14133,108245,-167167,72188,96877,175479,-100969,72841,63030,-85290,-183476,49098,-20435,88592 },
        { 168565,-57989,-102508,-112225,181148,-14017,132431,-46805,37882,127528,-129713,17942,-171237,122320,-161205,-179210,-192999,-71991,-189223,-31435,-194485,19843,-186367,64531,65508,57830 },
        { 132464,-138464,128616,-92257,-57957,-162103,-70385,-162292,54459,-136269,184069,-151111,-93399,192571,-18426,193838,15088,38013,97409,-79101,124480,-193110,-35940,-171992,-143691,65892 },
        { 42434,-4385,-173454,140182,-34767,84506,-95275,-104084,-86311,27537,34289,51246,-58636,-136557,11186,-16801,-97622,59854,-114267,-25542,150102,165865,131912,168602,133229,58352 },
        { 138038,128413,-55158,-19688,-145908,148435,-153854,168457,88418,152487,-60234,37925,98373,148896,138424,-95250,-51283,184761,-180347,38901,-116800,107599,99819,-155571,139683,-30768 },
        { 23351,25908,-182956,145875,-34586,124257,30965,71848,106891,-117072,144536,-58361,1115,161734,-155219,81189,-161536,82478,-139654,-8967,-38302,27035,-68598,124329,-140256,-176536 },
        { -14675,77673,-111342,-124571,170774,-125906,36783,133049,-126358,-57580,147064,-92762,-148747,-24904,-144397,175747,21211,-116021,-105412,-50153,90190,-81615,91341,-196399,71327,87649 },
        { 76526,-163210,-105300,43987,28190,131333,-74013,-170555,99535,130268,18207,82509,-115303,-5916,-133067,-121291,60689,115632,-109541,-29085,90581,-6830,144440,154605,-125783,7849 },
        { -21088,-6291,70860,-168931,59472,-6977,-102329,-133001,130836,-96021,161575,58405,11464,-143377,-161238,-182792,-117447,33210,-166098,-115792,-160261,3770,-11910,144326,-28837,-47895 },
        { 153532,-46263,140559,148832,-128551,106199,-108178,172635,-90520,35399,-181825,-15023,-17675,-83277,-188832,-78259,23539,110063,160458,122932,2334,-177861,177965,-31124,74380,-17164 },
        { -153964,6526,-166952,55654,-43520,58448,92037,120174,171582,-54215,100544,185564,-24495,59014,36716,34537,60142,-193016,132183,-124350,-125068,57852,133428,25516,151623,105807 },
        { -177998,161227,-75938,-102966,3042,-88388,9449,21176,130444,51968,41916,169003,-147304,-125862,-15648,-170916,-48382,-163426,-18729,185732,120389,190031,-19252,-62870,-81058,-57072 },
        { -181634,107543,90073,91876,74823,114130,-103959,55543,-57268,24053,-141024,156351,146499,-72244,56149,-182679,-107920,-56682,61654,191691,-70877,145224,-204172,-203872,162931,-46491 },
        { -71086,-69433,-103776,-45556,-76373,-115465,137804,79977,-147198,57816,-173883,3682,-93253,-158351,64785,-114588,17546,185949,-35049,179414,131675,162526,-91739,24076,8682,120826 },
        { -146205,77366,100190,-5371,184056,100934,122691,29063,-55039,-71807,118146,18626,89231,20242,-171428,-25145,72640,112448,-158657,-19292,-49386,87071,179542,-189620,201507,-52302 },
        { 147159,185810,37770,-133757,-135547,-101183,115031,51317,-41819,99208,-35485,-22970,31358,-138497,-2736,107204,62917,-160394,114141,23063,85912,-71212,17590,92425,-116868,-75832 },
        { 4103,-62858,-30631,26092,759,41910,-101909,-53396,-34169,-69023,-155738,-160256,96588,132256,184928,-37780,-66604,126526,-117909,179152,149008,-20727,-102955,126760,-34100,-31489 },
        { 121721,784,15546,-186948,147848,-31310,23208,-47168,52135,-142985,191482,114749,-159786,57296,-117286,16420,174363,144732,143178,-18399,114049,-127378,142636,-140212,-102788,150444 },
        { 182771,161636,188571,55986,-183471,50356,10047,113511,-176849,136096,111156,-106216,-183292,71620,-136166,105965,-53537,-172712,126978,-111951,43101,-116939,-108256,-90860,178940,-159330 },
        { 174768,61243,-49368,116493,-112857,46190,-157836,152633,37169,141263,163297,89829,23902,-60307,-77648,-63279,11322,186024,-37262,140811,-192162,-114473,166549,-93862,98531,-39323 },
        { -189863,118305,-68721,160344,156523,-184680,-124503,179923,-163833,-19678,-25657,-98427,-92676,-17623,-83069,-170456,-67215,-5966,149779,19153,193244,-38331,31515,6441,68599,47734 },
        { -6076,-144812,-80394,-147909,-180052,8047,35762,162746,-22608,-89246,47259,-194317,180300,122696,157104,131330,164127,-31860,35881,72524,-116240,153188,110655,52467,-53269,137767 },
        { -134151,-13321,-75499,-28718,-169272,20,-13437,1410,191104,146370,-141236,-173839,-53663,13700,-45383,110869,29877,-102190,104748,186822,31353,-4661,-85998,110411,191066,-145132 },
        { -111971,48260,138856,112394,-46853,-94254,-54459,147259,-70599,80093,-83973,-38731,117685,-133428,140968,128103,94048,64278,-161445,132512,-119521,33533,-66816,-82267,-86730,129553 },
        { 88566,-171415,-176327,-91336,106358,80924,132585,-24135,-191422,-69322,29247,97574,-72246,-185852,155581,183562,33716,-62550,-20011,-187066,32276,132790,37754,-175663,-160851,-159544 },
        { 4213,64925,-39172,46786,103987,-67207,-191334,-85547,147602,72260,165164,-79974,-149508,38292,143957,88254,100838,-156536,-58944,46311,192611,-61473,169973,16268,-183979,-82649 },
        { 135339,137455,73780,182892,-65578,23234,-73589,-165369,-113858,151445,79074,124855,157455,-17171,-193117,-7656,-60895,5547,-54564,56653,-142354,80715,-175651,138393,56827,145039 },
        { -171791,-193188,-36657,124774,-23113,150210,-147899,-27421,17859,-62308,-173800,-3518,121850,-66354,16573,24530,-17409,189364,-107764,183590,92244,-133986,60854,-170314,17135,-61185 },
        { -10645,-17108,-170439,-182381,-133672,-34112,112557,-36151,-176854,22588,35522,-41911,128353,40837,16460,-154037,-89702,-176352,-101571,103472,-181244,-109246,163185,-43516,-122817,-113857 },
        { 42598,74503,-70214,31536,-21769,-142127,90466,159424,4338,123345,11571,141875,-145431,121627,188995,-118833,172743,633,-24864,-169490,-117379,64769,82773,41876,65458,190854 },
        { 99556,-143682,-83404,72912,-8686,-41948,-15430,133103,-179053,-3540,21997,-103338,11789,22743,-191822,98931,99340,-440,134233,-94107,-61720,-120966,-167183,195888,196352,-197941 },
        { 73424,-47553,-178215,-33790,-95687,-189914,-68666,96817,85102,-188354,-55085,-181432,34058,126554,67159,-42116,-114917,90403,162619,-110432,-129606,-120291,-118340,-19081,45790,32257 },
        { -86918,-15605,150636,-168108,33891,15549,-155991,81003,78519,112445,168043,178852,4040,-162395,81686,130455,-66094,50103,166447,93872,-134497,36385,98933,39259,169325,-10857 },
        { 62339,18717,-178818,-163289,143083,-35731,-120595,32061,-55271,5182,-100860,-44638,182751,-72850,30358,175195,-104872,49688,-149906,-14066,-148828,5082,181756,-109822,42777,166587 },
        { 29960,-120674,-12215,-163719,111105,191888,29260,-39776,-33271,-159876,75184,92182,-15759,-163365,109212,43838,-11304,185301,-171894,137262,36379,-87624,-102439,-127633,-106528,-132699 },
        { 117123,-15197,88342,189453,68615,134690,-48330,-88807,-51407,105595,95646,-132515,4807,-53147,32428,184636,5115,-64916,86269,107733,75092,-148848,-90493,98863,-166577,49055 },
        { -114614,178088,-122988,157964,153742,-95333,173733,125116,1040,125209,168660,161178,192797,-67021,193316,-57441,122631,149882,35132,-11391,-126174,116390,161495,72098,-59221,95927 },
        { 117494,110858,152569,-54428,-188712,74995,-129175,24337,-10584,-66015,112206,-11509,45614,-31725,-128873,162551,-147123,89908,-26407,101174,98550,130653,-129054,38430,103026,169313 },
        { -83284,13766,-155772,8526,24138,-89703,-133357,-50270,75866,-165103,-78896,-136248,-69221,-111399,-189047,-135441,-90146,172695,-45195,122318,-27108,114717,-108079,-117561,14337,-33070 },
        { -106668,-173718,-10488,124003,-9266,50089,3941,-169465,108398,-172856,-53628,82773,-146360,-44832,118813,122986,10256,52769,-68063,173819,-119609,-148978,-53989,132017,-94506,-28039 },
        { -20055,-162869,43146,-145980,-106179,-55805,5190,139751,33229,-77894,-74136,72800,84399,123230,-153279,-94253,-168782,-158118,-122359,141447,86153,157646,183552,-40898,6698,-17447 },
        { -82626,-142670,-167640,-114748,-9918,47209,147639,174621,-182153,-121881,58882,-64860,102579,40034,96243,-165329,-137879,137419,-149234,165866,-175201,-135100,-197782,-132165,-101449,129813 },
        { -110686,67481,-50595,129814,-121898,25584,152484,-114167,58521,-98266,98251,-132776,-88932,-82661,-95947,35244,133990,-19945,65335,-175526,-150444,-90299,-104044,96600,93774,107789 },
        { -75711,20966,5193,-138591,15929,25821,135072,-63005,-130906,148478,-187411,4041,-39788,53043,4398,-54069,-25116,79316,-116096,-187868,-136186,178795,32587,-146159,-1744,-129095 },
        { 97518,124263,146697,-27554,16732,-85471,189307,189044,188231,7488,171855,-7714,15711,170276,139712,59075,-134219,-61596,-3991,-7803,-101800,-108964,-87841,119975,91264,-147926 },
        { 168927,-147911,-179614,113921,-6989,157173,-145749,-160845,48734,-153986,-139219,-71170,174073,25869,-5496,2518,-142375,184828,179301,2878,-123863,118658,-180170,-33050,-104090,145003 },
        { 123417,138019,142853,-26791,-144545,-164395,-82995,129555,193471,148935,156256,-140830,158707,163269,109765,68315,-82038,-62579,2833,-194192,20018,76220,-51176,63460,-182460,-90606 },
        { -71932,-3842,-123256,-153650,147182,39614,138784,-57107,-119405,106189,-167541,-182337,-59191,-102109,-164348,-49209,-61371,13803,-27039,88979,-7272,162132,37956,52301,178716,171774 },
        { 75396,144347,86152,182929,75887,-156990,-179811,-46761,103475,48934,-1027,123371,-105132,-57318,119492,114418,156051,126100,193625,-181292,-102808,-96151,9755,214854,-144368,75981 },
        { 98435,28352,-111321,144102,-157745,-48034,-106239,-77074,144195,129532,-8296,-83214,-55819,173023,-130435,163910,189845,-137373,-27108,122934,-132186,-23657,-41253,61387,98372,27162 },
        { -198381,-171875,2467,109762,-130506,-187080,1278,-145768,-110808,-77522,-163389,167925,-123729,-3754,-149996,127580,166726,-92606,-110116,19210,-146028,-13808,-150388,-42241,-109661,146789 },
        { -4451,96920,130867,-132921,35968,100434,-40991,142417,106599,139559,39730,217,-90116,129320,-123189,-145941,-108963,55217,-56279,-144136,152165,137117,47291,-208497,16783,15228 },
        { -126985,9141,60020,-99463,7960,77802,-181040,171015,-129370,-32235,177758,-191352,-122791,78418,-1972,-161528,142979,-100956,169969,7125,-114491,158671,22260,-69456,-117834,109117 },
        { -12683,-143668,-35037,131938,4295,-12811,-187672,-138541,62790,-33306,141134,-193725,-64277,-168315,-121775,161382,51584,-3839,182330,166997,109813,17716,164492,-60879,-157741,-97964 },
        { 34322,-84021,-133833,-161367,85161,155099,142484,-36554,78354,-156830,114191,91922,-23258,129877,-107211,3916,76928,95893,62842,-169886,93332,68347,-181835,83970,-86644,126403 },
        { 26834,-78572,-67640,-151407,50268,-152807,95876,146839,-47519,124296,120985,64332,118716,24978,46795,-27885,59040,-106829,-7264,181654,-71942,-1784,56730,-150379,-43167,-116422 },
        { 86854,189279,-50174,-162178,71535,-64582,-189829,-125288,-131264,125321,41559,-113772,-56611,122074,89540,27787,-175233,163120,2884,102856,79462,57700,-66345,-218339,-91212,-126073 },
        { -48904,109039,75686,-109555,124694,174385,64156,-147530,21039,-17211,-53216,-135279,-162451,-116124,-129558,-47513,-136534,182630,103132,151863,87246,16156,24865,167559,12034,23289 },
        { 19413,117931,97049,-26280,43507,-172737,72585,-168538,-155701,-31056,123531,68409,11972,-54671,33591,-183697,-63566,-58674,44176,-103335,183172,140233,110014,175107,108847,31107 },
        { -178607,66818,49512,-83446,-120194,69361,27490,93669,-7628,-18742,-103788,145914,-57845,34961,-63640,-15471,4835,168096,-143293,-106760,21115,16555,-88877,151179,-48787,128254 },
        { 39736,-132135,-107515,12696,-161249,170941,74841,112064,-77387,-97274,103900,143389,118246,-189603,-21916,-171984,-119392,-76604,179840,-30212,21707,-104159,-176701,-60513,164179,-150686 },
        { 95021,19099,20108,-59215,59232,126878,-5094,-29308,-188957,-118343,35655,137893,190635,-19758,-37793,173464,165414,95874,-144387,-35274,104329,146332,93382,11420,22443,-9101 },
        { 11844,104353,-10852,-14491,26212,41900,-109801,95437,-175240,-41625,-18574,-180089,186469,141338,-159916,-118806,146864,143016,-38518,131505,44359,-178918,-195105,-104041,-70595,-169001 },
        { 175902,-92617,194553,73287,165638,-32339,62171,-110965,-9652,-42863,-118509,42529,-36857,-47955,128824,23034,-71926,-35882,15710,77654,-68106,146600,-77476,17420,185189,-133800 },
        { 170500,60853,132677,29807,178879,-146311,21032,-82737,-139952,-71232,188257,50627,-158006,14570,-162205,-152235,12378,148289,180151,-32328,-107798,52656,-98343,-86026,170066,125794 },
        { -110478,-97359,82628,-174380,-173105,41954,114090,-125167,142889,194495,-72083,7051,-25090,136991,-60105,-109959,-140912,135630,91856,54907,-155873,165469,18897,55526,9793,195768 },
        { 9904,109535,-62532,-72687,-95908,-69236,-179318,185800,17883,40614,-184617,104406,79923,-73076,-23045,80744,185227,174009,180280,-156245,-5615,-91451,85476,18982,-13913,-97771 },
        { -29644,64724,35452,101566,59551,178553,74169,-36983,161570,-46796,-72016,137935,55269,-18781,-107201,3302,34879,-141764,-135948,35485,16697,-139435,-160653,-125421,-1089,17897 },
        { 38388,41618,-139631,143368,143121,186263,-135248,-145082,-132847,-180754,71322,153065,-54841,-146839,-184650,173607,36813,-65793,-100948,-39253,-51920,17406,160023,-104635,73444,115827 },
        { -43158,-79912,-2649,-19341,-21648,-138685,102915,154786,39676,-60659,-142543,110146,150075,-26265,-28241,133358,7687,-49971,-160243,-43423,-179717,-77369,141045,53382,-113809,-87637 },
        { -16584,85837,144159,-146269,149001,110528,-93026,-26664,-149993,982,-82506,60525,100882,-148703,-109724,-107343,-152136,122016,-84637,-91856,86001,-180465,-32987,14106,105859,109030 },
        { -165683,16425,-135590,36840,47892,-13086,188941,-14830,-47884,60688,115819,-73438,-21025,6789,192902,62989,23128,17701,68137,85971,-57300,149916,119453,121639,29594,49102 },
        { 168598,22583,-27982,-68144,124245,68843,-63138,87123,-70641,68310,-76,8200,8250,-109593,154844,-160571,112886,-34557,-171801,-61247,-31226,18982,-71968,186255,-16957,-106548 },
        { -64491,-159552,33458,-112305,-115492,-119383,31416,-165318,-6978,163898,-143848,35858,165236,-100132,181006,28924,-177801,-104114,-176479,98644,91603,-127644,191956,-108283,165868,55213 },
        { -131967,-82066,-111092,-146771,-79883,-11842,155278,62009,-151254,-168612,40655,112158,51271,-11018,-91177,-51826,65282,-185522,109689,103513,152848,-134179,-186800,-175920,-4576,125202 },
        { -59697,135061,-80578,-134158,176650,163316,58170,165333,-40002,-134596,52996,52908,121877,-121955,-87578,-154333,168857,114774,-97945,18655,-52178,16399,-72881,56793,-192044,-89638 },
        { -67972,154263,102165,120527,-46675,-167656,-105212,180921,80133,120984,-44951,27757,-106579,109741,122537,46251,17634,70990,-48961,-37769,-129492,171404,172344,94371,-156245,-112513 },
        { 34979,-67804,7591,-86954,-171880,52738,40812,106015,45120,-35674,-128756,-6886,129056,152891,-51172,-83913,78764,-102218,44171,176138,-22373,-14278,-135928,-46609,22089,-200966 },
        { 71045,78344,164547,97037,163993,-30085,99111,89170,-41230,-117015,167682,163728,66699,-191387,-40902,70169,120090,-137342,46043,-49565,-182388,-163148,208366,213582,-121243,42171 },
        { 35371,-151442,14903,184961,22709,493,-63371,-102838,-71966,48900,94682,-155843,-52018,-172855,-109831,-173533,-167297,7528,-105323,-67914,455,28300,147231,-160906,58589,-41422 },
        { 111686,-138243,106303,-189672,-62381,188688,75362,169623,4441,-10753,-118435,28931,-45464,118695,-97727,183947,143349,167844,191401,113131,9158,37495,-133318,-116150,-49332,-128885 },
        { -30885,87667,14615,-87192,87221,129289,76008,-22378,-101799,86804,35141,88555,118450,-119166,176324,-133921,132281,-46159,-62363,-102715,102251,54611,-132058,-165315,-83979,-123462 },
        { -136408,167932,-112955,170060,-83073,130689,10725,-193710,-156100,118502,-122322,67000,-164840,-68577,89187,95160,30426,107638,-135562,-189867,-139815,-64050,-75882,128503,166686,162764 },
        { 109838,132877,-155354,20393,-147350,-77720,18556,32999,-113462,-32077,99378,150773,147329,6008,-185076,194641,-47853,-72964,-138375,-144075,-158201,-119420,-74582,-170938,121388,-149602 },
        { -7873,-122950,-112895,-71941,-150319,127738,-148020,-29,166658,-63300,-133109,89295,-187720,14006,-104874,162700,-56511,17428,90424,-95547,101889,-63654,32692,-76254,-111218,169095 },
        { -93709,-116722,86745,-97017,128372,-35028,-79032,-107632,-71056,105084,11076,-69616,40030,106891,87532,-41624,45308,-133810,-135142,-124663,-109443,-100554,112237,153925,63603,-39930 },
        { 126047,23459,136752,40420,76334,-29207,-108458,-165233,48705,-162876,65536,-51621,38337,17399,76699,-137996,74213,-51938,-12519,30339,-31990,-139752,173118,45165,91389,177732 },
        { -151797,170079,190037,-62915,-131873,-50606,97278,-103304,-72966,-80543,28103,2499,-3125,-54405,59829,-123489,-12335,-67170,-181310,181937,-87406,-131534,-131080,145519,147040,22527 },
        { -198571,167944,10238,-85196,193564,-98275,-118987,-77967,79686,14878,173662,-73269,-48291,10010,-169252,-150538,-32855,-40595,-180107,-119108,-44500,173273,37316,36193,57734,-202301 },
        { 187008,108651,135989,-37475,-99223,-44173,-50199,117091,-101950,163011,4264,61748,24901,-40678,134829,190648,-112552,84801,-68704,-121936,-183666,-85773,100273,-85519,-39995,25801 },
        { -141859,-161335,148820,168847,31405,-104736,-42625,-184047,-75497,94992,56634,169504,76795,-5512,11440,69393,187554,-151896,8869,-40791,105511,-22746,-35428,185389,-174760,-160727 },
        { -44088,-70998,-178213,-86516,66017,187637,22092,110525,180556,-190272,-56155,133641,-60335,111000,118687,15616,90254,-170652,-53612,88511,45185,116988,188593,-51128,-106619,-78905 },
        { 30738,98234,-189336,70746,133219,6375,-192852,-51904,-169331,161053,76118,176531,-165761,106228,-123681,153197,80777,-95280,56313,-79286,118723,49576,-67038,16104,152085,-53532 },
        { 1668,25252,-167566,29456,101137,-193688,135271,179349,83645,-114581,176741,63949,92762,-34515,26759,-27340,-1797,-190633,62009,120504,-140881,-75731,-11481,83837,-84507,-10399 },
        { -109907,-127967,-89668,-127503,-90208,84938,157774,7033,110429,-23658,-112613,-21944,-42564,-113994,38674,51852,-18093,-161732,-20227,-124583,158517,186759,-120844,190620,92249,-98675 },
        { 63989,-9434,120403,-111624,139193,-38611,130384,-178938,-8787,107181,-134889,82232,151519,85699,189109,56017,-87265,48565,136624,32521,121297,17637,123857,-20277,-158125,10145 },
        { 57263,-23943,-108619,-158632,67859,-44843,164536,80797,154826,-89735,128056,-90424,56618,57858,112500,-164219,-149878,149689,-54621,169265,-104093,-187043,-51712,-44739,115488,-117425 },
        { -1257,168113,-145992,54841,-32272,133196,179661,19751,88307,-147006,-70459,-184220,113728,39596,-57770,-83868,180992,111181,-40382,90739,162210,56341,114869,111228,32557,126710 },
        { -28988,973,165399,41713,74304,-8592,174204,143535,-179453,188708,10788,-35514,-104176,150494,-127158,-171961,-22893,-4864,149597,-167842,-193785,-185195,190952,56884,-14774,-64135 },
        { 159962,68503,182812,102106,-137075,171116,3702,45646,127002,-50137,-42697,7973,69353,-17760,76264,-99239,107642,-84835,169174,-24320,-31271,-80011,-107776,-38985,-43457,200143 },
        { 36889,-190656,-98462,-43228,-26281,81035,-150816,100543,73264,161100,-67550,-90338,99544,74440,63539,-18597,142681,156452,36652,169121,67769,-34633,79819,-181717,100886,192682 },
        { 56954,84626,-27816,-134234,170754,-72202,28618,61153,79559,-131974,176238,-68771,-109767,125555,-91978,142220,159700,163042,-180539,42302,-167978,-115804,-193755,-130381,136241,140915 },
        { 4990,-94469,109837,-78603,46640,83777,-162820,-47194,26702,6975,61612,-165326,-85695,137298,137417,-175323,-126159,42479,-83616,-53759,81464,-168469,-140077,-94175,201331,-47591 },
        { 54399,177976,137293,52605,-87807,-23605,99158,110024,70500,59393,-156693,-105939,81315,-29714,-97687,169048,106734,-133429,8100,119186,-48638,8723,-111750,123225,-190764,-152445 },
        { 22136,154273,157204,-102052,39098,-89845,68274,53844,-181962,-109336,160347,164370,21579,-187771,-9863,-30257,-117509,-93406,-186165,-16446,112270,-161719,-33705,200453,-31104,-180476 },
        { 188410,-153576,117530,58039,127844,54846,-144554,40732,165328,-113336,31075,-5206,128613,32666,176809,46730,52345,-121413,102845,-52937,116053,-64591,46450,24184,-11733,190328 },
        { 80787,161647,-78415,40383,-137026,-109295,-111125,-154022,132122,-126370,125803,140862,-10005,-181019,187628,-112999,59215,-100946,-188529,30216,30510,178817,20974,72612,-195322,-132679 },
        { 11071,23189,-172306,-146651,87147,-56888,134576,137142,171853,-26126,100074,-108787,-18098,31596,-169775,115110,155162,138061,-64572,-25658,-121682,40026,-105621,-47647,-48101,137013 },
        { -159759,-98898,-89580,-59770,-158530,184609,-179322,-25090,-31088,162256,107476,125472,-120111,-121973,-122190,-109761,-41243,35851,10211,-111723,-16706,176655,67149,-121578,167248,-184582 },
        { 194008,-40215,-105463,-191389,96548,142750,146728,19213,110072,-41135,120613,95115,-192944,-129931,-19069,190011,-184691,-150844,-104154,40411,-13217,138059,-15408,156421,5906,102444 },
        { 105961,-84000,-24750,-72311,19458,-169621,-43483,-147170,73846,-104227,60557,172276,-28443,127348,-137080,-9974,-17786,-56892,-158258,107971,116645,75254,-67500,79015,36381,-125387 },
        { -135051,124473,114751,-176900,98280,-190386,120378,-100378,-53267,144812,-181251,45837,66280,69685,-160376,43363,-10231,5110,-89310,-29492,-36859,-109916,-102631,32235,64816,79715 },
        { -97131,-72695,165595,92991,-15127,116540,-49668,-11060,-5992,-75094,138011,-148691,-144910,-106925,1834,-90380,22343,-63781,192207,-4999,28187,168694,-77588,-190063,-57939,185820 },
        { 76167,77172,88542,-130507,-109868,-155689,158862,165944,-40022,168511,-53606,4984,49730,-559,102622,139046,-110638,-90129,70592,-96514,124386,-169240,1045,176049,197622,-90019 },
        { 68989,108341,100966,7994,53842,100019,26999,15075,-1325,44960,183503,66483,-140524,110298,79099,-129064,-56459,-160901,154111,-92125,787,12615,-83427,125052,158054,92573 },
        { 119748,-17063,-179432,100818,-190885,170794,37479,15003,-2763,-140666,-189326,-160176,-192508,172447,191803,-143823,-121730,-71778,56645,-165784,24635,-164507,170795,-74208,-63969,-19853 },
        { -182778,159145,-170069,-37012,60727,77213,-139087,-77426,185648,-105661,-18405,123627,-152574,160993,-1586,75908,6253,-115864,-43200,-54761,-192755,136112,-17663,-124765,-105290,-94779 },
        { -35051,19686,84461,170408,121224,175224,31973,113773,-19207,-30809,79635,-107282,-131444,12529,-152083,-42882,145029,-136184,-56868,-81642,9826,-67769,-84913,73735,205443,-58268 },
        { 51741,104969,-15968,144851,-46452,71684,50379,35355,73016,125318,-54938,-43419,116332,-101227,3499,40140,48624,30163,97963,-145802,-128615,145096,43188,-50707,-142672,34617 },
        { -182855,18676,-59335,152472,-114286,167604,187318,118643,-38300,131511,-41742,-156134,58729,172129,-140968,-38917,35137,-86068,34735,-112518,63215,-21905,13728,138973,-66301,92100 },
        { 95145,-127707,24747,-112071,86268,194679,161561,17517,88918,-74292,161045,-39448,-150426,72692,-129500,-11603,-32927,-90252,-93394,-190171,-182788,-49020,-24859,77489,71563,-148108 },
        { -48921,108047,-85220,46262,35554,-157089,-146574,-191534,114237,-171470,-112381,-49654,-177300,14627,-47224,-193866,30871,165757,-97756,-114495,-124714,-17387,-38513,52614,-138934,-139763 },
        { -145891,-44000,34463,-48848,129944,83274,92613,-14213,29119,161462,105832,-32961,-184304,181849,152900,180724,-35280,-27733,-161571,-20457,-34506,505,-62389,186804,-125687,33498 },
        { -83314,63434,-22219,-56943,-106338,-50944,-154828,148122,22308,150569,-63887,64803,152493,184035,139140,-143071,-84122,134958,-52174,-63214,116840,-93803,-49682,-69955,128812,64126 },
        { 136105,-104349,63049,193733,57976,41316,-141198,-87182,32235,-132036,141793,-16983,-189892,76753,193477,-4817,-138280,5742,-95915,-164030,130506,-45285,80240,211060,70931,123538 },
        { -176156,69676,132478,-108329,-142754,77488,125552,-75051,109511,128394,35205,-85283,22549,15169,92727,-107068,-187858,-101621,68913,-86939,176346,161523,189941,-9438,177555,-66098 },
        { 124515,63626,145389,122985,111695,-159108,81492,8550,-53177,1542,85310,-99568,103109,39596,103499,60076,-165064,-131138,-180786,-170558,134072,56631,-148707,164099,-189945,184695 },
        { -50241,189899,121331,120099,-185575,114026,-148084,185428,12400,42006,99448,43505,68250,-140766,-44283,-170966,177618,-100353,-8843,-18680,-131908,96998,-35792,128689,-143139,-176857 },
        { -185043,127262,-160299,-70078,-66153,29748,-33177,-33864,-39382,-60855,-3338,-128024,-165505,-33560,-192006,-156660,98778,-45108,43477,7467,83726,-94871,41160,7064,-139836,175050 },
        { 25425,134981,-4296,83333,-146353,-167025,-91397,41592,150878,-187146,-166356,-180409,-184367,-49020,5144,-67641,175876,-136483,58630,163392,-47294,-22224,20458,-69215,23238,152975 },
};

const long long w1[][512] = {
