#include "kernelMLP.h"

#ifdef HIGH_RECALL_CONFIG

const long long w0_stage1[][26] = {
        {10938,-16410,-4748,-24194,-4376,-9406,15446,39554,-30992,16275,-3572,30608,36560,8413,35751,16049,18310,-31933,-32283,26222,-70685,22259,63307,8026,10735,18785},
        {-73318,7686,-1313,-5240,-3785,50365,9097,-44704,17271,-39714,38574,-18542,24625,-103,-43282,18377,-43600,21690,43941,-46322,4611,68381,-31889,34770,126948,44749},
        {-48121,-35965,-6171,-90864,70986,12478,32011,-24566,-2839,37257,-6161,17099,29856,43799,-22549,-16055,16170,17828,-19209,36814,21326,43113,-130057,-43486,86884,-18556},
        {-21705,-13827,-30437,-23849,11183,-40894,-27424,2437,-8733,-26982,-84652,-14396,4948,58388,-62968,-11027,-33985,-32206,-28438,-59573,45954,94133,-79144,-124951,161907,51970},
        {-86391,-51322,-65260,-56402,-62991,-17295,-77061,45829,-13199,-45233,-5540,-33420,-9328,38846,-26637,-21712,-42272,1130,39482,35609,46914,104465,-210740,-287148,97086,-29653},
        {75897,24296,48381,-38141,32390,-6685,22032,4953,-38428,-41081,-43618,778,-12449,14268,-24148,-17598,-42393,-9519,13556,-1245,-51821,-16570,127503,3934,118191,23078},
        {37587,5509,-15501,10884,2913,-10678,-18101,-17086,-8712,30385,-68503,27783,-25586,54270,-25424,-5024,-31365,-31070,-33588,10053,77843,54857,-54334,-216093,47247,22337},
        {91719,63201,5745,16426,24825,66556,-15902,-20754,27207,-19682,-2070,-47803,42129,-3482,-35935,31881,-20977,-24524,17975,-40767,63888,-11331,116641,202791,4025,-2048},
        {-1862,9770,-12044,1253,5012,2366,36997,7664,635,18364,7284,-13233,7633,832,-37487,-9254,-11526,-27790,-18160,-9623,10193,65749,-83957,26689,64630,3256},
        {11091,-27457,-14490,-30595,45445,-1747,-13609,-23681,28266,-19523,38616,-39367,11925,10406,10447,-44750,4163,-11866,11084,23505,-43918,59871,-72233,-241264,88906,-26548},
        {4209,-939,37781,45739,-58918,33820,567,23699,11292,-14573,20887,-36496,62758,-7671,-566,-46328,52476,-18301,25944,-10717,-59954,46089,-44502,124955,-99752,-7618},
        {-87508,-39106,-723,-52749,-17610,3842,44112,-2600,-38835,9485,9742,-9966,-36146,20401,-25372,21026,26930,10193,-25301,25893,22996,-44764,-150780,-5315,20575,-41628},
        {-29158,13938,28093,22770,9527,-47948,30244,59357,-33102,-39614,8231,-30743,-17799,15466,-15121,12942,-34318,31791,10925,30494,-35552,25803,25472,-44961,-125644,15950},
        {144334,37437,-116122,24863,65968,-9601,-69161,79106,-1826,84269,33812,-172,-45921,-68670,-54548,-11365,-4525,26034,21894,-54271,7728,-16007,181232,246450,-196472,-29046},
        {-8656,1977,11853,25053,-48323,-2411,-44998,-11863,-19777,-18583,18011,36337,8864,1557,-20302,5186,-6736,25411,-22012,-35715,33527,-31575,48472,46705,-68723,-9987},
        {-329089,259322,-28946,82540,59377,-225838,-76347,91519,-20975,4764,98698,13312,-82001,-48491,-14324,-60442,8212,-17790,-46246,52415,21470,112639,-307086,72994,315335,41846},
        {55269,1265,13525,-14648,-32902,7280,47846,40310,-8372,52920,34228,37291,7002,-37122,28764,-3317,-42598,-19166,-43536,-39490,-13366,21319,108981,25702,-78500,16615},
        {-193317,-39428,136758,-22210,132157,-7098,-62393,-9672,-26820,-83012,-24726,-24941,39820,71350,67787,-42004,-52330,7867,-2663,-46494,23383,36005,-181784,-101974,240793,52161},
        {-26383,-4721,-30744,-37917,-30733,-16736,34400,-54373,-35929,40823,1820,-35066,21960,23851,6209,-12970,-627,13252,-1175,-21513,-6075,-18958,-93911,-172470,-46047,-30604},
        {31062,18702,176,-62513,-22902,-59847,30569,-45474,-5144,18030,16432,-28710,4514,-33491,5467,11816,-12127,6346,22438,28562,43100,52353,-29623,-30306,31624,-31088},
        {76349,-39776,-41844,18709,-42079,-53709,-71696,68014,27497,6746,-53640,-20027,-22606,24789,-17583,-11725,-5624,-27288,-38193,8772,-74104,-19496,10799,-62276,20323,13253},
        {-21818,-22509,3664,20757,-5552,13665,13077,-25130,3785,34366,-38433,-24897,19803,-26377,-23948,-34528,36381,27881,13756,-26593,31848,-10939,-68352,161087,55683,22797},
        {-13789,-9393,-2385,29904,12199,9278,8051,38450,-2132,-18972,31418,9036,-16884,32190,-3127,-23761,-35225,-10961,18846,29303,-73549,36212,56292,52147,-50296,13730},
        {-91205,-71829,-104019,-48570,1030,-22200,40653,-32156,-22880,-30893,-18901,-25514,-27344,-6562,17975,-27278,-39736,-266,2290,50746,66505,98433,-202969,-20393,22804,-10285},
        {6702,-4873,9052,-36894,-26944,-4045,3787,-6720,-3077,8180,25013,36796,-992,61645,15623,-7690,46575,-8609,847,20944,-12836,164083,13728,187231,85801,-14658},
        {39617,4406,-32361,-17914,5168,-14769,6945,25155,-23368,37335,7213,-33494,3153,50277,40805,53010,-21355,29087,-23908,10907,7931,4445,40363,-274293,-19335,-46511},
        {58082,3706,-12189,46476,-4829,16064,54870,29604,-14593,30744,2725,33161,-18234,-14334,1209,15445,-10923,6161,-19431,-4700,38058,-12390,79862,171166,91389,-19086},
        {24370,-26271,-52194,-25311,8425,-8419,8470,-22003,-20518,30371,24538,-36942,-12062,-38564,-30723,-386,32156,20996,20528,26858,87210,63184,-77303,-85089,78474,-33540},
        {29545,-18226,9891,23147,27121,-15787,10169,-3156,32937,11705,-46561,3569,-41237,1723,-26323,-20583,-4480,-20043,-38506,10894,24705,21674,-11406,-97883,-81455,8823},
        {31580,7509,-7785,-43293,-19694,21611,50683,-23297,-26468,-9116,-30878,45698,-11983,-35306,37885,-10978,-35290,-26552,10895,-31928,81242,73544,-21864,176219,94778,-11125},
        {3043,6167,14222,27272,56006,44696,-48423,-42710,-56958,60734,-50866,-50080,41569,28540,44531,-31120,-36110,36148,6305,-51541,65559,-55042,-46011,-68156,97869,36078},
        {-57855,-44172,-8093,-81613,5213,1952,50691,-1946,-13317,-34158,-8200,-29556,16899,-928,-19261,-3286,-34587,87,6029,-8307,46421,-56908,-127841,-20219,8311,12481},
        {-49686,26144,-21801,24680,-12146,56041,-21982,-5632,-35701,-22540,-30381,3998,-19566,-8198,11959,-44528,25530,-28063,-25291,-23384,65927,-69990,-42243,-21578,-119976,-30180},
        {-19930,2535,-61266,20445,35725,60123,8411,20939,26222,-763,23748,39516,28969,25378,1724,364,2742,-16457,23965,-10841,-38240,-11227,-55262,-41746,-61603,-47043},
        {1520,-37419,32975,-8939,-10860,-35709,37833,13049,24639,14947,-24111,-33629,-27476,28840,-30564,18793,-25513,25032,15393,14545,-70035,42650,-44312,-122398,38054,-16133},
        {-48483,6031,33393,15376,15272,-8530,-24672,950,36022,-40954,-39701,33752,21365,-8587,-32531,-41660,-11557,2398,-9563,33638,63673,21179,-66688,39046,-122473,-27807},
        {49165,21820,9964,-31774,55670,24488,-37966,-52720,-34009,2332,-27418,-39476,12209,4637,14281,-50838,34662,5923,13980,-42598,-40591,51474,53630,-147675,-2029,-178},
        {134316,109206,52822,56772,4679,121291,-42264,91545,15264,88610,42034,-115,9803,-66702,32499,-5777,-2933,54993,66321,59277,-41724,27244,297962,152255,-197933,-16042},
        {152931,88031,-511,25604,77076,16093,79330,72727,-80413,-77407,-85656,-115669,24544,52824,-65453,-35319,30059,-41021,69177,70209,-116273,86363,290602,185598,-294134,-44418},
        {-45996,43,-41771,-23857,89509,17739,64615,-6963,-8883,-3352,37521,1045,329,21515,36899,-36631,54146,24118,-17887,5507,54464,-49841,-20296,9252,102936,-24358},
        {-42372,-39231,-58943,-25370,-65213,-37048,7957,50060,-21850,-42778,-10101,-25378,-33133,-43364,52622,42477,-36754,14465,-4214,-37059,67633,67941,-131617,119125,67551,29154},
        {56309,-29547,-31898,-19671,-16612,27157,30066,19946,1356,10541,38368,14134,-3220,9173,-4785,6001,34447,4584,18396,24229,16837,76310,84943,144372,152007,34707},
        {-171195,-125848,-110690,63313,-59936,73180,74725,-12432,17706,-74838,32648,7407,-58108,109112,19027,-59870,-33540,45490,-11724,-23845,-78145,62153,-235501,10468,230372,53650},
        {42053,7922,-22536,32306,20525,-4552,-28858,3474,3849,-48418,-52701,4309,10027,-35834,-1706,7722,27886,26933,-4620,-43095,21805,-68314,8638,-110945,109135,41824},
        {66535,19530,-45145,22609,33166,7530,25410,-30308,26642,15307,-25547,-36686,9620,7773,-29739,-31962,-31482,-7131,-1243,2977,7854,-40877,5877,87414,-11603,-6967},
        {2331,-5144,12637,15189,-26675,-27393,-50657,-12233,20165,-8620,38112,37798,39310,-29078,8446,4858,32807,-7817,-15762,-20088,-26790,53897,29917,118857,-6021,9585},
        {6413,-12908,1750,-55966,36808,10370,-6625,22071,-30020,5400,27080,42092,34374,41760,28110,42698,-27506,-1809,30492,44570,-25703,85998,-68166,-156767,56512,21693},
        {-50007,-14826,-2308,-4170,37888,43816,-3143,23623,17669,-50883,25989,12770,11061,30911,39347,-9958,43271,19143,-31068,-49666,-67001,-124218,49141,-67985,-72019,35160},
        {20932,-39797,-37122,-14149,9069,34389,31177,22998,39185,-12984,-69069,-17608,19014,10136,21813,5304,-2572,-31642,-37443,13986,-93106,34741,12250,-170091,111942,57882},
        {42264,47144,26001,33862,18854,-20013,-33023,-46984,-34119,-4080,36647,-31689,49774,7926,27668,14076,-10594,-3414,-44653,-25449,35802,-40059,216,-46141,-90425,-31611},
        {-46200,-27959,41460,22391,-21432,-29728,-42982,-5460,14766,-29494,20071,-25798,29907,1972,53881,48153,-14997,-33025,-32824,-8697,-61380,33797,-17806,-89028,-81726,23983},
        {-18858,22450,8093,-7607,66824,-35886,17011,-9635,32408,-21676,22309,12646,-9862,-29145,7940,23860,-9275,-13769,12375,8652,-47534,43820,64454,-46929,91502,31413},
        {48140,27409,-3891,35382,41974,22741,6567,-18235,-59481,-16409,-28080,50706,48256,-41454,20838,3080,-5904,-2778,-11736,24527,-22705,-42876,52889,247569,36824,47792},
        {69813,-25562,-42101,99182,-50684,29745,-6408,-27218,-1476,31614,-7618,-49854,-22695,-36386,20403,-2598,-2744,-4877,-18820,-43493,56868,-42410,13941,-268342,66770,-42236},
        {-27787,-21373,-28423,37128,-16028,30078,31372,-15579,17452,33401,5213,22438,11199,-2274,24483,29491,-34814,23665,-13375,37691,11252,11279,-74013,-101400,57701,1672},
        {5368,-44639,-52006,-55429,-22984,-41391,9810,-13970,28815,-13295,29510,11399,-28461,-2894,4235,52634,1821,13777,-29771,-1014,-87492,-16060,-74975,202565,114682,43018},
        {3351,-40320,24075,3306,16534,-22260,31059,21803,16646,-41642,-5258,-11442,23675,-32572,2830,25536,22037,-17834,8720,-21038,-49306,-27265,-55084,-55567,-48646,-41769},
        {67101,32555,-1154,32135,12733,-38347,-32367,5723,-1730,-17004,17030,23215,2776,-13415,31550,-19658,-26927,4263,28017,17712,-27362,22605,121309,8786,32923,35802},
        {-10474,2409,-5606,2146,4675,-39926,-7838,36412,-24897,38136,27936,-6120,-10557,-6473,-3631,-32355,22226,22215,-34500,-21914,-8862,-11838,6261,-33654,-38841,8934},
        {88212,-111466,44943,48958,-21124,-5581,-62300,-12961,4413,-41000,15916,-28943,22542,37099,-46364,-38459,42545,-29077,31560,943,-37457,-16898,38246,164864,-86918,-14636},
        {47232,12290,-9241,67867,-10923,-2283,8468,10323,13190,-55877,11040,-46583,40668,-4350,2332,-27328,-39343,-7674,-53728,11681,-48747,49264,135229,-11838,-114416,-14694},
        {314647,-200684,-109922,26696,-125376,32723,1510,35233,27717,-37477,72745,24474,-76933,-41737,94437,10444,-24917,15461,-48873,33380,-105859,48978,294202,110852,-338942,-82712},
        {-19395,-23143,31762,-32971,-411,-31990,-296,473,10592,23295,33538,-22085,21580,33881,-2956,14287,-27588,-16730,-17743,-23867,41441,4300,-80376,-161357,39208,7707},
        {59073,37572,-24430,-1729,22953,22326,-32985,48803,-26135,-35980,-5292,23959,-25516,-18758,-29002,-25574,874,-37743,-239,33895,-39841,36827,94856,94877,-44286,-1667},
        {7285,-50600,51543,52649,-32398,-3790,41623,39316,-15277,-30440,34114,-32948,24276,28080,-23262,4804,-31804,-27215,-30456,-22302,45813,44504,29004,69982,27628,-52379},
        {-89985,-52897,27063,-71219,-16977,26642,31241,5793,-11115,-10793,18387,-32894,29079,48033,16176,-31185,-34084,-22368,-31529,-8906,46539,82915,-141587,-18269,32271,-21522},
        {24028,-15821,-3057,26181,14589,-25231,1058,-38807,-3815,24526,6118,-40451,40556,-32965,-23469,23869,34771,15471,-8678,22610,58635,33075,6181,34075,31255,4206},
        {82487,18723,-17774,5654,57194,32206,-28298,-18468,-11414,-38508,-34337,-34458,35399,-10163,17702,-15176,-25223,22256,-23580,20423,42373,-11076,70785,254561,128473,-12582},
        {-129197,-96009,-5690,39284,34686,65223,61850,-3791,36651,31388,-78732,33126,35118,53919,48635,40900,34943,39398,49616,-56330,31344,-30424,-160320,-150912,167233,34794},
        {-98018,-70209,-18605,-10639,-72681,18232,-49394,-30466,32607,53171,55857,86530,68642,61046,8706,36190,-30438,22533,-36067,-33147,45466,-44742,-168645,-49262,61028,-34725},
        {69786,23647,-52059,18026,-72556,-44387,26146,4456,13151,-48638,-42604,25411,-43518,-18792,-25878,-33306,3351,-5480,31869,5001,-38278,-53582,131865,-17607,-109071,-30183},
        {19949,49119,-60994,30653,8796,21555,-4482,-8065,37363,44467,-13088,38551,-22917,-23307,-51872,-43982,-736,-18791,-24763,37828,-5328,-40384,7539,155013,-97003,21889},
        {7285,14541,16121,-33782,10479,9631,-41352,-15258,18981,2227,-34098,1559,-25091,8621,-3520,20008,-33201,-16003,-29714,14622,-17110,-43223,29107,-21302,-16739,-19191},
        {-52648,-37515,-28897,-67389,-17875,9639,-78791,35386,-41630,28166,-48553,-13108,16201,-21537,2591,-5521,26520,-30876,33749,54281,10377,-57932,-110958,-205251,2511,-15160},
        {-11041,15214,26152,-41387,31735,-5030,37075,-30881,-6457,-17982,16147,5097,11855,18778,-23747,17960,-22655,30445,-33510,-13212,49765,45937,27688,41124,31341,-28161},
        {-73768,-12475,18780,-11434,-44341,-93897,14002,24163,-5742,-56808,6879,38136,41419,-33941,29890,2899,-25873,22708,-4028,29189,-84811,-86043,-87946,63215,121260,49612},
        {-50819,-34852,13883,-54624,52535,-60072,6994,30714,8715,-37821,248,-29976,-41592,48973,35725,-14613,-1870,19538,5035,41395,-112539,-74699,-31333,123814,105159,29316},
        {-4589,38129,37516,-110737,27531,82615,-22278,95208,-47851,-9806,63246,63060,42360,-11122,-9753,27931,36443,3690,-47728,34549,-29707,-53835,-492,-257219,-164043,684},
        {13136,17826,-1154,23186,-29434,-67751,35551,-4139,17394,58543,3556,40023,27609,14884,-23048,-48992,30391,-30619,-20906,-5232,-12974,-30659,-15029,116877,81148,17897},
        {36143,59329,16056,25007,8776,4763,55194,23587,-46612,-36083,71076,51034,-34224,8964,17830,-18811,-22365,8930,-15659,-24250,125206,18408,-3578,240310,-39417,-22851},
        {-138686,-72014,12872,-10993,-62882,4861,-65380,-11494,-14071,49837,59757,5626,48922,63390,55379,48007,-55088,37507,36856,-55743,61795,-59482,-227521,-77842,191530,67437},
        {-8342,-7815,-37288,21683,28221,21307,-10775,33704,-28115,4840,-40703,-14414,-43463,24205,15283,23659,48198,-23588,-18727,22028,50267,18019,-93980,140110,98459,36898},
        {-35408,14554,-15611,51657,18332,-41301,-13004,46981,-38900,-5823,199,31792,23815,42326,13439,39163,23014,-34834,10565,13414,-26184,-27518,23796,-161718,100664,27467},
        {28950,-34352,-21757,-31910,-8091,-46547,29675,47185,8076,4827,-30109,12590,-41716,-24117,-19632,22291,28173,22639,-8528,7732,-23518,-14788,-15160,135676,87183,29820},
        {86830,60277,43085,90991,-27660,13848,-40498,27926,68372,-39577,-48558,42799,62742,2722,21405,48649,23374,-4761,39272,-38749,-88226,51489,210482,307432,46028,10407},
        {69685,25857,1389,-13849,-21500,40894,28592,9180,8438,-39471,-5898,33131,38323,30477,-15332,17380,24680,3117,25767,25019,-43333,-42169,95328,79362,-23643,-15567},
        {-7421,-21651,-19556,-6909,4353,11091,3402,-13606,37042,-131,13462,-209,28224,17132,-9506,-3681,-6033,-25745,-32405,-30304,13935,-46801,11528,40850,-76357,-49885},
        {-90926,-54695,-14203,-48148,-40573,11918,40632,-38552,-6884,-32746,47444,-19830,-35105,4507,-13958,-20849,-12438,-8603,22178,28564,-8882,33148,-119388,72951,22507,12956},
        {60741,-23053,-43723,-7128,4703,-58479,-2827,47742,18224,-32793,26144,-29620,-30504,-4733,-15023,-25740,-5601,19819,-33019,-26456,38854,-81336,60632,4925,46259,-167},
        {-36168,-31569,28478,-38573,25133,-29659,1295,1579,38172,31413,18747,12273,32408,-7353,-40844,-14405,-34450,-19724,-19632,-5292,30599,33048,-52016,-88793,-11939,-14351},
        {12406,-42107,-52104,2074,13685,59814,5505,31202,20972,13839,28136,-11046,17113,-416,-37242,-7799,-5702,34422,9271,-4481,-9371,-53095,-58802,-22014,-80105,-53618},
        {-53930,-12261,-33908,-7806,-49094,-10099,-62724,-40432,8381,-44079,6598,-48269,15428,39863,-11088,-35952,-35425,15129,13810,-25315,-1300,-35886,-117737,-118215,-19783,-9217},
        {6591,45199,-17118,30367,-23470,11112,5300,19071,-29678,3247,-19895,-11635,-29859,2490,21449,-5905,31346,20722,-15253,-6631,-16525,31970,64027,77002,69109,64817},
        {255806,-105627,-182650,26835,71637,-6846,-78914,-82255,53751,-41371,-49666,-58306,-5206,34283,86359,39170,53973,20691,-42730,53140,136774,16990,182497,52167,-211447,-29552},
        {61198,10506,-13704,61446,16709,-6878,14416,-8445,31357,34099,-38910,-6340,-39877,17634,17863,14731,-17799,34993,-28598,-9097,20540,-18658,118677,-38784,638,-16477},
        {-29594,69913,-25874,40807,-21691,2941,-35715,20577,-36212,9415,-2193,-16228,-37411,41023,11429,15306,-38108,-29192,30327,-54631,23192,-25158,28427,-71536,77868,-9937},
        {-60818,-41941,-44568,-41291,43507,-3870,-51755,6475,-7722,-2810,-35466,-17847,-15092,-26932,-35866,13910,19613,26141,38104,36444,18935,44006,-87458,-16275,10141,18604},
        {-20469,3482,-16148,14949,-18961,-41368,24301,24367,22269,34313,31596,-33026,-33300,-338,-12310,-393,14020,3841,18616,23647,-55011,-44956,-31112,54,75785,-7119},
        {16064,-41695,8049,-6134,7689,-24444,22630,5527,-41247,14733,-51227,12064,33029,-4209,-13231,-2766,9703,10408,-25477,9056,-74448,40405,10645,-75735,128133,52183},
        {-31166,-4097,-36030,8774,14485,17947,-48330,-4933,13502,-28899,10971,-50664,-37591,38139,-33043,3603,24313,-20655,15465,-14283,-5999,-38802,-78080,-153835,-101857,7863},
        {64939,16330,-16546,18236,30637,55191,-2881,71329,11903,-50319,-11194,-32383,-3999,26030,-21607,-29888,8610,-13472,-8458,50359,-38366,-94983,169102,206873,-147217,-51115},
        {25514,-24560,-29159,-22936,-20445,12095,31636,11011,35527,-19063,-5603,31155,-4260,13852,-17181,-30678,39748,12422,-8363,-31827,-7588,-33728,66261,88936,-47886,-49452},
        {28170,21681,-48800,-23148,707,2568,32089,-27458,-29689,-14446,31778,19516,-6600,1681,21573,-42566,14387,-5513,-5983,-3685,-53028,-43218,-5860,-117731,44776,-13387},
        {-16296,-8900,29339,13711,-5568,31155,37946,-16749,26842,25530,-30293,-837,36871,-38286,-1599,41711,5469,-4988,30966,31091,-48561,-40341,43095,141015,31281,18801},
        {-12827,-35861,-12301,-39028,7086,5760,9325,-35460,384,-35122,-20423,31205,-10861,3393,-30789,10981,400,10466,-23495,28105,-50371,30949,-59536,56455,59733,2346},
        {24818,7777,62245,-45340,-1598,-30450,75141,13598,31950,38902,24688,14998,23710,-39483,35813,36214,-30081,-15955,-28877,22256,47901,19346,56826,48452,-29719,6362},
        {36952,26975,13855,19809,39484,-38794,33981,9072,-2195,24577,-27263,-40808,-20143,-32833,-15569,21754,22097,-20407,3589,-29920,46433,38504,80785,-70885,-110939,-44110},
        {-5498,-45051,-16434,-115286,96845,54181,-36311,30244,-43077,18060,-19414,8137,-14436,-29355,-6961,-25673,-26867,6421,26430,55336,-564,-22319,-47358,104832,72497,30824},
        {-5104,-4100,-633,-3245,8171,29597,7496,4569,-14696,29508,10663,19506,-28539,2820,-18104,-19377,32849,33436,-35964,23872,65019,48451,-53294,-94001,-46221,-49656},
        {38240,28822,13378,12847,27431,-19033,-38769,23940,-22979,-38562,-12482,-40956,38909,-16035,-23218,-38885,19338,21371,-37840,-15621,61635,-23312,69938,188868,-28622,24897},
        {-31904,18445,48066,-41926,-37647,-40434,68090,56366,-33279,-7151,-23311,47575,-27666,-2941,-16768,-26101,28623,-3684,-24249,-17061,99543,-28379,-17754,92130,44152,-4295},
        {136200,57156,28372,12444,-53156,64471,-9231,1872,-52154,26056,-47121,-33551,15705,-48725,32694,1187,-43009,-19098,-34270,-16460,-43192,-6212,199951,51168,-157672,-56634},
        {22135,-60741,-27041,-53702,-7346,32217,41022,52924,54752,42592,58293,-12305,20735,11419,7848,-1746,46403,-5563,24309,30068,-102215,29554,82655,34797,136712,-34951},
        {-34191,-10911,-20672,-47319,5974,-12079,24502,-14473,-38122,27,1389,-25500,23329,-27903,-2428,-25467,18219,12586,32095,-35870,53693,-20936,-50685,-141478,-32874,3383},
        {36668,-25375,-8699,-18399,15563,-15954,3967,-60128,5127,214,6684,38432,-4596,53179,-2072,-20962,30059,-18390,19649,60923,1510,45695,57102,-41847,32545,-17759},
        {-32150,-21971,-33007,-39059,10674,-45682,-12387,4015,22056,-51696,-5216,2143,1031,-28911,-13645,6618,25804,24672,-3896,10200,14929,-104459,-26876,-242133,33303,-14029},
        {-54082,-33981,-6026,-9732,28473,-2574,-7427,12726,35499,-19535,30522,17276,2456,-19899,9153,-32657,-25982,2705,-15012,-6863,-16411,-28307,-26075,-120577,-29543,-39272},
        {1093,-16932,23977,-11471,41434,44588,63778,4196,34841,-21266,-44118,-32305,-38498,26266,-44394,4482,14269,-11867,2652,-33210,11506,-19767,-72881,-116662,99741,41952},
        {28769,29938,5292,-16748,-28776,88216,12544,-43381,25623,-10539,-26796,-56039,-28527,-31933,-42144,-45914,15044,-2365,-31629,36555,-6468,-52884,105528,-1447,-169494,-41073},
        {-74700,-39195,-1935,17604,35986,11034,-58105,-50842,-24025,9453,-880,-4070,-2595,-36607,-41288,7281,-14640,-17202,12928,-11223,-7813,-13792,-68960,-225754,-126010,-7071},
        {-75949,-65041,37633,-13919,-12775,25008,-45837,31208,34201,-17121,-20390,-45243,-33251,-17762,-55528,3292,-23110,-30348,-28045,-34832,13629,84172,-97265,-53547,149492,30091},
        {37208,-3975,-37834,-14338,25633,-8006,24902,-21212,-36669,22061,-30044,-22627,-12570,-22352,-13529,-32152,-17908,-20384,-489,13492,44149,-28025,-43843,-115733,3223,-48776},
        {-5181,12373,50670,-25185,-32124,6090,40080,44633,19350,-33589,15178,20988,12750,17288,3393,16720,-11755,22644,23396,-39989,-11563,28587,66801,20544,96819,54339},
        {412563,-201895,112299,-169170,-24231,-71567,-70496,52262,-118705,-69700,59704,-32131,-79042,-117295,-58922,-41885,-52944,-53688,30370,37621,94118,27585,288558,-11576,-381850,-74813},
        {-55879,-52901,-51345,74616,-8287,44654,39491,13406,-35554,27563,-18589,-7902,24770,-17448,45807,-8322,1622,22658,3102,30543,36019,-64429,-92065,-297993,12160,-34424},
        {-30484,-3841,-4197,-38462,27352,10643,-52833,-73,30482,30771,-27874,-40914,16877,-39699,-23499,-18195,36938,-17442,21473,31362,25999,53805,-80632,-56922,-47378,-54817},
        {88532,-711,-13804,38278,6246,-48867,-65180,-26525,-18705,-27178,14427,11048,55372,37646,-37017,-12048,12936,-1936,-50254,5212,58895,6661,99989,-22493,-134283,-18155},
        {-31332,-9157,-30084,20362,-7759,68701,-20886,-10021,25704,-28737,-13455,25088,15806,16596,-25220,-1809,-7882,8378,16311,-496,6887,68029,43413,120493,-65323,-5625},
        {-15791,1413,-6425,-33464,-1518,-29856,28394,-40305,-33617,9852,4529,51972,-5117,28354,12410,11233,39839,12393,25992,-15292,-14587,52200,-18751,-76650,-107632,-50730},
        {-201908,215893,-10284,-24358,-51574,43944,-109745,-58070,-31224,62063,-40857,-50877,5393,-29072,62543,71329,30847,37718,-11899,49271,-47536,-23368,-138840,-108865,71299,20780},
        {-99708,37475,1518,-21922,-34476,-23055,366,8634,27812,55051,-8382,-62447,-4,-16540,12513,19570,17330,32047,57209,-42120,-45766,25215,-117384,61308,28936,-18241},
        {-21436,18555,9882,14187,-24914,-70,37106,-34487,37624,-30119,37203,34255,-31839,14991,-17144,-24114,14819,-2638,-20489,34242,-56778,60301,13757,-86213,-34753,-20702},
        {46281,17536,32675,19016,34364,16659,19612,-7078,3163,-3993,-14525,-14145,-2896,-45852,-7075,33095,-41697,20936,-6228,25261,-23072,-47267,89846,30930,-27084,28708},
        {22865,31429,42725,34656,-62390,-20064,38562,59576,39969,7668,-52043,45819,-18492,16501,-10602,5986,-9508,-1839,-15631,29839,51513,-39133,87115,192312,-57044,-21839},
        {48013,3419,-39419,73324,-26969,-62267,19529,-56621,30986,38568,-46053,-69521,7397,67382,50958,13522,-30952,20804,-31740,17029,41457,30099,-10635,82790,118897,28853},
        {12768,31260,-47321,-31790,43015,-96526,47804,-75832,45253,644,60233,24057,-45113,38051,31679,14332,-24095,21936,-52405,-20603,-42235,78856,-20245,23994,-125458,-18905},
        {12682,21161,-12163,-7825,-29844,-14031,15327,28426,16115,-13794,4859,-40713,-4989,-30120,-15951,-166,34894,-32070,-23830,-20459,50114,49697,-3962,-2906,12287,-26615},
        {-78657,3373,28120,49039,-2979,-19157,-28933,80723,-47532,-1216,-29604,-5612,-8751,-3894,-44587,-49910,-27780,41472,16970,16231,55946,17370,-92364,-69118,-141682,-27737},
        {63782,29051,4149,12575,25671,13187,7718,-64344,2735,26441,22444,-7182,-1517,-41192,-26416,-23690,-46691,17811,-23133,-37126,-40641,48189,67487,-42653,-97851,-21952},
        {21296,-6333,140767,-55188,-40297,-27244,-27952,10332,-31907,22509,63479,-42382,-76696,61144,-7775,12041,10420,13171,28773,10937,56559,-13506,34758,-65145,5965,-7297},
        {8252,11186,-27027,-19883,51705,-42629,-39978,18168,39697,-38440,27195,-27517,-9653,53254,52679,-43829,11533,33167,-29218,-44097,8563,13131,9300,36574,-30721,16537},
        {39060,12116,53296,-23710,71000,-69888,-22589,2226,-15748,-26906,7915,33058,38159,-37619,-28816,-38083,-18909,-22698,-23133,24786,42615,34046,19583,169228,100790,15657},
        {34440,-104290,28023,308,35523,-43428,9727,-69261,19624,5117,25730,21049,-14031,50062,-3531,-1794,43459,-4959,21706,71948,-46533,47102,-7502,100977,-75596,-17857},
        {-12001,19662,9302,-3172,14963,48754,-23826,39648,27889,27309,23817,-33094,33088,30,13186,-8713,21383,27754,27852,-20237,24358,75851,-17134,-28928,-124138,-39261},
        {-90067,-80819,-114386,84841,-40139,72243,35011,14556,16729,46683,71788,109014,34695,103793,-24332,53510,-45847,33669,39099,-27103,-62620,48298,-71363,44216,84122,42595},
        {-9582,36633,29224,-27516,-32128,92699,7114,-3729,-5979,7444,-3929,44317,34957,-669,-36331,6291,29459,-15806,15983,44261,-28583,-67137,55956,220656,-124808,25714},
        {66270,32089,-139964,61210,-21361,46622,-62742,-60962,-44704,-12612,-44390,-3034,-9586,11311,68517,31676,-4219,-6040,-7084,23178,87496,16454,82256,163319,-46060,17865},
        {-2988,-34458,-30572,3612,-25483,5165,37698,15467,-45762,-5701,30853,13094,-32332,-21021,18817,-47424,5132,29688,-1470,-35656,-3222,-26060,-84708,-172143,83275,11299},
        {-51491,-26951,-18278,-5188,-21438,-32375,16755,-50202,-33340,-26544,19988,17061,25338,-6912,-8741,25505,12804,-31410,5904,28830,-24705,30723,-100157,-167716,37414,34513},
        {11254,-11358,-13385,-19454,43203,-4116,-25056,11296,-10349,-21782,-39697,15011,33214,-16389,46390,-19296,-22810,-16410,-21351,44021,67549,61566,-50945,-83493,-18014,-22392},
        {-13332,-20037,1589,27660,19173,-49508,9541,35307,21258,-356,24952,-11352,20562,-13068,-1997,-2302,38175,-16302,-21526,31814,-8951,14047,17944,76542,75324,-18871},
        {-65293,-53541,-34088,-24031,-21145,-68643,13028,19506,30214,13470,21347,46052,-11842,-6883,28537,-43782,9771,23248,1137,16335,-71592,73553,-20489,-32867,121990,41032},
        {95899,67882,-38472,13560,-13247,25152,-50587,-9674,29560,-7749,1276,19650,37918,-52548,12419,11189,1534,-20113,21111,9313,39397,-42750,135518,55797,-102142,-20612},
        {-55123,-10028,-2530,16923,-6149,-23297,-21497,-42792,-38648,33244,-24158,41819,-10628,-25125,9014,-17050,8695,-13550,-18579,15834,32431,7913,-67232,-85394,42217,-4486},
        {14117,15037,14911,17109,15118,-29875,29751,-12168,18464,12729,-17617,-37113,36123,-28698,-10974,-4746,10964,10713,-30500,22913,26572,-71050,71156,-6724,-65028,18645},
        {14234,-16352,-36895,-8920,13502,-31269,17247,-28044,-9373,-49204,1238,2492,-1387,-32587,-30504,-1713,23020,-7830,21268,23957,41088,-55342,-75941,-100604,-3785,-12407},
        {-16040,-34748,-26918,21984,-6998,43212,36049,20417,32032,-23117,-42621,-30006,4282,15143,-13148,-18225,-4290,28141,-686,28280,10874,45230,-14650,133835,5087,-11678},
        {136097,51281,16745,8482,42071,-23617,43017,53006,61511,-62322,56434,-28361,35730,16168,14222,22570,-252,-22813,-66174,709,46286,-70149,208437,-98940,-170499,-37574},
        {-6163,-37415,-12478,-16179,-2782,-13806,-45441,24499,21927,18737,-38027,-11372,16558,-6115,55178,-30724,-16,32555,-15859,39303,-53049,48119,-59370,-232010,54852,-18700},
        {-35539,-43348,2345,1711,-40614,-32900,-52499,27558,22621,31120,-61431,2260,36578,-30179,-32269,-43898,2042,52658,11680,-41039,35635,-39571,-136065,-60250,132165,44008},
        {-128134,-93810,-85872,152745,-20112,63303,89445,45462,63472,28051,-49402,20876,-4662,-30329,37240,69887,-62815,35077,-27651,42500,79613,56825,-211388,-50087,213988,52362},
        {-40137,-46975,25126,26180,-103601,40163,-8223,4148,-23823,-20250,28123,67131,47846,43149,-40915,-62341,-17791,3177,23816,-14339,4401,-48506,-82727,-51884,-136059,-48591},
        {23037,6693,31499,50902,24662,29861,-1831,5590,-27904,25865,-14950,-15021,10104,-26467,-52873,48198,-31728,12461,16827,24676,-63515,57511,76912,-43156,-95086,-52622},
        {30239,22081,-30092,-48508,-52912,-35549,-37061,-4428,-27989,33262,48272,-8345,-5077,-45313,-8355,-25517,-26975,-23403,-1735,-24321,34869,65884,-12678,-36370,-106431,-47054},
        {56735,92513,50818,-48713,34756,-18439,-47323,-8051,-20637,49192,-32693,13155,38696,7520,21464,-57904,6751,8034,54090,-15589,88767,-42900,40216,206575,-131500,549},
        {-235271,-43831,139591,51971,63004,99104,50180,-5679,19829,53369,34678,68198,-26312,93745,-56166,47931,52798,-21319,-43371,-55338,-28778,-62530,-200638,-121303,199998,39937},
        {-8133,-13454,-6973,6169,18955,-37015,-33459,8454,-23962,-18106,-7659,-35086,-26425,-20516,32547,296,15003,-7409,-17382,-15616,45118,-40219,-11694,-176833,-36194,11219},
        {-3069,7342,49063,36445,55031,66625,27339,12507,35922,34633,-35217,38185,3675,20166,40192,18345,-8017,-16617,30693,18604,34384,50152,12410,198394,2162,42768},
        {-37333,-15619,-12451,76724,30360,-35918,28760,26613,15362,21893,-46690,-55383,-43555,-15463,-14532,-26744,-32616,-21787,22522,-24598,-74458,-58902,-61176,-218097,-107870,-24964},
        {-73408,-36443,31571,23955,-37271,15512,43123,36480,36104,7767,-914,-7580,36855,31434,-19249,58947,47811,2839,-22891,42415,52131,15092,-70088,53698,50488,10910},
        {63198,59172,-26345,-40511,7876,49451,48030,-26296,-6323,-34122,33805,34107,-64562,-24871,46244,-37804,-63694,-66755,32798,7934,31150,22387,110644,144318,77288,-4811},
        {-93882,-96287,-55003,4304,-25444,-92349,72874,-43844,33190,-14518,26619,-44032,-48691,42034,13803,46487,20522,-911,27947,15348,-115895,28522,-137056,-68156,76148,-20514},
        {-54507,11528,10941,4129,-38125,-19778,21982,-37385,20726,49656,-28824,-3572,36042,26269,-9759,-42675,30087,-28940,27677,22085,23729,26790,-56302,119317,81504,8513},
        {-11512,6335,-15911,-40275,-12430,16174,2986,-12411,-26162,9847,38133,-17422,-15514,-27398,28256,47523,-25343,5257,42271,-4866,-44470,85149,-52768,151476,77092,-4465},
        {-7923,111577,-57706,20154,32600,77997,40130,59461,-65395,-21573,79536,29757,-36233,-17684,22356,14580,46529,-39678,-41443,-31755,181893,-58004,-19312,103173,-161905,-67431},
        {-99365,-62277,15114,-5420,45706,40416,62264,2619,1088,37384,19294,7051,35009,4255,18997,38284,-8061,27411,45279,-26964,-14984,52719,-133418,96371,103525,30891},
        {-4492,-11570,-1930,-28890,-29912,-31715,-30821,-49300,18300,-26638,-30047,-31704,25227,-12488,-13678,25447,21274,-22989,-30795,15262,16967,-8570,-29964,107891,109603,31953},
        {-36147,-21907,74349,74797,-57220,-86725,23433,-29026,52321,3780,-45455,26848,-4834,-13087,-19235,-34896,-47640,3743,38964,26698,71259,-14863,-106112,-57487,-86338,-26101},
        {92248,14177,-46251,54327,-16664,-55963,34055,-5851,41766,-56039,-33360,38397,-47216,-36083,-8860,-23741,-36144,28499,-18221,5694,20758,17142,85146,135979,91663,8912},
        {-71962,-39412,-75736,12928,31082,-16372,-57699,26582,-14069,25489,-31401,-21431,-8891,27650,26638,22581,-24395,5656,23655,-4723,-28163,-68496,-128095,-94414,-76774,-26155},
        {10134,-24592,27415,49152,35300,71865,46252,3458,33795,13023,26687,38645,20585,-22353,-15741,34947,-4312,-23027,-24513,-12837,88018,-19662,-35180,-13208,-46074,-2007},
        {57416,28769,34952,-969,35680,-48734,-43445,59787,55803,-47425,-25066,-36933,-6372,3739,-7371,38281,-6642,24339,-33683,-32472,58525,-14190,63520,174701,-31169,-26592},
        {40442,32293,4225,8498,-56097,3963,-32619,-12781,20434,-29128,-42150,-25241,7907,-10766,-19003,30060,-35463,-3189,-25794,26347,34753,-43124,-29179,61628,-23956,7374},
        {72444,22877,944,32665,13947,-9952,28817,-19858,28307,-28029,5171,-28946,51085,-51414,13898,-27853,14378,-3511,24285,2775,-6715,-41230,118169,-19584,44954,41940},
        {77455,39979,19506,-21765,-20261,-16799,-30603,26789,7058,-44702,-42005,-20037,-27364,-31089,1413,21209,-21244,23097,24014,-31055,-36864,20905,129118,-3253,-46522,16835},
        {70496,38925,-3560,-13505,19682,66299,-27511,-37175,6191,-26042,-6219,16115,3123,-53453,-47016,36719,-22593,13457,-24301,39056,69959,-13693,64276,167739,-36137,907},
        {134783,51870,64765,37294,106766,-11865,114558,8900,-53589,48355,705,-26396,35240,28961,-26756,36004,-6470,-26582,22103,-48019,61919,61403,242062,269722,-154278,-46248},
        {48409,-18593,-25531,-17503,-8667,-7765,-16596,-7352,47065,-22997,24697,-14661,26272,-14725,-35942,-1188,-5649,-26381,-33820,-14891,33749,-74575,-13506,-76799,-28955,-24884},
        {67387,33413,27606,39575,-48820,-37635,-48214,-8717,-19315,-6105,-24316,-2323,-32756,-25090,-13227,34138,-21278,14724,5679,33923,16434,15606,115627,123053,-99637,2374},
        {29400,34725,-74367,24910,10281,-14275,21824,57102,5109,-40747,20372,36691,-8058,23590,-35547,-4970,25809,-7273,-41074,-25766,-31167,-52168,87741,71291,-80438,38379},
        {-40253,-12858,15621,37402,52529,31421,39164,17362,25626,40191,44448,38921,-11712,-23051,34710,-33006,-22842,4509,-15027,15786,-64610,-52222,31810,-73406,44453,40347},
        {9004,29003,-4839,70759,-21995,-20967,-4900,46052,-28031,-29516,-31585,25095,1511,-6722,-21604,16189,-24024,16134,24408,11269,-44613,-45149,73763,25079,51267,11984},
        {403,21387,47218,17125,34495,2735,14400,-31790,843,8403,-28681,23209,14789,13660,-19379,47586,10615,21369,-43570,-25660,-24374,-83417,15176,-175518,-131969,-16193},
        {-90039,36689,121709,43366,24670,-10583,-16929,-5011,23241,-32604,32670,50533,28493,-37832,9478,34455,27343,44244,-379,-12833,-21433,-43005,17667,-98614,59824,6456},
        {22429,163083,-92533,-23534,74232,-134689,51635,-19,-44656,19952,-27978,18669,7123,-24509,-23091,64018,-51667,26726,16200,28036,-185270,15202,112056,-98205,9627,39263},
        {42169,2650,-5613,-29101,48679,23533,-6586,-53278,22344,-44122,-2001,-55168,55241,-20082,-32777,1884,9445,8041,12093,14773,57331,39860,59403,-139540,-23679,-23192},
        {-55058,-29051,20373,-43914,38506,19353,29309,6876,-28236,47091,17496,10323,8162,-20796,-31521,-8600,23092,36125,-1930,-5875,-9310,-20104,-73370,-154974,-46242,-58325},
        {-49824,-59691,-28241,-14637,-368,55702,-57296,-48308,35559,-3244,-38792,2204,-36579,-20770,61827,4696,15321,11043,5382,38189,-97444,32145,-104515,-27711,151449,23964},
        {11054,5725,9568,2223,-32856,14073,-40053,-33995,-41809,-44764,22136,1551,22866,10539,6267,-42324,30859,25407,26743,29949,39752,-45352,-44402,-66944,82458,29368},
        {77155,59636,-150910,37356,47180,29201,-13781,-18669,23543,-11523,-36604,54121,-4427,39845,17240,13750,42450,-36492,-37917,35007,-27876,3140,76250,244551,-27467,23712},
        {13022,-32477,5483,-26348,-14280,-46673,8392,-2198,-11401,13385,33691,6706,4245,-5809,10440,-7626,-34887,-3951,13765,48231,-41064,83759,35413,15000,-20340,2026},
        {33524,12342,25963,2359,27678,50188,-12357,16094,-33390,-46560,-50644,-37325,-45742,20515,13375,15176,-6073,-3903,22387,-13558,-36771,-71007,78881,-86860,-79766,14287},
        {-29227,-30223,-34855,44822,26184,-20632,-14051,13622,35608,-14926,-36765,-3785,-2591,26760,-39505,-45606,-52795,18369,-23385,6499,67100,-60491,-98239,-252632,-67187,-18909},
        {78906,9302,-47880,53865,17371,14236,28587,-10450,-15668,-33721,23536,20338,-36516,-41207,39230,14306,-4396,31638,-2802,18559,-51463,-23747,117972,135009,140994,14342},
        {71058,11805,-7688,8278,30691,61501,-21248,27642,7614,-46755,-24641,-7412,-38702,-30127,1242,-37537,30736,-17964,23422,15872,-49302,9008,97227,43255,-120937,-34949},
        {-57263,4644,40397,31295,23419,86,-32801,-26567,13691,-22039,-57734,15839,-34595,43477,39936,-5148,-30471,-17465,19398,36914,7865,-38449,-36283,-83819,-63380,22799},
        {36776,18243,2675,-10356,38095,-6213,12215,2046,3133,-31679,-2811,-3057,-37378,-18772,894,8069,28940,26243,-20,24154,-8892,-101163,33743,59171,30218,-18674},
        {28111,51689,34949,29934,-59650,-45329,32135,-24367,4431,-13761,7947,-33065,-18253,-34172,-17430,26465,42206,16856,25228,-28489,-46797,27311,78973,-113630,-105959,22757},
        {-102063,67419,-5740,-10146,-51279,44829,-25292,53601,-40263,-18590,16150,19655,8997,26221,14909,-33375,19432,3495,-10663,2646,-29900,12687,-56044,27364,43685,23180},
        {-20547,13883,18329,63964,16854,13936,-46137,24660,4003,-4266,12381,11371,-3688,-39928,322,7249,29710,19323,12158,-55136,-12624,-98464,37551,-238031,-121488,20269},
        {17661,5246,13324,20222,-1119,64395,-12610,-31563,29608,12059,-11090,6601,-38745,23742,-47102,49411,-20521,15901,8462,-22100,60326,9071,-41515,177558,-80414,18677},
        {-36434,-8289,972,37800,-25487,23679,51026,-367,37897,21283,8405,23815,-4891,-13837,-7108,44938,37241,-18810,-17062,-2782,32296,20041,-94620,74778,69546,12178},
        {-73583,30898,-54693,-35299,100003,-28299,2044,-9743,38086,32140,61787,8371,-16900,30085,48603,46824,63437,-43255,-24252,27985,55889,-45112,-116291,-57870,83898,9443},
        {176380,109919,28120,40906,19208,3065,64115,-42318,18000,-48520,-96597,-110313,-65205,-59103,30562,40173,40630,16826,51846,-69310,-82808,39958,321874,-73783,-283383,-72087},
        {-25103,10197,20780,-17085,-22722,43939,43436,41860,35670,-1305,-25638,24762,-23535,-1359,30025,30017,-28597,-24881,45123,-23351,-27243,47981,-80716,648,57456,-30789},
        {-8659,-23053,4755,-29278,-18930,-42812,10575,33785,-33399,21217,-11949,-20107,36554,10891,8974,-34491,-13837,21489,-25660,13739,-12796,-11097,493,110343,17013,-29655},
        {-18669,750,-22511,-17340,17486,14826,-20887,-39567,21325,-36278,-24833,29335,-43267,-22396,23249,14535,29033,19135,-6969,32503,13826,38384,-9837,15379,68762,11103},
        {-70959,-53809,-45182,47239,-11406,28474,15049,21160,-23625,1427,19511,-20474,-6919,-9657,41340,-2975,10118,-24949,33155,24574,37359,-32894,-85047,-83554,-50607,-11907},
        {10494,-8319,6142,-27767,-66377,-8802,-52232,-1271,-36363,-28712,-29588,-5423,1205,-4838,-15994,-36921,-29209,-6131,-17666,-25986,-44820,58749,20754,-89026,-92769,-30296},
        {-16530,-3410,39460,50715,-8168,19599,2952,-23759,-50673,-5741,40446,40350,23595,22314,19108,2395,-30004,13131,-3870,-9802,-18636,-75711,-51312,168036,-63586,31757},
        {-15649,1031,13876,-10001,-10082,6341,-5927,-24822,-27732,-13492,29037,-1248,8770,-31076,-22794,-22687,-29449,19586,-18812,20912,-6030,-24262,-47283,-6747,11366,27597},
        {53007,74560,22294,8517,29596,78708,41827,55102,46091,-60258,-14351,-21433,-9490,37385,-21917,37529,-5488,2244,-43961,-22583,105923,14602,111894,65601,-116873,-49334},
        {-53953,-11566,28428,624,-25417,1792,-31935,-23439,3220,41139,23881,27073,28265,35609,38070,-15509,285,-4668,44383,30597,-16119,71851,-2786,138803,65783,33954},
        {22546,12024,3062,-34356,27748,6481,24173,8221,-19282,-17836,-32886,-2921,15874,6583,-26019,-33420,-45742,-9144,-49238,-723,12398,-69217,53641,-174868,-85102,-31564},
        {-42936,14393,5832,38190,-42120,-11758,-3981,-1613,-12965,-4314,2999,-10445,-5319,-36011,55206,-20944,-17180,26193,-14063,35628,14264,-39175,6841,33934,-126479,-24582},
        {-43457,-63018,-110992,64997,69677,-114046,89722,-92678,17392,-26643,19806,25132,-54186,-49141,-4328,-41905,81462,31162,42410,4909,-48902,-13772,-109810,-102646,59752,13632},
        {75828,35543,48889,52172,-53750,12340,-24059,5388,-22340,-37349,34688,5773,2998,-17500,-45598,-45718,-18084,-25655,3951,-42021,-57234,68819,115270,220631,-19878,-9159},
        {-46959,-41663,-36524,-11553,6473,-22429,27551,-77300,-8610,45203,-14022,714,9788,23001,8179,-5693,-38976,-715,24376,30540,60258,-17683,-159641,-142041,122058,17534},
        {83259,80117,68509,73755,42072,-948,-201,-21152,19355,-55292,36013,-50477,-15879,-28362,19874,49254,42165,-9800,4873,-58378,-85461,28987,196071,-225682,-114544,45650},
        {-117159,-86709,-70192,57476,15024,-22631,5661,-73,24885,-4974,-14580,-43671,-22608,-11760,18573,48615,-41918,10682,-16999,29876,89673,61562,-197184,-243994,170733,43112},
        {-69286,-55264,-24453,-43738,-68191,-2747,-42316,45334,-5578,-48251,30794,51720,12829,16167,40155,31695,-29344,1701,-42761,33175,61649,-39010,-135949,-89692,14138,-39549},
        {-7414,-14475,-3674,-13692,13682,-10472,-36588,14183,-6092,22219,2657,21796,-17279,18549,45738,20845,22297,-22051,-2358,22574,-5910,10386,-38566,-181037,-70037,-26180},
        {33364,62324,34757,33692,-15179,-15707,28188,-9909,30226,-26457,17928,-43018,-19105,-66032,-7499,6115,-33051,-11154,-35067,29230,468,-49263,77403,135218,-49579,33615},
        {36470,-10592,84143,-10698,85365,-110152,-16035,-32419,-29003,-6891,-54571,-60186,-29987,57478,18832,-47660,-33213,7881,45792,-8986,76512,28566,-44968,135869,102763,21785},
        {86991,42931,-156160,37126,49564,-17068,57780,26227,-37320,-34069,-70178,59288,60342,19587,28564,7417,50663,-13882,-17143,48632,24156,64166,125356,242621,-111164,-11801},
        {-66132,8397,1280,43680,36810,5084,-46186,30097,-34912,-39183,-13302,-23817,-17413,-18305,-49711,10702,20098,-23579,21407,41178,-24797,7322,-88409,-84019,62550,141},
        {-69168,-50084,-20081,-30820,-2295,-55149,9454,-2611,-23770,16708,38996,9717,-29603,-14220,-1884,-12143,11275,20326,-26062,39776,-12118,51164,-75150,-236085,-46365,-49303},
        {-14643,-4717,17309,9085,-12035,63980,-7979,-15465,21244,43654,11584,52736,-21929,42136,-10632,-50853,-12197,11226,11033,-7247,31995,-34677,-8364,204470,-73394,20963},
        {-63654,-52056,-13284,14772,10256,51864,-39649,12323,33283,-18289,-28244,-9135,9408,24231,-34976,4891,-32076,19897,5046,-15881,-8950,-72647,-46251,-147620,-83338,-6888},
        {579,-29155,43540,-45135,22288,31664,-15287,-1425,29180,-47433,28138,29942,-15061,-31058,22248,27589,-29093,4422,-37821,40499,24161,-47515,4800,-150436,55338,-28806},
        {-39237,-38558,-9612,22264,-36703,32120,59320,17176,-39736,18908,-17043,-35874,6606,-25805,6467,-36180,5864,26656,32091,-11999,10274,-37286,-100552,-105155,29818,-9017},
        {40086,-10807,-6680,-58,10765,-35816,22847,-24118,-24811,21066,-2401,5771,-21724,-11131,7019,19935,539,14245,23877,-35905,15372,-51159,7153,-37158,19530,16656},
        {-9706,5096,10280,-54409,20315,-31861,34942,-5806,-41316,-36497,-35433,-13599,-38017,-29231,-18936,-20989,24097,19436,-9895,41637,57050,-7822,-113499,-177681,-33067,-26276},
        {-35795,-6678,-38456,28994,16573,9001,-67745,-12772,-20196,22925,-19592,2412,-19353,-5746,3812,5842,-38517,22561,16606,28852,-54265,-47936,578,-150444,-48295,37138},
        {161360,83065,-52486,23126,71739,-8167,86987,40952,-37050,83316,54667,30575,10615,46354,-41369,-51331,-42285,-27255,-55649,24661,-30653,44393,289427,-46696,-283770,-78314},
        {68093,53954,5637,2598,23070,111,45499,-9798,15252,10512,17392,45550,-34026,27381,-34708,-1050,6070,-23463,-48168,-10466,78226,29933,61430,-45568,-105345,-44356},
        {109962,76901,3814,-5854,-61037,-12741,45387,12555,38609,-3875,8796,26674,55594,-37858,-29169,32714,24997,-23029,-50297,40052,-43210,-35764,187121,-14698,-126869,-43442},
        {-242919,38117,-67519,2174,-86730,102067,110813,21985,-41381,-48897,-29224,-34589,21133,-14270,-20963,-4665,-8727,24348,-22040,-25880,-168974,-41990,-214702,-203321,301365,84199},
        {115263,77534,80709,54909,1167,20435,-58282,33186,38106,-29270,20132,45575,44861,59102,-48905,63989,27125,35912,-19410,-51178,-87202,-31520,257688,34255,-155220,-5193},
        {22096,-30640,-35057,-22689,11701,-79851,36979,-90251,-50436,-45132,27043,13613,16189,-18685,18003,-51663,6970,18486,31766,-35412,-7858,-49267,-102948,-255553,120602,-19204},
        {19456,8195,20524,-50693,-10163,-21029,32574,34203,18473,-19261,-7879,-8357,27282,40197,-17214,1864,32800,31849,-22013,-30825,61366,8025,-60129,78437,54005,4343},
        {-126650,149258,-19399,76562,-3260,-72970,-33117,-33645,-50101,20623,37019,-39381,-39187,-11101,33237,5631,35935,28931,-16186,-40315,7727,-19711,-84198,-116684,63670,32937},
        {19171,-33008,-4100,-29927,5865,28542,-21124,-34753,30128,-11768,31422,1156,5692,-5791,-18754,-14036,-18172,-14122,20847,22206,-10563,-29741,-23722,4399,82424,7685},
        {-77447,-26493,-24262,-6441,4704,48582,-75415,-29952,-43433,43982,36792,-4273,11431,-2413,-1386,-12795,-11605,8868,-13819,3140,-777,-25893,-76100,-270056,-145611,-24402},
        {-44122,-4076,-5787,-47327,12005,-12079,37478,25948,17478,-4042,4806,-6725,16140,-30792,511,-13837,-2708,-28185,26957,4360,5859,13673,-26937,42679,-3107,4973},
        {90271,279,-83503,38648,80961,81503,-109624,28528,-40604,76173,7649,12514,-27090,5894,1268,4184,-15653,13927,-17247,32370,-95035,19498,139220,28086,89046,2271},
        {-1772,-1896,-2822,-11729,17031,-1060,-35033,24033,19123,-37802,-55837,16733,16211,-37850,14796,-22804,23825,33692,-9174,-40519,-71363,-71509,-33450,-166324,-1402,35403},
        {54942,37947,7692,27129,-33181,-19742,23556,29505,-27868,-44627,-19492,-18104,-13917,-20869,-51863,-35676,-23054,-21899,-12559,-46453,18259,37571,91729,161763,13004,41777},
        {-85018,-56004,-14720,10554,-27629,-15149,-26808,16039,-24865,-28589,48357,43774,36513,-18656,-20585,-1305,-2422,-21269,-3563,-10890,-19142,50843,-128384,63124,87654,15109},
        {6651,4035,-19714,-56355,6593,-21640,-3317,-42813,-3377,-17768,16736,26017,21126,-24567,36550,9455,-32569,7055,18242,6761,39095,83733,-51061,-231216,-1864,-49578},
        {209,-37754,-3165,5934,-20037,49527,-8923,-19472,17570,27923,-24971,7571,19021,9378,22012,26663,-21452,-5495,31130,-17242,66548,79855,-53866,-16200,26184,-14401},
        {-32096,-10006,67701,-11731,-17230,-57988,38459,-58314,-40574,40325,7770,-10421,-25069,-27138,12104,-20944,28829,5775,-5806,31993,25635,-41664,-11794,-129355,54247,-17967},
        {20814,25428,21962,-5831,30150,49953,26797,17684,31696,30604,-40593,-41450,40177,17113,-6946,22766,-164,17366,3935,-14041,48755,51871,77409,103722,9543,-20879},
        {-8724,-14015,-109150,41280,-14258,20889,-61862,3424,-40476,-41143,-51317,-24974,13410,-15734,-38157,41323,57026,-50218,-1334,-19290,-60793,62766,-82387,261392,64850,59228},
        {33972,18290,17246,5972,32574,-7756,-20721,20324,4226,-28768,31284,-10223,8239,26192,15126,710,-29329,39406,-22342,-31697,-38041,-34503,34730,-144993,-101660,20462},
        {20782,-10919,57981,-26643,-10400,24745,-33978,-38600,-20778,24701,-29435,14338,-43116,3784,15916,20848,-6728,-1799,30056,-45275,31186,69488,38226,56863,44996,-8996},
        {608,-41553,-25470,-43212,11529,7724,39790,-42302,7270,32400,25786,2371,27093,11913,10770,-8348,9656,16737,6296,-12812,-3964,82755,-40484,29715,75955,-25643},
        {162387,72221,67487,56627,-139590,1671,12771,11875,13373,-45162,-56618,5676,-25210,42355,38101,41155,-48964,-7500,-58456,76209,-66057,54106,229418,-21237,-206594,-5979},
        {71697,28096,-13298,-30003,10250,37405,-34666,22923,19333,19805,-25529,303,-42824,27162,27694,-39314,-34351,-10909,7514,18357,34664,30535,52683,-72378,-101471,-48311},
        {4911,-10387,4208,36528,-29146,-8868,-22934,-11830,-5726,-28304,-1484,57330,-43109,42172,-11574,-14126,-20711,19334,4277,17755,-59418,-47698,76153,188115,114417,28781},
        {85102,33459,29637,51244,46208,6879,-46693,51377,-3397,47495,2115,6446,-23978,-19925,-27063,30307,-31240,-20297,-1458,29018,-25216,-7645,99612,-9340,-131893,-5645},
        {-20966,-5356,3449,1159,-34188,35574,-51306,-21216,28387,-11735,21555,32767,-8522,-42494,-13250,-20679,21181,-20175,32467,47930,-58948,-7671,-77773,55717,50247,457},
        {11233,8893,-17554,25893,11181,-17003,34626,-11592,-24545,-21241,20244,45522,44594,26972,-20816,-37833,43033,-27106,-47024,-27643,-14222,29472,75316,121806,-93864,-16223},
        {-56653,-68304,-23861,-14160,-21469,-14686,-58380,-20216,23622,-12416,-43959,-21012,-13160,29465,-29391,31493,-18396,-20587,-28238,-12858,-79183,-14354,-109515,-50666,43127,-6991},
        {25281,18886,48033,-81335,24304,10912,22787,-26445,-12886,-16789,50685,15159,36974,34287,-50010,-5660,-21253,11999,-25047,-6565,57510,-31202,-51664,126671,22999,-50442},
        {18131,1796,-23896,11946,33765,12401,31207,-35360,30975,18365,-2077,18361,26950,-48472,16792,10007,19954,-8886,27579,-23310,-11810,-9035,36256,-100027,-64567,-33341},
        {65231,62208,-164063,37370,16426,-24544,-41346,-7160,-28415,3400,-43697,52888,-9017,-4964,4609,19843,30395,19976,-38920,27148,43203,-11919,56810,152256,-121528,-29199},
        {73602,-94788,-16883,1903,27329,-15835,39053,41910,-35691,-49888,-27149,-41494,42017,-4182,40350,57515,-12233,21478,-59767,-27846,46216,-95149,-9159,118016,-89,-49435},
        {13307,-585,39377,-12953,-7328,-61701,4172,-233,37148,7508,-43431,18105,32833,24014,-3634,466,9600,20446,9196,13745,-10472,56248,30479,42270,113462,44825},
        {-9370,-32009,9009,16248,31483,-19276,-31375,-26928,-32512,-36819,10272,-26666,-1850,-9306,-25898,4509,-5708,29917,-5564,16575,11818,22634,-68975,89746,-76357,-15410},
        {71749,57398,5388,14435,32705,-34932,51567,49314,59196,-45926,51553,-45010,49676,22560,42039,-8267,10387,6537,27576,-38025,75112,52544,120947,119839,-94498,-31278},
        {-87316,-48419,-17294,-233,-24665,10531,-2218,49230,-25441,36558,-36478,39285,11199,-20551,31106,28411,48289,11650,-18157,240,25931,68010,-112955,157882,23369,755},
        {12009,26055,28878,-18466,5005,50717,4689,40274,-8466,4884,-26808,-39400,29106,4417,17951,24035,-12827,26611,11298,-1009,36032,-61882,44703,122035,41445,14783},
        {-54251,-26946,66631,27761,-601,-22710,-51803,-59823,-66341,-74898,68867,24866,26077,-43784,14288,-87767,-9472,5840,-46999,63929,74245,-82104,-107522,-150527,152109,36733},
        {14123,26561,12613,31552,-403,4346,-13768,-10673,-39218,-31725,-33810,-18889,-13982,19858,21083,13477,-28936,-16406,-19933,-25645,-5490,57941,42078,3328,-115946,15492},
        {31691,-1591,-5109,-12322,28980,3900,-506,-28146,16004,-33689,-41910,-8358,45495,-37787,1892,-27104,17191,7307,-12475,-38883,36549,27240,-232,-103226,26306,9067},
        {41691,40441,18221,61358,108899,152,-22971,9964,-47132,51802,42185,48355,-2974,-5489,30461,49776,20965,11814,41612,23155,-80436,53569,137865,-20943,92382,16132},
        {41461,-3119,34268,56553,-4140,9436,34062,54090,-28730,-19935,46726,41363,-7876,-32736,25999,4266,11003,-27916,1411,26608,-1515,-87494,107822,203786,33880,33229},
        {-49857,-38732,-17888,85710,12191,21659,31813,17118,19206,-25158,-52882,24712,-6443,-3960,-27757,11965,4714,39220,36211,-27428,-36444,-62289,-559,-176086,-93448,-55866},
        {-52395,-67851,-41275,-37876,6798,65715,49274,-37915,31571,-57777,-51040,22072,36162,-54658,66102,-34523,-17735,11772,-53074,60198,40886,-81271,-106891,-184776,-675,-58457},
        {62558,16054,-2634,16883,5449,15200,17754,1106,20409,29084,-16384,-28863,-12823,-27073,-32740,4378,-7917,-13693,13368,-24103,-75273,-52721,94380,240361,106555,37045},
        {-9852,-20582,-30069,-2226,-27756,47547,47746,28652,-34024,-6691,1358,-13493,30614,-28396,-25829,-10366,-29324,1147,26346,28722,36804,46612,7496,-90809,95147,7902},
        {7205,9618,1122,26901,-21645,34745,-13902,36190,-3197,30400,9868,-39602,7049,-26837,20528,2878,-175,18059,49056,9899,1966,-40980,61465,177724,87521,-3480},
        {31193,40292,56571,35565,73619,-624,89464,-41490,-8204,62225,-12387,16382,32844,23895,554,48939,-15589,-30740,-42915,43204,-15678,72940,133201,182146,-115600,21043},
        {-26793,-10244,89642,-50783,-24702,-10976,15850,-24078,43968,2406,-18741,-53729,-34760,-26873,-35721,3438,25573,-19879,27328,-25986,23328,-46825,34330,-187661,-16367,12345},
        {114095,4907,18466,-145738,-97157,-67920,-78862,-6319,-38410,2900,-66911,7172,9951,37962,-62199,40832,-45367,-42242,-24814,-32023,-20276,195349,34717,133966,34077,-19089},
        {-27425,-8423,-13114,-7595,-25624,-15950,24460,-49663,3404,3449,36374,4937,-5486,-26045,2788,-31581,16665,38471,-17518,34604,-24481,25095,5099,-176608,-49401,26085},
        {-17623,-46044,24381,4562,-21165,47978,45165,38004,-24748,31481,-49406,-31051,-52664,10059,-25833,-15147,-2357,21169,-21072,-8455,13635,50307,-74479,61986,65594,35034},
        {15622,22694,14174,17698,-5037,3670,-23119,-9427,-27665,36267,-31551,31815,40299,19918,3700,-10046,-30199,-470,4128,8626,18989,61822,1024,69303,-123458,-53652},
        {53203,-329,11899,69317,-41330,-28233,-10062,18492,5313,-51245,-27610,-3794,-32643,-11903,-45834,33318,-46567,38078,16272,4133,-31715,-12429,73226,-195946,-62711,-4592},
        {30882,18129,1705,-2475,-41134,25336,12896,-28108,1355,-8429,16850,41002,-55630,18974,1222,9964,-29976,-32859,27656,17979,-15732,-44269,23690,-80416,103438,73105},
        {-58745,-61449,-18655,32561,-27099,-53707,-21786,26378,-764,-8679,20059,14186,-45759,-7320,40075,6458,-22054,11209,-15548,-21396,-22160,81604,-98260,78266,46821,-21230},
        {76784,-2414,36187,24683,-100816,-15941,60888,26185,41495,17436,60125,8958,5825,38385,32022,-11328,-18552,3437,27092,-46064,34682,-46820,63391,78394,-136220,-57115},
        {111674,48978,37459,131765,-70591,-70193,-72830,-6829,-11757,-35584,-33763,31839,37397,27336,18998,-12343,38532,-4490,-3662,-59156,15233,19685,156175,194783,109622,63529},
        {25606,-10436,13382,-21831,19163,20872,-14549,-28603,-34603,33527,29542,28416,1274,-23643,7857,12802,36387,32010,13650,-45333,14503,-25180,-42392,-61861,119526,1286},
        {-21893,17857,31634,34894,13081,-20927,-12319,-36973,-8667,1563,19953,-35241,-29431,46403,13130,0,27156,23247,8113,7344,-17534,-9375,4007,15373,4837,24377},
        {-26029,-36755,12143,28299,10032,-25199,-2310,31892,-29513,-9320,-33791,-6393,-673,14219,397,-8840,-23104,4717,-4839,-14047,-36876,19171,-47468,56234,-92126,-30566},
        {-7705,8284,1922,6199,-18665,3884,28084,-7844,-15877,-158,23846,23688,-13169,9972,42635,-8084,4378,29482,2554,-19255,25030,-99839,34408,56569,-60695,-35128},
        {-44426,-7266,29072,36082,-19904,35647,42422,46478,-27627,-545,14946,-23457,29974,-14442,18171,-42679,2241,-23903,5711,32871,-27071,38463,-59121,-122883,34703,-2822},
        {231743,-150508,-21489,14572,64811,43263,-53831,92190,8416,69565,3915,25941,-33017,31928,-37737,32549,-16488,-52325,2121,29723,43308,-44980,220870,-28598,-205538,-45665},
        {-15035,-33601,-6588,-22422,-17535,27695,-30749,40133,24891,12477,-44242,-35096,6893,-28913,-25947,39374,-39674,-28642,39513,-46678,60350,-16572,-11209,236771,115059,22016},
        {26552,12631,-10304,35730,-14234,17075,-36845,5293,-26253,20720,14894,34569,14930,-6287,-32043,20903,9004,25953,-18153,1264,-40732,24600,7120,79918,-5993,-31635},
        {32899,-27265,-2889,6081,12044,-31841,18442,21572,-14401,-76742,-60749,32878,10396,-6534,-41127,30382,-17773,27899,4562,18908,-75367,32300,44217,-219401,54990,-37006},
        {43746,18320,-18896,-32792,-36480,-8764,2951,-12527,-28113,16296,30487,-54003,-4404,-30140,1361,-14908,30517,-20754,9588,22308,-8551,68723,21573,-127571,-65888,-24891},
        {-47367,20841,31803,29782,-5738,14955,6813,-26751,-20934,704,13117,50742,11341,-36354,-14312,29037,10066,27644,-23714,-15693,-38530,-55367,10005,300842,-76143,50432},
        {-46194,-1691,-4572,-11058,-41849,18916,-10862,8109,19682,-11469,-16905,-2301,-6875,16749,2782,32509,-22921,7474,-11910,-10366,36334,-48970,-15901,21435,-33443,9887},
        {-52551,-2883,34607,-1858,-30087,83268,-14617,32451,36057,-59625,-38903,-10637,-15510,-14155,-25429,-7461,19657,-15611,2717,-14645,62448,16574,-43388,61469,-110042,-26192},
        {-17167,23088,26435,42080,64327,13713,1383,8263,-35996,17581,62429,-38837,-32762,-21343,-6765,-36442,-19971,-37349,24007,19841,-70691,-20275,84360,-22466,66835,60809},
        {1437,-36910,-18806,-89349,48779,41326,57064,-34636,32710,-1221,-68155,-50252,14560,-68261,16055,54613,-2997,15828,-26337,-57892,89222,24036,-110605,-83081,102655,-26011},
        {22903,19836,-19943,9028,25913,-5688,17077,-11037,-659,-22111,-25355,-32420,-15267,9640,-27390,-30124,-35597,19064,9076,-25552,-35446,-42104,1884,94647,-119994,-12317},
        {-25334,-26318,-21256,23029,-30875,25126,-10943,11056,-3792,30381,-80265,51196,3473,53700,-17262,30133,32865,21419,21813,-18263,2505,41371,25474,-32102,-68381,-7728},
        {-5731,-14811,12335,23935,25315,38100,-5747,10422,-28511,18602,-48216,38794,-1525,34274,-5125,3951,35970,-22045,25208,-2903,18705,9581,-36145,77175,-49678,3228},
        {-17635,-9078,49884,-11086,-47414,-992,15992,36284,-19646,16619,36897,-32843,28000,51639,-14095,-30810,16789,5405,38707,927,36944,9573,-82774,59084,-57732,-25337},
        {-63879,-84816,-47163,-33894,-20972,-72354,-30304,35295,-50859,37445,37037,-60985,23689,12982,-12901,60735,26940,-35624,-44426,6491,-137107,35366,-74304,21058,126208,14634},
        {-57202,-11592,13074,451,24535,52496,7125,13050,1543,69958,-4706,2051,23984,-23012,-38738,-60165,-17180,-12009,21954,-34468,-56910,-99025,-4035,97454,-105328,-5072},
        {14507,-46064,-2340,15714,-9101,6399,3943,36737,594,22763,34883,-15182,-14531,-16857,1432,10034,22558,36151,12171,-14497,-7330,34753,-40220,-97884,-99640,-19676},
        {-44656,17826,3244,-34440,888,-17326,17681,14639,13232,-30963,18017,-8318,5773,20292,22481,7017,25759,388,10070,-29592,-55145,35037,-64462,-42937,-47306,17671},
        {-11180,-26086,-17978,-11,404,-19543,-7291,19415,-13357,11013,-9730,21395,-21495,-19885,12657,36956,19534,-24291,21253,-24179,36225,90035,-56626,-29639,-87639,-42209},
        {-14351,-6959,-19484,-56468,-8487,18037,23200,-17403,22947,-15014,-13724,24652,-18191,-24320,-45315,-23249,-28026,-20131,30356,3194,47588,-17765,-77829,157761,44779,41559},
        {-37873,-39710,-25444,11963,5364,-13891,57878,49,-27218,23403,-32856,-32201,10248,-29605,-44338,-40290,-39008,19059,-24093,25413,36929,-37330,-133869,-9563,107742,-28617},
        {-32216,-16764,10478,22165,10270,51239,-9408,-42755,-36882,-8597,7128,53279,-22141,8349,-24278,47369,-5862,-14717,-26097,-15368,18726,-28109,-9193,58244,-134495,1616},
        {-54852,40884,572,40148,42394,-15126,53266,876,-6403,-7758,-3746,1795,-2486,7320,15116,37769,468,-4446,-16075,9279,-12532,20110,-36388,-23646,7559,8901},
        {-68128,-20498,-8568,-1020,-31590,-14537,17494,48586,-5018,15790,-17010,10310,20332,-2715,7377,-39450,-5603,8466,30556,16817,3402,37926,-119840,49722,80431,11158},
        {-3561,-17461,-39129,68193,1954,-59948,29446,6189,-21322,-43093,838,24135,23314,-11867,5475,-17512,7752,18672,34283,4112,-9829,-71173,23396,-179209,14931,-23654},
        {-9693,-18590,6471,-12310,-18063,-55952,13474,20845,36799,25313,-33532,-13732,26507,28147,-26135,-38208,16275,19002,31214,19115,27146,-38099,-24970,-66907,67359,44661},
        {-28745,-53602,-27260,31908,-22249,33729,-64477,-1889,2837,-69198,15308,-8305,13894,54307,17824,-43995,48620,40961,-15969,57359,-22920,83539,-68030,-31834,77955,18463},
        {-106421,-80639,114134,40278,-39880,-82161,-39783,43427,5450,36911,46058,12315,-29441,38989,53158,68900,-55152,20905,33995,11537,-29614,-43630,-107559,-91889,30169,-27974},
        {4607,8216,-6557,-11360,-8523,3947,-18734,3753,-45406,9774,-40459,41446,8196,8606,-43145,6156,4877,-9072,-23434,485,-44443,53166,17143,84870,88071,20969},
        {-13827,7842,29163,17733,7450,-30146,39748,-17036,21353,-18439,26709,-17409,15314,23750,-14051,2560,2987,-22115,-22874,-19881,-7925,50378,39637,-31956,-22431,4430},
        {-117,-52681,-13950,-22058,6771,-197,-45928,27485,-33352,-10290,59685,-53318,31754,-18054,-12313,40751,-16966,22617,10570,-23938,-86386,-71207,-66027,-158531,145883,36813},
        {48722,-51142,28273,19815,-75512,-1729,1892,3761,-29936,-38159,-3734,-13802,8613,-6120,25565,65331,-29339,-21249,-18716,43115,-27180,46240,37141,-24453,-37613,-13270},
        {-57280,-13663,44296,14341,-21964,-35618,-46809,-49743,-40873,-38504,24212,-35591,-40766,-9435,-32285,-41752,23716,4205,-40720,-24371,-38716,-19910,-43333,-189960,-123522,-12840},
        {17627,12116,39367,-28151,-10805,-20676,-3097,22027,3140,-22777,2847,22011,4640,41267,32221,-11449,-6110,-20771,-8632,24195,19096,35030,-18183,45239,89818,41757},
        {-26228,-48569,-68537,31756,26517,-98451,-40881,-20128,30311,35227,12384,1012,-32801,-14119,-6431,-7092,3245,-24445,-28897,6103,-36463,-31983,673,-42679,17042,31505},
        {33603,8510,-22971,-32755,13753,27794,-28973,-9932,48091,-6709,-49509,19447,-30655,9229,8422,-3776,-5713,24732,9040,-4106,40930,-102665,64357,-60044,-94560,-11262},
        {-81590,-1845,11670,20965,132,29063,411,7925,22666,31738,-26552,-2280,1138,-6109,-24736,-41385,-1819,-14671,37491,6402,-2491,44183,-91462,40863,10900,15434},
        {-3559,11451,-54138,-2665,16843,29609,30742,26846,27663,-33420,29679,2126,-39431,-33889,6689,-11259,32866,30011,-16715,3392,-74492,27246,67302,-123714,67783,62127},
        {-54388,-4647,20050,-27959,-22391,-847,59117,50624,20368,-24273,-11603,-11483,-30228,-18593,-55216,10886,41203,24110,-37359,-38801,-1785,-21694,-119695,-109993,128898,45515},
        {-140821,-75499,-120844,-12678,-93764,58904,104830,-1774,-64584,36488,9847,-49980,-56196,-31376,-14193,67033,-35363,-14159,79483,73434,-44639,-54263,-218379,-54849,205754,6868},
        {53404,46375,24378,11637,-8207,11830,18872,22,7402,-50036,-57899,-56392,-13539,-53455,7759,19151,11777,33704,24614,25025,-41164,-75900,121559,-134538,-111285,-10856},
        {116682,94165,-7357,-9578,14965,-70297,-76483,34005,46507,-34205,-26279,26033,43130,2628,8186,-5206,-2851,21828,-31253,-52120,72368,-62867,147172,24846,-46699,5476},
        {-211958,201353,-8185,138289,7786,-26682,42702,13387,23302,26609,31450,-31620,-9705,-16776,-1525,-48892,8071,-11482,13730,-16270,-79268,27993,-74141,-174066,-61916,-17964},
        {-52971,-43017,-56750,11404,3099,-48028,-49384,36153,7520,2322,-6793,164,4085,-32998,-27987,13463,-1154,17030,-35169,-33332,-43827,10179,-50093,69101,-68714,-27067},
        {24376,20691,40346,29192,-20852,71581,-32406,39379,-37778,17316,-22705,-9964,-7927,26198,19594,8643,-12077,-34043,14935,-8267,34629,10314,69988,137417,38669,-11368},
        {5970,-18620,-768,-743,25938,-58415,47,568,16787,17059,-36611,-52256,-1586,40758,42539,23068,-33573,11439,8563,14310,30769,-21196,-50736,-155779,28303,6837},
        {51443,44063,23116,-32718,4453,-71105,-22562,-26474,-39193,30883,-24942,3233,-32197,-3285,-14839,15873,3250,-26275,-8676,-36692,-53929,-51795,26607,102403,55764,34992},
        {54744,40918,52830,2162,-51724,-1225,17151,-6880,-5347,-18665,-26186,-20267,7522,-22874,-35030,17094,5562,-6907,20403,-10698,-59280,-6439,34294,-136098,-88289,13973},
        {-71491,-39601,25104,-7815,-17657,22921,-24010,-41457,-16935,19566,41492,32807,-25002,45889,5189,3849,-9470,-3642,-18404,34048,29052,75942,-68406,63537,121503,30397},
        {125962,109534,20779,2256,44262,83768,-94548,34163,70894,-76480,-21713,21036,64548,8215,-22957,33748,-37128,515,10954,19371,142208,41574,176294,165440,-187752,-19887},
        {25616,-33683,-24836,-52921,53996,13387,14317,13805,-35271,8940,-32934,-20898,-16228,-21747,-22011,-22664,22656,-5725,-35349,32291,59114,-16930,4811,-34385,15422,-53097},
        {156578,100059,-41214,7592,45239,12354,66506,67483,-33232,83927,14472,44247,-14096,39453,-13144,-7969,-27838,-49126,4237,-52202,-19249,-64441,289275,-41018,-288830,-67608},
        {-58406,-49216,-20789,-37384,-29089,3403,18476,-6313,19738,-6610,-33411,33790,5663,15035,-33506,-14972,-12369,-16712,-22107,43362,23294,56360,-66986,112299,18903,311},
        {-29534,-33643,-17386,-14648,-34703,26688,-74531,22804,6777,5059,30840,-6391,-7004,10805,4733,20714,12950,-34007,-37602,-16964,-18284,50127,-39527,-68240,-71381,15159},
        {-13800,17732,43417,48212,28903,55658,5037,-22372,-11555,-14833,23539,22759,-33095,26842,9534,16304,5122,-23508,-36207,16406,-50938,41442,56741,-13121,-28727,19713},
        {-46908,-42580,-23607,-26719,-50006,4055,-32289,6612,17473,-29092,29537,26896,21903,-14360,-3907,-20852,-18149,-22624,-16714,30077,8508,82675,-120354,149253,95452,-35319},
        {66360,37803,15957,58052,-44199,1758,3451,-1859,7382,27401,-12031,929,-33672,-37377,-10572,10700,-41085,7711,17860,-36819,-58783,23354,67115,4271,-116947,12478},
        {-21046,1519,58351,-35639,5592,-14879,58549,-27253,-25768,12074,14816,-4594,-25040,-3209,6284,27356,-22972,14714,29791,22006,67510,7311,-19864,-128351,37800,-19656},
        {97726,58883,-60080,-9176,-35242,-61213,-47934,-20577,-43016,-40602,-10472,-45525,14208,15578,16841,17550,-2352,42777,-40938,-52773,5104,-61459,148477,10329,-191624,-42214},
        {-32246,15734,-47952,25463,4540,77928,-21726,1396,-3697,69607,-7460,-2628,-16908,-39725,-6102,-5143,-17359,-21794,10970,40299,-50038,104320,32755,189935,-123171,-34622},
        {53944,51344,19479,7671,26367,38188,29426,-57221,26092,15340,-21245,22146,22845,2118,-1855,-11676,1311,30457,-41663,-42735,51174,41077,34393,-101330,-24405,-22318},
        {-16995,-8600,34031,563,-30491,26602,-31678,-21381,-18666,-21167,28037,-12721,38860,735,-13201,-29266,-2071,-27123,40271,31922,-4167,82103,36034,158997,78027,16687},
        {-34131,-15112,-22728,28180,7970,-39513,-45455,29811,20727,1540,29749,25848,17046,-16513,18169,-15010,15069,1476,23644,45411,-76163,34268,-69789,-196512,-91186,-17368},
        {95420,58187,62712,75554,40781,42185,-86210,-33925,-27968,-30754,-9074,52263,32137,-24791,-13373,42925,-12038,-14600,-36728,-41931,57237,26345,154061,178324,-101615,-34874},
        {-17445,-16998,-10038,60911,-23561,-301,-31306,-3130,22381,-15616,23120,25164,-11871,-16433,-31408,7573,3560,24330,-12359,3196,65584,-50226,-83029,-260348,-74524,-64419},
        {10892,-29152,-24309,8247,50795,8994,-29882,-3673,10792,-29395,-2551,-19296,-39753,7483,-45906,6958,-22598,3670,-26492,35041,48426,-44167,15603,-129200,51328,-39144},
        {-35239,30071,19416,22820,14075,-19980,15375,-24995,11725,-14493,-11932,-30604,-22916,25235,23797,-3310,24282,38800,17356,-21974,11777,19074,-7017,-131797,-111901,2193},
        {-180782,-76941,-12146,-10472,-65834,-77923,80308,-30788,-46129,-46667,29367,-16349,-56253,-29857,3495,16861,32847,21972,83727,-17420,-20264,-71597,-244514,64379,232650,70292},
        {-133439,103065,-2458,35815,15624,38999,21869,58140,20493,6830,28055,30376,47959,-18445,35883,-6465,-13927,33357,18442,-32166,-59959,85599,-11923,-76553,144788,45143},
        {-36625,-8541,53310,41354,9799,-56766,-21672,-43082,-42519,33316,36053,39432,43133,26558,4928,-27045,17780,13810,20786,3338,9427,-42927,15891,-65030,-39974,24724},
        {2610,-17418,-35269,43210,43769,19084,27877,25256,27904,-32455,52725,27606,-9700,-38708,41173,-25579,-19138,-30509,532,-15974,36215,46049,-14782,224298,22966,-12148},
        {-46512,36218,11894,87057,-43066,-3203,1524,-11649,3680,90224,-5978,-8190,-16681,58469,56023,-38371,-30788,-45487,61324,-45569,-131666,53568,111375,176534,-72216,59291},
        {-5791,17712,14652,4281,-45413,-19766,24662,3000,-10869,-30745,26857,-39987,-2981,-24607,-24824,5637,2750,23981,-2137,14492,9560,-23512,-9305,-147749,-101343,-44632},
        {11426,-19622,-23547,-557,-3218,23873,-36718,13275,-120,-50394,8652,-24595,-4483,20549,-39159,8237,17441,29674,-20484,18895,21298,-28603,-69344,21685,30462,18041},
        {26315,-31688,-36113,-22054,39199,3542,28234,9357,6789,25118,-38527,2787,-34511,15831,-27591,-25764,-36430,-11403,-31505,-8137,-42744,14512,-46071,78165,52901,12323},
        {12911,-14605,10599,-2637,5488,-27247,-28370,-31567,13119,-41475,32604,-55597,-35419,40520,149,46598,-2391,12423,6680,-18056,25587,-71963,-17067,-138477,-96079,-622},
        {39317,15026,-26804,33387,-14790,25756,-30620,-14085,-23449,11604,10413,17534,-12516,-26837,1747,9790,-11326,-898,-17715,-10673,30501,65632,71446,173208,81661,33567},
        {68559,37991,-2668,-13996,-34030,37210,-35779,33211,33834,20837,-28294,24054,30248,30940,44915,-18361,-15458,33857,-23599,19896,-46112,32858,98907,-106018,64857,19887},
        {-3731,15607,-111578,43029,2041,58179,3691,29688,42577,-44499,53604,-29402,-2900,32112,-75857,22793,-31062,21779,-30160,-32440,5870,35550,-32894,82504,-121725,-58547},
        {20561,-3303,-25674,-36284,28293,-43002,6743,12835,-23111,-21329,29497,-19613,-28544,-14406,-22373,25884,5542,-19832,-19594,-22031,25935,-45480,10362,-163454,56892,6850},
        {44747,345,-6988,17574,19358,31620,-35917,-46184,32946,11973,1665,5875,-24396,5890,-32026,-28744,13998,21364,-34349,-32470,18540,-13942,80379,122734,-88102,-23455},
        {9440,17767,27847,-39161,11494,-5316,-28629,-20415,29360,-13321,31012,5086,-6498,-35743,-38131,-49874,-18864,-3233,-32286,-23540,-35326,12518,23765,137966,-53031,-8787},
        {81299,32114,41474,51727,-2279,13112,-8732,42519,4098,-3241,-36453,-12228,-18786,-22957,-37405,-12626,17184,20634,23473,13429,-10576,-88727,142324,16972,-19485,20669},
        {-42375,304,-25454,-14076,-37823,17657,17189,33101,29214,15263,23050,52374,5332,4832,10926,1308,16596,-39882,26370,-4574,-61444,41459,17805,14670,118660,44940},
        {-70638,22767,-7038,-38696,-3585,-24422,-2298,7143,23610,26295,-1760,32338,-30546,-13619,-5824,-28597,-6349,-29850,-12024,36976,28250,78239,-65691,-91233,-54905,-40383},
        {-121969,36151,-41545,-27556,96834,-10467,-55760,8125,-2539,4285,-8328,48246,23790,-12853,23811,-42218,-4022,-11384,31194,48394,-17989,113305,-145357,-209081,146643,20633},
        {-66514,-46624,-60749,-8607,-16344,-27458,34673,-484,-40279,8420,-19520,-20803,-23114,-34960,-997,-33372,-22559,18126,-18019,51168,55640,68811,-143621,-2611,81143,7666},
        {-11140,20220,16086,-18974,76385,23298,42024,-1735,-1321,-24672,25255,5767,24988,8265,-30485,5225,8843,21729,-16472,-5089,-9006,44041,63118,-75004,83205,25303},
        {51612,79340,26988,-7887,-42780,-38975,66560,11419,-9865,45562,17449,-3598,18286,-46196,17396,15066,21309,-23415,16743,8087,32444,-38434,70983,73126,-77562,-18036},
        {238,1516,-6408,-9358,681,5375,-25194,-25683,-13562,-23067,-38576,-35804,22612,14429,21607,-19191,-18792,19972,-28691,43230,47183,-17561,-34991,85826,-5930,-8370},
        {38542,24486,18124,-46269,28694,5204,6138,9377,17165,-34937,41851,40826,-32184,8839,-26333,5986,19245,27030,22476,7421,30910,-60691,63968,-120572,-74484,21428},
        {44880,24648,51112,-8075,-27732,-2318,-6529,18157,-29786,13776,35380,-31057,-44739,20716,-26746,720,-28264,-29896,32176,-44196,42801,-10603,-25303,-46989,90924,-1082},
        {75571,28424,-12706,46694,-46073,31879,-29810,35867,24587,23903,30650,19374,28521,3535,-24339,-18331,8210,36467,-7434,16556,-57269,-24262,117357,-3281,39958,6091},
        {-52956,50006,-19662,27129,20997,-32735,-6998,71295,-40262,-26122,-25883,-12699,-10534,-2111,-29124,-41830,-32701,2149,40129,2739,43226,-32988,-14130,33523,53920,25187},
        {-431,-26482,-28008,-21164,-50410,12885,14331,26104,9400,-9671,35726,-46002,31073,19052,41595,27142,33161,-1903,27306,20372,-76530,43751,48781,22737,18394,23028},
        {-75622,-14668,-14924,-27352,-38041,2529,-9992,-40232,43203,41060,-32766,-61326,-18339,-6693,3909,45258,2819,-18647,45681,33874,-5264,30035,-91863,19185,110875,-7328},
        {-59789,5914,46541,28179,-22128,-24635,-7781,34488,-13470,6630,-19657,11548,33536,-10101,27304,22438,23077,12248,-28398,33778,-25229,-10377,-49263,-92580,-36665,18520},
        {81171,-37954,-112833,-55990,20427,43068,24524,30860,-59181,-40716,12766,27085,-43163,-63926,21256,19115,-13342,-18915,-14557,-50995,1844,45303,38454,-50163,-106690,-57376},
        {35576,32115,9467,8005,21770,-18298,-66620,-36855,33702,5783,27815,-8968,-41242,4989,28141,3849,5790,-31071,454,10716,52038,-14653,70655,6936,-104714,-34050},
        {6877,27472,17472,47821,-14435,12759,-21391,-27784,-30196,24414,27979,34969,41268,-10520,-37419,-1795,1509,-5596,-5274,6367,-23531,44099,-36690,137503,61184,54548},
        {-69768,-58612,-28768,10495,14856,33451,-69317,-14486,6064,-31621,-32441,-8086,20401,-23708,10898,-3064,8927,40252,-26292,42081,7404,-22871,-64256,-135252,62,-31559},
        {80239,56026,-39800,-33316,-30230,-5890,27646,-2640,-44291,-14345,5101,-26196,7035,-3328,-4821,-39935,-40491,-34295,-45735,28123,-56794,-38829,155354,-14547,-138634,-32891},
        {-6533,24043,632,966,-35717,-54764,26432,50737,-20327,9233,-1692,53106,-45091,44430,68428,-20480,25420,-859,-2364,-36808,-70466,45694,20658,65644,87622,60420},
        {74835,-45129,-37584,-18531,-7412,-36833,-18094,43399,-58204,-3773,844,-13903,-1374,-10881,-58163,16035,37106,-18159,8418,-39492,-8229,7901,-9722,292420,168416,-42705},
        {-3715,-75924,-82155,5931,-60859,-85409,-81654,54008,25600,-49306,1097,-53975,-23909,45753,7345,-44897,-14997,11164,43944,-1139,-63919,-41335,-107982,-82247,93694,12419},
        {-35895,-7103,26040,-34495,-7115,23116,-30643,16026,24672,35793,32184,47739,-3054,-26044,23845,21982,3038,7394,40835,25735,-44861,55394,7924,20783,108255,20953},
        {18048,72247,-107639,-90005,90592,-61274,-45745,21402,-38202,8934,-68531,-29869,106802,30617,3244,47204,-23045,13103,-44089,12829,-117466,18703,79436,-62813,64539,45296},
        {-34727,-31355,-3389,-72063,41829,47460,-11229,260,-11305,-32377,22682,27664,-8261,-31256,18444,7602,-18093,40849,-34486,37826,36616,-56358,-89569,-128326,-100777,-70723},
        {30992,13126,18826,28366,18682,17059,-3378,-18649,-10431,-2132,28372,-33254,-5565,-2974,7731,36340,-1364,-1518,10684,27029,25095,-87179,3860,40071,-118483,-14689},
        {767,27679,-2144,25641,49635,-15137,59307,31572,3,43527,47319,32064,17595,-18189,47688,-6537,28029,22836,24577,-18130,-42824,33015,82220,49500,-62418,8589},
        {-30452,-3854,18435,-16253,-43474,3839,-36483,-8752,852,-21452,43570,-25874,15754,-15972,-14327,33106,-33313,7511,-22430,41772,22873,58241,-110510,18170,112354,49029},
        {-55847,-33086,-32355,-22294,-4454,-10786,-62697,5552,854,-43560,-38634,-29769,9032,-19695,-48960,-4721,-16737,32195,-17198,29070,119,65184,-111544,-150828,49776,-11040},
        {-44176,-42078,250,36537,-1979,20734,1892,-9047,35961,-30583,-10391,6043,-30647,-7502,16152,18139,-2796,5483,-6391,48109,-48268,-47888,-24059,114884,-45079,-822},
        {15051,-18595,22067,-34903,-15228,-9390,13724,32700,24711,-13484,-3143,14141,22573,25159,-29600,-19135,-35798,-26930,-22907,13223,33005,51288,56578,-11345,-33358,-22061},
        {-87633,-60345,-28216,-33387,-7813,6808,51347,20938,-26104,-26062,25444,3184,28467,-1358,18845,-43789,-18176,29281,-22265,46046,-50802,-30921,-132715,-143230,-12596,-8842},
        {-39226,-12316,-15087,34692,-26623,11614,64273,-15201,21320,-34393,20870,-16470,-16674,-15252,-13750,4803,33360,-5902,25492,-23462,-32678,-35121,-43160,88233,81615,48647},
        {20089,-2684,-6589,-66920,7251,3957,-4501,-10776,-30520,35714,-33773,2991,874,34844,-8660,-3408,-37968,6213,-20499,-30371,2124,148720,11846,-71417,-29739,-28498},
        {49417,29470,33537,-17167,119,-34487,53061,55787,48173,3248,38642,-1442,-1087,27408,33800,19033,-7630,-16386,6107,3901,-19197,-13084,36330,130381,40873,-10732},
        {28812,-36403,-57861,30445,21480,16482,-27045,-22321,9631,-28036,-21821,-26685,38097,3669,2551,-3144,-26881,32633,16832,503,-52517,20760,-26900,-14507,-51324,15269},
        {85644,62017,27285,-8246,-50283,-67154,-66898,56116,65596,48185,37534,-12655,47839,50947,34043,3981,-29371,-19460,22772,-58494,-21495,22842,94910,69172,-154286,-29546},
        {-21582,-10035,-24359,-31123,51516,12052,26142,-10539,-10461,24792,-52469,-46133,-17035,-21510,-47256,-16472,-1060,4605,-15567,24349,-11574,50285,-6628,44579,118625,40412},
        {37738,44447,35350,63452,12780,-7746,-55697,-3097,49357,26011,1078,38732,3482,2734,24564,33508,38307,13413,46302,-63762,-62207,-63661,92923,230095,-104054,21369},
        {18595,5528,-12329,17455,-27834,-23970,-14375,-11926,26526,29817,-8227,-20643,-10023,30183,-25456,29314,27069,-24212,2456,12221,-36173,-4332,-2650,11302,55669,12820},
        {-107837,-81076,4565,3862,-30581,-89474,-35242,-49933,-36134,-29624,-43141,67148,-34713,-6901,-35242,10385,16729,-26039,-26072,10308,-65989,14562,-164192,-85349,42185,28216},
        {37004,18189,21089,-37960,10791,4706,2833,16624,24629,20095,12892,-13,-1552,21884,-22247,-27585,-38493,10149,-4003,-48778,48742,41239,35964,-151909,-731,7141},
        {-58992,-255,16600,-34454,358,21636,-63098,47715,-30134,-4272,27701,-42445,-22651,9623,-2578,-24455,29089,-15169,20034,6959,-52170,37721,-33285,-92142,-84637,-6695},
        {4048,-5653,2598,50338,15477,-2182,-46025,-35145,23682,-1562,24324,-41198,-25871,-40410,-5788,29605,9488,-3424,29885,31116,5247,7558,63956,-83490,-106008,-35986},
        {-63243,-61550,-70187,-52152,30676,26212,15901,-13741,-11891,-39640,16828,22054,-6431,33483,-14008,-7746,31530,24478,21126,-30458,60084,33528,-183210,16474,62432,10670},
        {12287,3332,-21108,-46656,29850,-37446,37286,49503,-38641,29627,39781,5846,32061,17763,4678,-6435,28873,-13451,21312,36736,-34517,-14887,42937,-111522,-24355,-36917},
        {18690,32656,-227,-54873,13650,-24058,-32212,-50353,-21186,37706,18748,-36626,-17006,29388,-9015,-10881,-40187,32440,-435,22041,48802,15112,-34597,-209507,-55920,-52743},
        {-16932,23381,27441,-23444,30798,59371,10694,-25203,-12519,-13229,-6517,-28942,-39401,-19116,-30238,-6553,-17945,31139,25378,10785,25683,15580,720,115806,-18302,1801},
        {49249,39859,18403,15399,4250,-31337,59898,-23197,-27588,-8923,45532,28430,10326,-1910,25666,-19285,-8040,-28700,-7104,-20977,96056,39587,74011,219841,70165,14615},
        {-63292,21292,30185,7310,-21273,58311,-11661,32265,-34525,-5130,-21424,51637,-11001,10004,-8377,-14500,-10627,27408,-20325,-8285,20678,15579,-33271,221168,-77765,23269},
        {-56101,-60342,-40476,-20401,-40954,46082,65980,14423,-46726,-55300,15169,19956,15876,-36496,-487,-47514,-23953,-11296,45323,-36037,1639,-67795,-145565,-53634,120275,-19892},
        {56682,22092,-219,2006,28706,43839,-6411,-20212,-42663,-40499,-16255,43838,41653,18686,-14318,31248,30166,18736,-39737,-19442,44260,65040,70528,-21281,-44698,-13350},
        {-17359,-5866,-19767,-13217,14792,-8700,-41325,15899,-32720,-26643,-28188,-37370,34821,34773,-33343,-18700,29893,35839,-27553,33355,4233,-59277,-87182,-142949,-45181,-40071},
        {18494,-17620,25954,-5741,17563,-28052,-288,-17956,7139,2712,-30406,11395,1569,-7213,43683,-4258,-9635,-12742,-2675,27747,4861,111765,-47940,20670,117851,-2848},
        {24044,14685,20492,3281,62066,-46508,-1740,-10707,-34400,-28738,27986,28301,-31027,-5670,-31123,-18916,8699,23828,42460,26336,-2421,27260,-24140,-59052,117104,55371},
        {-54758,-21360,10043,-49954,-31072,15922,51253,-22098,29031,38097,-27369,-7423,-16024,17765,-10152,-23998,-14147,24527,25932,33542,-49990,64232,-33415,52041,29753,43372},
        {50916,23184,-12213,-2883,-456,-14429,-43941,37286,15168,3343,-46219,25344,41839,-12772,7551,16213,33333,34346,17781,-30819,-5136,-51675,84577,15963,-63765,-3713},
        {-23430,-15316,-3788,20205,17618,55791,20997,-9975,40459,-11479,-7488,11722,5868,-296,-28882,5582,3952,-18943,-31778,6947,17159,-50716,-64541,-108407,-48304,-9804},
        {19640,10442,-60487,41696,45885,70317,-31926,-56006,-22696,-53594,28572,61817,-13463,-60452,-18116,64586,24605,-20384,-45137,1709,-46274,-26341,67908,-73725,34942,39444},
        {36248,23541,18476,23593,9054,-16376,55565,34792,26639,-25329,-39245,53597,38161,5392,10795,56450,3113,-21,-19396,-42365,-73740,-30447,149037,61673,-136461,-27528},
        {-19801,9177,40494,-40842,49984,31416,-6917,-182,-6554,-17593,-23367,-16015,14156,-41182,-38634,-18912,-45398,18795,-17883,-388,35918,-102528,-35420,-1711,36823,20344},
        {-19256,14703,8401,8944,47071,-5562,79961,-29401,-12886,31261,52232,-6466,-3641,14670,40696,28873,9715,11864,30187,20452,-14087,53606,76618,114210,-1298,25097},
        {71846,28451,-1584,7811,42950,11610,-28442,22291,-5232,35001,-11278,6828,16110,-42427,23859,-25817,36607,-4143,-40010,-22061,-10372,-145,68235,144277,-37785,-19130},
        {-15295,-31457,11093,-32614,-14929,-67473,15247,-41281,-18033,40244,-33325,18895,38030,-24236,51188,3076,-32129,-16556,-21912,23730,32533,-31296,4799,-83748,125406,16875},
        {-96542,-63555,-52087,-85598,-21883,-5676,54593,-2940,-53101,-64763,3267,-11510,-4559,12992,-10850,-40187,5125,-42887,34016,49087,44920,-84566,-197792,-169812,80531,13921},
        {-50747,57586,294,-6510,61167,117617,1182,81837,-23723,-57905,38976,4885,11262,533,-44861,-57151,41163,22134,-24259,-15375,-4306,17093,-4004,60675,-132242,-37126},
        {21768,64686,21428,72746,-20261,-66725,-79317,56087,68398,66300,6560,47921,3853,48983,42713,19653,33574,21804,-34580,-66117,-90296,49573,140655,118162,-121766,-19067},
        {-27608,-31937,-15070,-22461,-33415,7929,11458,33834,1704,-7088,-11795,-5569,30695,41032,-306,-24084,11721,-18330,11097,34015,5583,-4531,-83397,-41660,22052,-38030},
        {65764,53044,46348,33902,33988,26689,41458,77876,11149,-34011,24702,65474,23133,-71956,-35151,-7224,44632,-17796,-1626,-21831,-61734,-52959,164187,348790,-89664,36835},
        {22112,-13029,-9281,54443,403,9723,-6988,-27794,-2741,10036,29036,-50891,-10297,-38181,-14921,-40740,-39506,6868,-21526,-12041,-5278,7945,56364,-120380,-715,-18572},
        {-17962,-40904,18110,-71724,8060,43970,12900,12379,-7856,4498,-32978,19900,-4282,30811,-24289,28996,29204,32457,37284,20801,30514,32990,-94150,-81669,-41246,-63159},
        {-41671,-1105,3423,-29245,13041,15988,20668,3312,-31713,30828,-533,12461,21968,-16004,26396,-29846,27159,-2423,-23426,-12979,46094,27723,-93628,-162979,-88254,-48711},
        {-296187,191194,-24099,109670,-42951,-10106,58579,-56152,-75422,50050,-88427,-5154,-77122,-39697,62870,75001,20100,34113,-23377,-34901,-82984,22109,-210113,41927,301168,71935},
        {32593,2066,-39152,-19075,-43741,-50238,-24899,11877,-31513,-28426,44378,26177,10194,-5974,-24135,65075,8065,-23857,-41140,-19808,-59696,-43459,-20689,-179767,77893,-18029},
        {101,-23508,-15544,-3173,-32469,41805,-49846,-1618,32052,-11547,-25180,-1446,-46823,13137,-28511,22383,-12240,1565,12480,-14350,15268,-32718,6649,-63204,-66289,13987},
        {-5834,6195,17858,-23287,37862,-10068,-478,-15582,-7690,41467,-3377,-10479,4794,15832,28918,-1373,19571,-31313,-33370,-17406,-29468,4418,58733,226748,35380,11886},
        {38211,24604,23951,12135,16281,-12993,-17830,-26928,16007,-33272,4871,-2078,3896,7399,25690,-26385,21181,-10320,5250,12935,-19070,-45959,72273,45740,69747,50709},
        {-139992,26365,108345,-12010,-62183,-12276,61176,-47451,-53067,-49652,8900,-5465,-14746,-33586,21009,-28641,-4223,36,-19225,62448,-19115,-18254,-148084,23151,161264,31864},
        {-97095,64658,-7710,-17660,112047,-15977,1854,-41786,-6242,15727,76644,-34703,19705,4411,-65469,-46426,3699,-1221,-33737,-27120,-23463,84840,-25738,50913,36878,-9330},
        {140418,89930,86571,7246,-78522,-2276,-23898,12353,-20329,35516,25264,17756,19652,10223,12723,47969,-57090,29997,9245,-48496,-81493,-5952,228620,-36408,-169580,-23681},
        {-49236,-18885,23727,28102,2200,-19392,28671,-33975,-36006,13196,39686,36080,14728,-7351,13345,11467,32560,-26147,-5848,-10411,62321,7314,-47416,93722,-107283,-50899},
        {8669,4182,-24677,-1555,19084,79602,8549,46937,43587,-44338,-1011,40523,-4778,20275,28797,-1807,13048,-23597,-21109,16973,9917,26582,86799,-19907,-95967,-31992},
        {-3675,769,-49729,12890,32496,3488,-20814,-13047,-28533,30913,17084,36919,-31855,28492,-24859,33839,31876,-17123,-15705,-13075,54020,26279,-46299,50346,72802,-2657},
        {396,4127,-61175,7220,29429,-52729,37912,69194,23078,-12087,32646,33300,46675,-2285,5292,-1673,5775,-24181,29787,20432,-37714,-37022,7461,39728,-32140,-13208},
        {-64371,-57353,-59723,-37539,-34107,10518,50722,9966,-8638,-26914,-9430,-24766,-9745,-27701,12322,4660,-27203,-31231,16048,-29921,43243,97818,-134152,134958,88768,-18349},
        {11973,18498,40387,-13185,55529,-12543,59351,-42258,-20932,27200,-12645,12816,27131,5752,37145,12251,-15567,11119,28063,4820,53683,18219,38416,-19206,-81653,-26812},
        {5108,-14285,-16887,-40215,6591,-2115,43271,25999,32947,-25537,31542,-13781,14389,9975,18583,-42764,-22000,30293,-7532,28734,-37306,-83742,-10218,-16496,67028,-2110},
        {33656,62512,-31176,16455,-257,28351,59317,-6301,28784,-31943,-33823,-10217,19802,10695,-2184,-16136,44263,14207,-5885,12689,51732,19272,76675,144142,22373,43020},
        {41383,16016,70681,29148,59872,44797,44011,15755,-15065,57463,-5455,-11481,-44769,38679,-31025,-63680,-28974,-26126,34833,-47662,-72787,-79956,154059,66155,-79583,969},
        {7238,18838,75346,40281,-38431,100944,1523,11730,42331,-34778,-22854,-7695,20916,-558,-7874,-25767,11063,-12594,37140,-15073,54906,-13023,-32181,-68371,-55681,25127},
        {-13493,-44477,-18442,-21928,-4005,21183,-51304,19401,17896,30864,-19719,-19289,35762,8374,18121,-32360,31714,31458,20764,38314,-241,-24877,-16447,-111972,76086,22775},
        {-41764,-39428,-66741,-43170,11420,-94108,-40220,-5598,33373,-37052,58773,-61011,-36847,63181,-5638,56981,17719,20689,-32052,38853,-86441,-47532,-152204,-141812,132592,59339},
        {-26417,-35169,-8331,-23887,-5612,18410,-51248,-34206,-3422,24713,4007,-46924,-29387,31563,27435,-43177,-31609,7901,-17986,-48473,47145,-39863,-109236,-90171,134383,11200},
        {25036,33760,40820,27357,-53631,-4340,22933,19065,33948,25974,-32640,-29123,23757,-5907,-11170,45122,10693,-24485,-13765,44894,-12194,17900,12892,152302,-118297,-45423},
        {18886,43378,38994,-2895,-2895,-10510,39632,-4125,-29646,-17754,54920,52958,-10463,-24119,935,-5371,-13277,-19920,-29730,-10161,77759,-44106,11901,163059,-46549,-52657},
        {100195,-50350,19257,21627,58345,17319,-54925,31868,39950,-27846,20292,12343,36111,7191,38987,3888,-8060,-19589,16135,-26533,18956,-18347,90754,67209,-30599,18440},
        {84135,59157,-20371,3872,-26968,-59825,-59538,-28485,24074,-20387,33772,43035,-27327,-36334,42840,-2819,21869,-21702,-41956,2079,24654,34334,80919,31435,-132122,-42902},
        {-6863,-101,-69138,-45433,34683,-27360,42061,53149,38907,8048,14303,-15098,16628,8267,-24903,13276,34786,28906,-28648,11502,-47687,-7149,-26852,-20436,-6784,19430},
        {-31794,-29257,-30652,-19529,-29948,42114,-55953,8919,6635,17335,17239,30587,-30305,-17095,-12491,-20253,-2904,14719,9261,-39432,-3650,71482,-9226,-109689,73032,-15549},
        {139419,-6681,-116504,-78576,-10810,97344,55146,47826,44292,-58105,61950,47402,-96130,-48061,-65042,19372,-78104,-60617,-33144,-2711,18036,68799,72893,153667,-5252,38511},
        {17445,-26398,-16148,-36646,-12874,-51026,-3695,-48478,-4332,-43154,9291,39651,-3386,37335,-16458,-13376,-21595,-18844,-25044,28001,46708,49171,-57750,84235,70025,-33666},
        {-93268,5693,64156,-90929,24683,-105172,50306,-35046,-57883,50162,-47113,2189,-4600,30512,-30009,-16115,1528,-8442,-20363,-22927,-21435,-22690,-132316,-31438,96264,15250},
        {-57475,-19019,47945,4547,1461,22799,-9252,9680,9482,-10385,18204,-43073,-40474,-8264,-8159,-17081,1852,-8273,35458,-7784,841,23707,-61070,-153889,-41405,23571},
        {79582,24149,28717,-43629,-25050,-59884,90991,46183,-11619,44936,-12478,5604,-955,11500,9550,22261,-17874,-31166,-15172,-25116,79455,-33761,55133,240305,155748,2066},
        {-6120,12005,29285,-2313,-7135,19280,-3941,-4650,-15080,-5439,34238,15297,-30392,23633,26355,-24926,-8685,-31747,44877,-21898,11045,8411,-45973,101880,93945,31883},
        {170919,67894,-61613,19312,-179744,136301,-13057,2456,11979,-60063,-57593,-59000,-34807,60122,61516,-61683,-26712,-8359,40788,-59730,-27143,-21489,242805,-43373,-222759,-35031},
        {-79378,49589,-23470,-5594,6061,15470,-37659,-35034,29904,-25646,15311,33325,-30523,32686,4240,18413,7933,-20408,3373,-7491,-54640,38450,-34969,-105484,-50659,-6669},
        {2420,-14308,-8888,34693,20333,40968,30878,23314,-8950,-3983,914,-13411,-26118,-5451,-39170,-10036,36397,-24067,-9004,-40460,20373,-16464,-28543,69125,99954,14990},
        {46964,34886,14292,44738,-9069,13896,-12753,-3199,21773,42029,-10375,-7928,33930,-29275,1736,18242,26735,3818,21764,-37885,-51458,40657,89869,-12561,-91114,6120},
        {-48296,-12252,-10573,23900,-17585,43933,19606,5478,956,43363,7299,-31776,7317,25893,-28012,-9253,15820,-18797,3462,-12229,-1767,12900,-17770,103889,-41731,14760},
        {-5613,-56844,9362,-29484,8520,60375,68850,13362,18441,-12695,49366,-17810,-55271,14315,-34720,21928,-9703,-23678,-9960,-37289,-117151,-53361,-1709,57351,20788,-12443},
        {-4534,21230,-37509,17826,9111,-51545,-55171,-27766,19695,-40702,-17671,-9870,-34891,12702,-16870,-36485,-2291,25601,-28219,-31458,-36418,-26734,-12568,-17381,-95157,-23415},
        {-57069,-1694,19533,7153,14929,55386,11017,-13694,24236,48412,38330,-21056,-40559,30250,22559,28934,-13655,-12740,-32406,-19161,24627,11775,-41805,212504,-105912,-6415},
        {-57705,-31117,-10912,-17072,-43762,-11326,-39771,30569,33,42259,-25226,57278,62179,78505,58320,-36371,-29967,26165,-3455,-40880,46148,-32114,-100127,-109570,111362,13838},
        {79686,17984,18737,65861,19413,7383,-48463,-19435,29406,-23427,43122,2058,-41775,10181,42859,-1733,-8042,-7380,-16856,-43511,21011,-30365,118998,294757,63960,53067},
        {-32460,5009,59369,-36203,-24316,45133,56989,-63426,17821,54414,37183,8501,22501,-8189,24718,-42970,-20875,-9999,39674,-8600,71818,69348,33590,49687,74926,-9046},
        {17637,37591,42202,44547,4267,-46771,37304,-7843,-28495,-13818,29539,-2820,27074,20755,-21003,30731,-32435,-22800,-30306,-50701,62166,-34792,-27345,94252,-81645,9370},
        {-5925,34076,21319,21408,-55056,46267,-31695,50541,-9265,26760,18692,22340,22796,-23105,-15159,-44427,38080,-17013,-17782,-15275,-23353,14924,1725,102000,-93648,-49038},
        {-76239,88130,1706,-10761,17029,72095,-7943,1238,-14860,-9607,-25045,-50421,-72599,-7770,-63842,-76542,32850,-23991,2901,-2914,29489,-133825,2275,31157,-105633,18997},
        {-8015,25436,11422,11978,-27509,-58538,-7317,15576,41848,-29744,-48707,-43155,-37672,-26721,-7874,7495,27979,-26364,34090,32267,-26397,-22185,-6747,-45196,63847,43475},
};

const long long w1_stage1[][512] = {
        {-7483,14434,24427,22062,58015,-24692,65903,-34583,15640,21095,-14534,1090,-1133,-71328,-8997,30495,-333,56301,42386,12270,13976,-21372,-29773,238,-5008,33101,-36564,992,7616,-10415,41459,-4470,15342,9587,10670,-27553,28424,-551,-52643,-14920,-7025,-42244,24042,-11281,-38337,-11576,24679,-6602,22325,28708,40835,9536,-51540,36044,29763,-25479,-22433,-13152,10314,-19970,-6487,-44300,44867,-32230,-26324,30788,2590,-58120,35294,50612,-15212,-23561,4475,34701,7163,-16203,-54551,50024,-6990,-34494,52289,-29428,37931,-55892,-65646,-40709,-8860,-16564,-19699,20507,-8416,28967,7789,-99131,4299,19725,-9142,11672,12118,25208,-65261,-20610,31634,-17334,-27746,-3316,9540,-24094,18198,-43201,-4931,-2253,-10493,22254,5181,16524,9429,3609,3825,33947,10428,684,-2831,-78922,51162,21498,396,-23621,10652,29030,17333,18737,-23981,-22603,-2759,318,16711,-5289,11376,8538,-20959,-52985,-8260,21270,21727,-23269,-65958,8478,29534,22704,-20643,13444,-15538,38760,-1712,-18884,-34119,-7256,41283,7886,19604,18678,14753,30608,-28621,85385,20665,-43142,14247,4459,-41451,20721,2255,-7782,-24314,-15138,-9804,4739,-61505,8661,-7132,-66477,5274,-11117,-9226,-26563,-57298,3931,-22899,-22203,2093,-15042,37370,48339,48876,10492,32190,6499,11356,-54320,-6694,2418,26555,-46677,-51375,34042,-38931,19786,20846,27069,-7810,12082,15716,4947,24926,-26940,-7415,-7388,14492,-30772,3082,-24856,15649,15513,11168,12810,-26541,27597,46245,34540,30661,28072,-20339,-50824,-69375,2842,31841,-9515,5714,24293,4129,-9684,15726,25476,1181,6133,9656,96954,-11002,22380,-5196,54884,-7322,58295,-371,9063,3764,-22648,-23350,42197,11943,42485,-5044,-37636,12319,-11288,8252,5875,15336,-54992,-1499,-4503,-22304,21844,-16929,1889,-46787,-49529,-1091,-43934,-22468,-14219,-20704,21136,9227,3721,-16697,-45380,-2998,12151,-41432,10421,-28589,-8693,37995,-12957,27811,-9006,-6687,3315,6221,-21516,-24512,-53332,-2307,8076,-14911,-15558,34005,-25616,-39254,-7549,-16594,22791,-43270,14244,-22956,-5261,11803,-29451,16775,-9668,5532,30915,-20066,5593,6128,8919,-29036,-18428,-2213,7948,-1166,6636,1605,-306,48239,5735,16976,21047,-1168,45829,2417,6613,-8287,3211,16168,20955,37515,-3061,-9247,51907,-10936,-7250,14554,-2006,28327,9248,-34319,-11835,13317,-2303,29600,6475,-23679,6061,7527,-8389,-2852,17092,-14208,30638,-39898,47658,-200,26523,-12236,39662,21739,-57921,-20343,9573,-17097,-35970,18903,-21367,34487,-35149,14931,-25410,-16032,-30412,22543,38808,47849,1264,13826,-4788,-942,-614,13798,897,-11608,-11596,14566,38197,-44637,6795,6922,14300,-18,-6658,-73832,25925,15476,36527,-4164,-26367,-7905,25111,26765,-32465,-2899,15581,-22023,19326,-20844,-15085,5285,-4140,-43588,7035,8430,27493,29064,8734,-22032,11308,55358,-16795,-32854,-22245,-3685,-2700,6286,46,-57,-4579,-15696,15745,24950,-20993,-4423,-17444,-38940,18992,29240,-12752,9408,8769,-59244,3501,5567,31798,42708,48161,-2255,-25088,-20790,46757,2752,25039,-16969,-8851,757,-6009,-23288,-5030,-10847,-29377,-23055,7378,23690,44283,17765,-1641,-26632,-29304,6981,-3556,26455,-77737,-9803,39931,34484,-33606,-6184,13022,32888,-23617,6205,2862,-41722,5232,-5392,50601,-48697,19567,-9589,2803,-20996,1886},
        {766,8782,4225,-1458,-635,-2078,3314,-10731,3735,5101,6490,3380,12920,210,-4878,10903,9054,4380,-1401,-4605,520,-2844,12446,1225,-4643,-1627,-11422,-1205,-4098,-4019,-8125,-1779,-5677,-4119,-7827,11547,-3860,9607,10450,-7646,5547,-9871,-7465,-9343,-6421,2663,10858,5504,-7312,-3049,4449,-2950,-4404,-23866,-8533,3739,7222,7872,13333,-6030,-809,-10026,-1867,11533,-10825,824,-5280,-11330,-13976,-13085,-1242,9802,-1093,-11900,-837,10302,12519,-94,9190,4303,-11732,1783,10526,-96,-11463,-8116,-6356,-6608,2475,-4862,-8332,-8705,1764,-118,-11493,5549,6331,4496,6782,1743,-2033,-2806,1783,-12396,-6066,5346,2933,-3534,2677,1833,4205,-1973,-11496,-1168,-489,6313,1581,-5066,-14609,-4512,582,-10329,2534,-1231,-9195,468,-10647,-5233,-7516,12786,3672,-963,-2040,-2287,-1547,21406,2135,5638,1154,-4606,7896,1098,-4164,9979,-5419,-10496,-8311,-302,686,7613,3691,11029,-8782,-2206,38,-3387,5448,6173,7621,-2670,-972,7225,-5202,10637,-150,-19062,7065,6675,-5357,3734,-2739,-276,-1876,9542,77,2707,1418,-2413,-2489,3007,-9399,629,1941,-4908,717,-7742,-3113,-9558,197,8363,-7471,1569,-1390,-7772,8126,-16790,1545,-13516,-4303,-3349,5218,428,5314,960,8161,1145,-7330,7328,13836,-267,6364,8530,9872,-122,-2837,-8006,4613,-9690,5029,3393,-7028,-7176,-1101,-7816,6045,398,-1397,1866,7761,4128,-3632,937,3333,-7164,6922,7796,8122,79,-13008,-12626,-7017,-7063,5648,5165,1864,-2734,-3705,7798,-4554,1480,4727,16438,-11959,-4934,8126,-12843,4143,10328,4950,1340,-83,-10933,3164,14015,3518,-1748,-5176,10781,1407,-8192,9010,4439,3247,-10973,498,3871,5215,-17688,5175,10079,8817,11667,-12158,-4002,10280,-8434,-288,-3427,-12662,-19466,8406,-3874,-156,7206,-9616,2620,6880,630,-1317,3140,-4249,1415,-3417,2491,-14246,-6858,-552,-1041,-3562,-7021,-10304,4615,-8511,-9773,4243,-1977,-3547,5807,-13115,10755,6541,101,8938,-1705,3899,7231,7642,8848,6080,3375,-5302,1281,8087,-4704,3429,-10026,-11683,7562,7890,79,925,-118,10281,4793,-8411,10117,3151,6749,-15383,-11445,3018,22353,11019,-11987,3204,15873,-9668,-6114,5310,98,-1991,-419,7238,-4728,3164,5934,-3157,-3042,13436,-4412,-1470,14374,2936,-4217,-13817,3888,-223,16891,1012,3610,5951,6479,-8559,1810,-9314,-7658,-8338,7258,1578,-9997,10672,-8111,69,16289,13478,7582,-6110,21,-6747,6697,-3568,-8589,14989,-2072,-7653,5883,-3870,9964,-2492,-9319,-5723,14323,-15129,1244,-994,-655,-6297,-6733,5907,343,-3717,620,-2250,9536,5608,-1531,-4971,1231,12208,-5614,5841,2611,9720,1155,12968,-4516,3318,8340,-2519,2440,5957,-629,-8925,-8839,463,9756,7987,8777,-1624,-16426,-3445,757,-1469,201,-32,-3916,213,1524,9604,-14306,10064,-6242,-6622,-3081,6479,2072,-9623,-6607,4752,5047,6493,-4681,3671,-4667,-2712,17619,-4609,-585,-12065,206,9058,-3142,1783,5843,-18380,7335,199,-3334,12926,7119,-7515,5663,5862,8639,-3560,504,-2300,-7743,9979,-3251,8615,-672,-3205,11481,1045,-3086,-11053,-12010,17575,7635,13210,9087},
        {4794,-4258,5022,2949,3660,3530,-133,-2985,-7588,-5597,5272,2208,7483,3521,-2833,5127,-1101,-45,-4137,2406,632,3356,8317,10529,-4148,-3056,4825,-4281,8506,-4749,-332,-719,1918,-766,-69,7756,762,-6997,6102,-4895,509,6986,6772,-1421,6320,-2348,3211,5275,-1090,-5676,-5072,3418,2639,-4779,837,4209,6635,-2081,-1205,3571,6624,21320,-634,-1962,-400,-1165,7289,2379,-798,2720,5188,7176,6727,-3635,-7005,-10589,108,-3968,-2731,-2419,53,272,-1000,-3360,-8045,-3868,-1491,1255,5792,6998,3990,-3713,-8197,11454,-4384,4449,-5723,-5045,7674,-2272,978,6249,5359,-1114,-313,-6008,6654,8464,7999,-603,-4648,-4105,277,3090,-5572,178,-5540,2528,5427,4310,3208,-20,1700,5297,11160,-4969,9268,8253,5876,-11924,-11723,-985,937,-2088,211,3553,-3324,2755,6126,-8659,6159,-4633,2238,-405,5800,-9931,-7144,5018,-8301,-4755,-4164,-3093,6433,-1158,7266,7671,8694,9443,-5795,-1082,1918,11779,-770,-2927,-4982,2905,-3028,-3322,-3762,-4536,-1783,916,4783,-3707,-3355,7052,4267,-2191,-2158,9837,6619,1609,3386,-398,-2222,-5801,1685,-5147,-4210,7796,-7276,-111,-2100,3616,-5397,6663,-4379,666,-7834,7451,2953,1007,-450,2226,8064,960,-2339,-8867,-7069,-6521,4114,-127,662,4979,-6185,-2381,3538,6324,3934,2109,-6868,-3062,4493,-1617,-5057,2656,-6640,6585,-4896,2515,-3909,2305,-7724,1503,1653,-5689,-1993,-1237,-2998,44,5278,7043,7317,3406,12249,4968,1426,-11415,4749,5742,233,-4051,5900,6818,-4069,10053,2668,3459,2411,-6635,5761,-7347,-4925,5209,5848,4545,-4271,4376,-2729,-2653,7215,-6096,-1336,7581,-1459,-4313,6555,9195,4411,9985,24,9322,2254,1061,5485,5343,-1913,413,8900,8442,-8641,-2098,-8246,-5171,-5464,-222,-6859,5802,-925,767,-5248,2601,8109,-2499,-284,4851,-947,7157,1872,14930,-6609,-3110,5317,-5978,-6854,-5190,1220,-10821,5921,454,-2316,7323,-6404,-4420,-5297,5376,-3481,-1329,-463,2765,9636,-3152,2115,721,4125,8812,2618,325,4613,-3616,9529,-7474,-7328,7326,-465,-4797,-7950,-1503,-6370,4014,5458,-1261,847,2893,760,-7385,2960,-4613,-2679,8149,9370,-4323,558,-4624,-4269,1146,5181,-4151,3491,5868,-5132,-3451,1235,4349,5370,-5918,-3339,-5618,274,-1878,2384,4980,-421,286,-183,-6656,1686,-882,-7295,3078,-5705,3086,4515,5086,1802,-1577,3710,-5220,-6097,-3145,-1209,-5840,-7434,7807,-8602,-1098,8254,-4298,-1962,-3472,-3307,358,220,662,-4021,2912,3482,-5007,-5620,367,1636,3532,7500,9721,2886,4085,6535,6677,-1459,-3225,345,5246,1275,-4541,4451,-1210,4285,-2476,-9590,-7381,-60,4408,3841,1157,-3998,-5385,1484,-518,-1893,-2550,-462,4920,1909,-400,-4291,-8263,-5712,599,915,759,-9147,-2365,6299,-4497,-4754,-9009,-6759,316,-2927,-6742,-2400,3926,-1697,10442,4371,7658,5626,-4458,3816,-2520,-5423,-8981,3797,-1304,-898,1433,6011,4014,-6736,828,-4845,-1637,1952,488,5139,-946,-507,11033,3181,-5178,-7519,6021,-6941,-3381,912,4187,-1048,-3372,-456,-207,-9948,-9591},
