#include "kernelMLP.h"

const long long w0_stage2[][66] = {
	{7414,-102805,24025,-95104,-7004,-59174,18633,69662,-60345,28930,9694,70403,65510,-5005,96579,10451,53280,-113895,-88804,90665,-107363,1974,70253,-23508,-4519,20603,-107236,64080,-42049,-9030,44831,116902,13852,-93252,51209,-89924,68464,3221,86793,-5425,-114518,94189,-83056,92945,65617,-91352,66488,103979,86468,39594,99376,102515,52877,-76916,64481,-117624,97321,-5981,88970,-61952,-21952,105261,-11634,49360,21770,83850},
	{-69599,-52976,54649,64270,-25744,23798,-31864,81252,-101218,-15004,5850,-7347,-19850,-24162,-61089,-8366,86053,-74975,13502,21021,-13095,-37157,-101904,-60319,113756,118239,-106402,-16390,-56095,-37365,-90673,-101737,111935,55896,-12769,-67142,116224,96590,-36061,-24630,-33068,-77835,-113879,-12504,-26628,79675,-9152,-43234,28103,-21742,17406,23546,1354,-75682,-92786,6971,20545,44448,98404,84676,-108907,-105506,21896,-73473,-2647,56795},
	{108966,-91084,87186,2930,94417,49837,-118179,-85062,-103501,-4881,-103990,76156,-67905,-72046,-52195,-53252,33797,32064,-86409,-33560,85383,-38168,107954,-40404,105623,58129,-13673,84295,24718,24779,-32755,-48830,23399,88193,-111038,103064,-57286,89774,21478,46312,-83269,-111012,-113297,703,116990,89140,-55136,-117021,24187,104331,49667,67064,-2629,96410,51469,90832,3706,-52732,80242,-54244,40864,-108947,74543,-31052,-95732,44710},
	{-123308,-87413,113429,-87563,58528,-73090,33413,109133,73880,-81785,65754,107899,-18093,22339,47944,25430,109854,92118,-11553,69487,58852,-45381,-8707,73331,-114463,4096,-25927,-81918,-34420,-8042,14100,103575,-114653,14689,29185,31614,98439,74949,75038,-82933,106784,48176,-16549,-42760,72506,-51061,64413,-6133,-25164,55699,-33946,-96609,3860,-56133,-12227,18900,-98922,111850,-75027,-93221,83579,-60219,102815,6001,102399,101701},
	{-63456,112645,26590,107142,-11002,775,82036,-120599,118867,47333,28668,-108088,102099,-84649,103992,-16239,-103459,88792,-94246,86536,-88685,67398,-108865,9837,36708,-80782,10634,30451,48921,37108,-103425,3433,52092,16900,-79638,33412,-79933,85885,47764,36795,-105644,48574,5016,-103983,-114794,38937,-16752,-92734,-75308,22375,36308,71613,708,-119204,27574,102122,-29565,-49198,45860,-53721,-49196,35439,-54487,31226,-57833,94107},
	{36479,45505,-90786,33826,73007,3209,-127370,81997,60700,-27894,-116960,-33554,36785,34518,-102478,58910,-31219,82184,53174,-33327,-88889,-76741,-112186,-87295,-23645,84758,76470,-121420,93999,4814,13489,118150,-100530,53961,-92585,-32876,39976,45898,-117736,-3881,-113348,-40600,-38587,-105479,61175,109415,67819,29244,-75695,-34559,27622,102297,-53079,-105335,107493,-71690,103519,20989,-33165,-3836,-95005,117297,-61157,95271,83028,-78358},
	{-51658,111908,-27461,80027,99121,-19717,-87830,22792,-110616,-104658,-6872,-53504,-42927,48000,-32295,52349,-98709,116531,51975,40744,24913,-94084,62945,-71259,-57283,35875,45280,64583,-96151,111754,83115,82554,-21582,-86140,67859,-216,-72378,-16678,-92270,-74905,9587,67454,85524,-15171,8258,84001,-122027,14851,100534,-42640,90652,-28959,-81178,9724,-82340,-111686,-12554,-32201,75341,114724,78882,-86150,-87065,13389,-54754,-88403},
	{-10731,106402,3505,-77896,84426,102389,15205,35988,-72753,-64806,-93708,-35106,56125,-92356,-92241,85927,12273,-100333,110405,56651,38353,-23085,-32788,40222,-21647,-59663,-60343,-16355,-114402,-93787,-66689,-53060,79687,77190,-5413,-74786,-73180,-117848,115212,-85796,7443,9935,67797,-55791,49663,-120933,45344,78670,-54891,56157,111104,95592,44656,79586,-3979,-4990,18316,-50857,110502,-69925,14330,45133,25183,-15137,-112888,113785},
	{84545,19247,-67263,-90818,-68788,108705,-21817,-61238,-25318,-104072,-72436,-12957,-113508,69639,-18633,-73678,12253,-63051,-31807,-54742,82657,50109,-11973,74240,7076,-60702,38345,69083,-96426,-38286,64127,-79888,-52544,-106136,98487,107887,69222,-74071,60496,-23278,-112129,91046,37834,9996,-40224,-75445,-61575,76278,36883,20347,59503,39695,-37908,-1521,65062,33666,-45243,105529,-9368,-103727,-90380,-43289,20191,40415,-114788,85941},
	{75671,64170,-34724,89235,-78090,-101219,-91258,-39007,51035,-43465,109966,-92205,-66346,-53999,-54051,-15213,-14641,30355,56435,-105356,-64071,36590,38048,113798,98371,78223,-80687,24407,-48220,15548,10772,-53417,69639,-46525,-33835,-33054,84809,-33290,-2501,-13692,-5633,41964,-33649,101597,26566,-59967,69350,48420,10170,-3153,-67030,114072,20240,95376,59668,-58368,44856,-18425,-90766,28864,-5382,-11420,-4279,36024,-54259,112983},
	{7102,-65035,7237,94277,76748,104930,-46244,58784,-109201,6980,-6151,77280,27863,-118244,-21723,-89402,61020,-35332,-72424,116500,-45890,46603,99133,95686,-69826,88057,12634,115922,-48626,-45987,-8353,49932,-69272,29473,-95976,-18321,38853,-90831,70131,52781,108313,-104846,113666,-48571,-75806,-24718,27577,54299,34909,-42781,-6316,65549,68108,-113737,-36523,-96868,-44671,60359,74102,96793,76156,6784,126379,122184,-53277,-51558},
	{63049,-38287,115667,-96399,-7004,73521,33285,-41305,88690,-10439,108749,21876,-96247,33889,-107307,-3339,-62601,-64916,19148,-75918,-88785,42472,70619,58926,-43032,-101144,-81172,102499,2841,49973,20702,-54978,-53264,78043,77623,-66625,-96372,-87443,-76235,113979,-88431,-111175,103699,-22415,-53503,-80615,39530,-28996,107942,53683,-74830,90650,102451,-93228,60286,81237,50154,63924,86790,78815,-68462,-36323,-94580,117148,-40142,-77445},
	{-12369,64002,43558,-41476,-100562,118246,39642,-57255,81772,-47623,-18374,-76066,96586,49182,-37256,-82019,22361,-106338,-6933,9014,102392,-852,-80606,-62524,27602,-65021,79275,-3320,-20946,14206,-80177,-10747,22616,-23089,64594,-88271,-75246,16165,-14412,46161,-119805,97148,-84028,68397,-24171,55196,18788,-9297,-97079,12085,-87960,35357,-43872,-43253,65380,-112905,68187,-99871,-61314,-104173,121626,-120113,-30648,-202,-91582,-67860},
	{23716,115399,-121732,32139,114192,102328,18338,51239,93889,-19994,60945,99496,84128,42007,-11799,17747,-28865,-71113,108865,-81176,-72681,-35659,-98316,-2621,-47307,-82316,92750,-33862,119833,-27788,-36086,-47563,102052,-6210,58581,45225,-82658,-77612,-93970,84919,-28856,55366,-53034,69932,34747,22376,-90435,96018,-59459,-74053,-1375,-29737,-80023,-6141,66100,6437,4106,-51077,-22485,21026,80206,-111186,-108979,82672,79396,-38174},
	{-65588,-91582,6014,22032,10411,108858,89210,34369,-108969,41138,-96504,-5569,42295,85918,87703,-25542,99385,85455,-112674,-114098,-64649,-4542,-91423,-122190,40615,-11531,87638,-112406,117453,6010,-34797,-78865,-68385,67632,44128,-119677,52022,-57516,63477,121290,120839,-21622,-50324,77934,-29859,103734,9747,104326,62892,-25542,-44482,-114176,21482,-79264,-13571,91450,94077,100300,-106035,37109,84561,100109,-47970,62969,28161,112759},
	{11468,64469,27575,61412,76117,95780,-83186,-87052,-99412,-104267,78856,65379,-94344,-30781,29288,-97558,81680,45231,-100379,13789,111913,93540,-93515,12890,-74169,31850,-84538,-14985,95621,54678,91827,42638,-19451,-24460,86275,-45544,-13492,73108,30516,-92896,100352,29120,-66514,-23366,16068,-45407,69875,-27669,79254,-78579,-11186,-40228,-65616,-74285,-102778,-65780,7301,96558,-347,-59376,-50069,-43492,-26945,-57172,102248,52629},
	{-34001,88016,-9976,-35168,115189,40076,-42271,100518,41391,90413,30983,-118428,-87052,-28143,-13355,32937,96729,70660,-15999,-34059,112252,58889,10560,3503,-50339,18037,100782,66815,57796,83750,70565,121808,101797,40387,101345,100063,-104994,-29649,-78937,28572,-72088,107222,48607,26185,50388,-47863,19422,4818,-86232,99306,30764,-118030,-93267,78492,-90340,-38166,-98948,116756,-58581,24973,95096,36752,96130,54386,-80526,78946},
	{36584,-37075,-90434,2729,45195,-83241,-109829,28836,38701,-99822,13046,76369,70605,94324,-28062,-114071,44194,-92624,-5416,-90342,96853,66909,102901,110501,-101254,20031,101133,38598,115731,-73198,98478,73346,-82911,-95616,57618,36086,-54562,-67279,-116136,-14593,1357,12421,-13959,-106857,-69156,80245,3100,-47618,2055,-75788,16112,8382,-97334,-97832,-107061,-115272,89457,-63534,101078,68504,114025,-93017,-5216,-36944,96238,-7201},
	{-53710,-44388,-52474,63491,12546,87200,-23181,29299,71485,52790,67355,-96036,117194,84838,39752,88695,-79016,10269,60372,87345,93395,58279,94603,108141,-63457,-37004,114476,46527,-105285,98448,-93874,-101273,26475,86236,-84384,-73852,-110039,-83867,91481,72555,-41230,23707,50479,-82898,87649,8186,39044,39987,90879,-87969,115296,13675,-109637,-120239,-65454,-107522,92998,-62102,-45703,53390,63227,-27266,-121307,-20550,28039,109523},
	{37717,119103,60353,-71765,-94864,-64353,55419,57699,98364,48461,-43889,-83858,-84809,78665,-112467,33570,22502,-106157,72476,117736,116921,115705,68809,67508,34655,-41932,-59114,-73939,-110714,40063,76327,-41882,106384,19917,103831,43483,-97636,-15976,-113541,-48139,11990,-27155,-31754,-12064,-62707,-45682,-83056,-86590,62974,80597,-55254,-94770,-87288,57028,75311,-50700,61264,-58034,99254,9352,97133,113965,-44582,-116102,-94218,-99292},
	{-120969,111979,-16295,-35848,-74718,96673,-109454,55221,48526,-68235,113403,-115935,118769,-65965,120747,-85603,69954,30553,-61569,-71045,-24,69528,-54194,-39586,-13756,12885,-103476,94402,97049,-40975,113739,16099,79794,60252,-34183,17988,93487,52236,44813,-67411,-101357,-53451,-39457,116907,106415,-42659,52235,-55346,-43610,11077,-20032,66304,-27885,41273,-25685,103152,22162,65473,111384,-70123,-15227,105796,-98011,102130,-30639,-54727},
	{7202,97905,-61170,-47570,-12803,-98002,64241,-3364,57651,-29562,-102681,-53722,29965,-85283,-10273,-118193,60953,-84589,40613,9222,-54194,97006,-39565,114852,45497,-15379,-4637,98518,25723,101210,45151,-1733,48867,91233,-93824,90310,-25151,114672,21950,30521,-42791,-83648,27938,7671,93313,-46594,-47702,-116246,-50289,9693,54221,9587,35740,-58799,40553,-28742,-84179,-17939,-23378,50176,-17295,26096,-77244,-43230,-121160,14546},
	{-118248,86503,93777,77300,119530,-107363,105221,-8235,44216,-43904,113578,60548,74890,-117328,3947,-13971,74142,-99614,-1738,120555,94522,-94011,42353,-56387,-109276,-22576,-63474,-38050,-29667,-64131,66278,-8489,-73853,48522,77471,-84817,-40571,17297,-29072,-29251,46405,9256,-3099,-50754,90142,-48629,-66725,32542,83120,113464,-64493,21601,118321,-13074,71902,37183,4849,12484,-48036,-22424,5086,-115566,793,80180,-36801,112147},
	{61551,-38144,-35692,-51075,-25885,-112621,78905,84539,-112247,-94504,12798,-9344,37827,-29954,-16902,96770,95494,-105305,26115,106611,16889,-24650,-104476,-11798,38118,-42719,-35179,-42165,116456,57660,-107176,-70065,63599,-61925,4606,60398,-74148,26954,12421,105155,-117435,-206,-48525,-40189,-49383,111684,6635,-30151,48898,8819,12146,-87566,39207,-96942,109257,33020,56610,-96557,-113401,-13215,-125833,25146,-28722,96173,101630,13724},
	{-104473,-3175,56662,-116294,-111172,49108,-99922,-52546,-33733,46795,84418,8410,67369,-4107,-48553,-18254,55223,-8692,-56433,66081,-44320,-18855,-123519,918,110342,108050,-125997,-102177,41687,-35366,94967,-86045,-29133,-51852,-12849,-10727,65956,58059,112152,-76870,70788,36595,-12943,85240,-31396,-73431,-30316,-14273,54442,45017,-66750,-70687,-9421,64958,84707,39415,-104326,-44652,39965,40848,-99201,122046,-85123,-30273,-55172,88186},
	{-82189,-50521,-90633,-66400,20713,-110726,-23561,52981,-91178,54611,71704,35007,-1155,-29434,-39558,-117304,106250,104943,-64451,-7564,97456,91557,-40307,-53241,94509,-112280,92782,45801,-73583,33517,-97502,-102357,-72605,-51870,27314,94515,95413,22870,49591,-114457,-73372,-44616,27906,-115016,-27254,80049,80949,55346,24367,-65549,85322,-98541,23436,100842,79614,-102955,-88251,-84367,-31822,-12526,114763,115783,-69829,-26144,-5429,-22403},
	{59236,-101448,22156,115243,55370,-59702,16825,-113179,15267,10309,74472,-111895,91214,-95807,-86772,75895,109706,51276,-16540,78388,105619,25116,36017,26147,17593,38711,70812,89532,-59382,-14133,110996,93225,-86740,-71933,-28829,-110397,-57852,-77497,56810,-20010,84518,-57660,-90821,80568,-87100,69819,57563,-58177,14132,88091,91846,-113595,-107934,-96379,76141,114503,46755,95852,81126,56632,101081,28601,-85780,59801,30204,-12942},
	{76309,34325,74470,107758,53918,-84725,11370,-16528,-50774,-104920,81410,14204,-72855,-17978,-66911,-5464,-90784,19957,-61163,-64528,57429,-6224,58100,92042,89387,14002,-40548,86746,-56951,57662,-33065,-47659,30481,-79547,-107278,-10097,-35154,-68362,-66366,-25626,-95203,63114,-63730,-113112,13155,12916,88205,-116107,-115913,117498,-98851,-23560,-39677,-81676,-1333,-31765,43137,-18068,-27689,-104640,88332,52,-74190,-90491,87122,68776},
	{-106707,-8224,-10976,30811,-90811,-51607,30096,104170,-48272,76598,-75865,-69061,-114533,-97950,15268,-54436,-82693,47180,8486,-63986,-76520,110851,-89024,102783,-2694,31319,36724,-79538,261,9695,-113965,-41193,62494,12128,-99285,10064,-66907,9648,-2956,87512,-89849,-44913,-106819,33950,-57750,-112625,64275,7887,-7348,-30111,-81284,-41198,26230,-96870,-31571,85656,-112029,73059,-114179,18037,-124195,-18598,103626,-74864,-2666,69562},
	{100449,-95252,117342,101546,37724,-81913,-78070,-89076,-31327,6280,-77823,40234,64074,-110935,40143,-22916,26481,-55530,-5435,-114699,23846,28692,-7583,62578,-82060,68729,-99433,115503,-113743,-2957,73867,79514,67460,14975,50202,-108427,-65682,66368,16898,22854,-95428,-109632,29604,76768,-74016,-80829,-57094,106505,108485,-83031,-16490,-65609,-73623,116684,-37133,2778,-70324,-80370,-68104,74942,78067,70002,-36367,8315,-15267,-90245},
	{116963,-85575,16352,101966,-34071,-80280,-104282,-93429,-77641,109464,35257,-82394,-33320,42992,27475,67566,-96990,-120310,-11102,112356,89283,9072,96110,44157,98091,-83724,11052,51146,-62628,119216,-67996,36148,65019,107263,109941,-10298,-41585,58852,96015,6175,-82595,81479,-39628,-45844,-11048,-110060,-117752,17318,25713,46914,14273,66007,-87252,-117885,116456,34961,80153,112126,73800,90917,52630,35153,-98424,-117564,57882,-79233},
	{-117638,-40783,-44610,-18605,-74063,80392,72982,27419,86350,120187,-38651,32135,1742,-58590,93725,40850,-46079,-111214,81773,56826,-107079,24491,23136,-27249,-115976,64172,-62255,-42157,94272,45031,-76126,97346,-10519,-20732,-90059,-100058,47477,35293,-88394,-2593,-29782,24234,6189,86351,106140,-11831,29541,32252,100960,53381,-96223,108042,49446,-68617,11215,-108764,-113208,-25752,44762,99232,42322,87885,-34926,103713,78580,62943},
	{-14424,92182,-17734,11931,-75912,-39371,-107974,66811,13880,54075,89034,-60505,-73283,31669,89601,27061,-97842,79167,56302,99673,-94203,57020,-26541,110859,87706,-64280,11825,104216,-112389,5537,-96423,91962,105481,82785,-32045,97546,52380,-97409,6560,49746,-17418,-62574,82173,-96779,118059,4491,39778,-70506,-37180,-83356,-11247,-108495,86639,88118,10599,-31897,-102899,3173,-105322,-76958,-61228,62654,74871,77632,-579,-14871},
	{-75377,34574,-83503,64376,52006,87299,23614,121194,25440,102381,-29693,23627,-66949,-21128,106950,-41432,-112829,72753,82116,-62041,-52350,87550,49073,-7967,108156,-71918,-95618,47733,109029,88270,74278,-108785,101435,46975,-69427,-54432,-19615,96251,60933,2017,40870,-104325,-37262,49159,110527,75929,-20342,-19982,76204,6213,73259,59257,-45587,-42491,32288,45889,-12377,-50487,-39379,-72904,-76960,-66893,-8638,30450,19005,-44621},
	{94217,23739,30838,22777,90724,83139,12205,-63893,8177,-106394,-50845,-61701,68140,-81979,16730,38554,-47318,-125809,-104974,-118294,-21202,-109206,-87825,80839,36390,-81312,-59393,-97594,80904,-99496,-34331,-745,-19318,-104743,-40976,-14926,27649,67633,-16095,34045,-87876,72889,-23284,42843,17906,-71757,-115846,8293,-8015,-89410,13209,112266,56422,-25114,57992,-110438,-60250,-11613,-58521,-87485,-79907,85800,-92628,-111319,54552,-115149},
	{81180,-35890,69797,-70462,-12273,-110749,54670,-110117,75842,-95561,14744,-25839,107576,91315,54288,18084,99015,-66894,-102836,-54637,-109417,-53316,-43090,-11464,2681,72140,-5871,-38309,-44453,13041,85486,-51121,-117286,18113,-28935,111133,41282,77625,37598,933,40585,-28309,39379,27952,-117407,-57671,-51192,118729,53705,27938,-59228,-118077,-117423,-12176,-52101,-87597,-81133,82636,-72549,32668,-122620,2724,-101051,-103736,50521,-18570},
	{27961,-108267,64933,110189,12908,-108660,-82458,39624,11796,-82105,27326,-108506,-118717,-63899,-15960,-33985,-40209,102835,-91331,73481,-69132,89322,30334,77947,-74665,2407,-48107,-78623,-115398,28941,30598,-31105,95815,75141,-83094,-36946,-3596,63263,84880,44260,56412,85157,67169,-109423,-68960,-13011,18877,24265,-28808,-124501,34230,-56498,-35965,-34067,285,62732,39665,109680,60218,118545,-35019,44377,113798,8429,120590,68630},
	{-93077,16986,17434,-18157,-62676,114953,-4674,-34279,18306,-12065,101910,100528,-115337,-6481,-83952,121624,70708,70618,-88391,119367,-74899,-34335,68695,4767,104710,-52254,34065,-87811,-64182,114420,-84746,75952,-19224,53928,-102687,78835,-85444,75810,-24393,-31081,-90672,93565,-21188,61414,-119322,-109953,43548,-107757,45246,-34917,110527,-82438,99868,-119367,-77059,-90440,-100027,-111462,102246,-40906,-96908,43472,-29348,26643,-66947,3173},
	{-45253,-22914,-95673,20655,52923,85535,79912,83936,28538,53092,-47484,23797,-33577,72124,-35534,76038,-63768,66850,29814,-51693,58146,62418,53946,112255,51034,-78416,-47424,35719,-49552,9171,40044,8753,54124,91764,-94374,-93481,-36197,776,69175,-113467,51209,-84663,70538,-3920,64848,5304,27330,-27385,-97689,33250,-38810,44668,66628,-20207,-27966,-29095,1999,19831,-93158,14978,-90889,46600,44506,-53814,105872,110185},
	{-23244,103086,-101499,38202,-7305,27560,-89825,-4710,77498,-57743,34310,-114373,-74695,105676,-107354,-5848,112715,-88209,13516,-75856,21450,-26514,-117116,-81082,-70123,25173,-8349,-65624,-110728,-14841,39142,112202,-25827,39191,-45002,-69330,-23241,-78460,25112,81704,-24090,-44757,-47689,-34594,-23275,91525,-42241,-115689,113007,109192,-70738,-101626,-17166,-83058,-111776,-111108,-50189,-8830,98328,20782,101699,-87604,-3329,62024,-16175,27555},
	{-10071,-77561,118062,27427,-1425,-62863,-8111,-80983,96031,63082,-19499,-113338,71307,84510,-106828,-39383,52264,42361,104574,-41097,-62710,-7237,83405,69527,-24929,28580,69779,-88449,8736,-40367,-5099,19432,-85212,-66380,-38338,-76965,22733,-83234,-73863,-32869,57504,-11859,2236,91010,109625,-70061,99511,78061,-56784,11633,118568,-117177,-1674,85370,36388,-20572,102330,63749,-61149,-70684,49550,87869,34790,-3970,5068,-62475},
	{21192,-99565,67483,51138,34713,-97557,-20170,-94292,-38129,112166,-10970,58946,-100359,2016,-10296,40080,-106751,79792,-109763,21199,-88763,58149,49466,-20355,25660,-94019,84849,-115949,-46663,-33315,113739,-39090,39647,54887,41973,-23048,55372,-96683,81540,109298,-83710,-53794,-111898,107619,47394,5452,30122,-4035,-6514,35928,-23781,50843,55219,24084,82083,-114444,60786,58579,12388,17069,-100509,-93291,-72674,-38429,-40440,45308},
	{87608,-91700,48198,-20017,74745,78296,121034,-47098,-103185,-46946,9349,-87466,-47988,-120096,116334,117658,-50410,38665,-90359,87220,-36642,97962,-49528,-23835,-79847,-71613,-87614,59109,34241,62579,12559,-92323,-72793,42420,64781,74731,32211,8149,45813,7099,11852,86910,39400,24233,-27338,57596,65484,59001,-116054,17000,-52054,-70501,110996,110106,-118310,70822,89313,61361,-41478,-68404,-13420,-36475,-25793,-6393,6134,8080},
	{55602,-46279,-68903,46741,-72793,-114557,37738,-105502,60387,-80515,-9927,-69544,75315,84224,-91640,-44152,103654,22300,52872,60949,-4244,73380,-89846,37364,28702,-115615,-39213,-79897,89389,93343,-35835,-8990,13255,109869,-50920,-26768,-48176,-59854,68652,-2229,-96021,-26730,102009,-53718,73639,73402,46249,33417,88609,29731,24808,-27134,-73174,97147,-115091,14347,-99047,70070,-59954,-116469,52950,-88748,113216,26850,-59964,-6445},
	{-75397,19542,-97061,24643,97037,44017,-59934,-75662,-2230,-69944,-253,-89312,-21364,21760,49541,82032,90044,97812,21378,-33301,28391,-8013,-32991,35386,105236,-12122,4073,79538,-99966,41013,116667,25111,115364,-101851,-87811,11319,-14309,-104340,-33139,-23109,63399,-40277,-85243,-35013,26564,-93181,96687,-76735,37601,-95672,65919,20854,119617,-110645,103084,-922,-32612,-80971,-49251,57335,52487,-128660,-37800,-47139,16894,-54131},
	{-27369,-97770,20458,-13488,18545,83128,16113,98179,60149,-69741,64502,-47028,73973,110631,-58438,-4695,100126,-32590,38699,-42936,-65633,-34849,-99688,-98888,23196,-98797,-68358,-26102,92060,-98115,-14467,10168,17563,-39214,-53953,-1494,72258,62123,-653,34805,63827,-97392,30811,-110350,33705,-37319,-113056,-20509,8339,-15888,67563,-38706,-21638,90097,112752,-55415,73622,69918,-29255,-74885,46499,-79254,-71302,-27272,-69117,-15744},
	{-30583,-85781,58588,-52222,-7364,-77578,96151,54037,94493,8437,83963,97050,112110,17643,120660,-26092,-70166,-82588,-90731,74437,-112529,-12937,20312,-43768,53368,-20873,-10913,-39375,-56179,-110238,70476,92314,-85486,-34723,633,1320,-115731,122021,-7455,-97694,103839,-50304,-66102,-55178,-20495,-53545,-81265,-78669,63357,23745,-48071,98428,-36224,-91430,80876,-21284,-117125,-77569,-106289,-125713,67117,57018,89845,31881,-69060,-103224},
	{-52190,-8638,-11324,-29090,6052,-114914,-121144,20922,-54852,-104263,69864,-74978,10820,6321,-9024,-113442,-119253,4037,-47024,-118294,54960,-35143,-6965,51784,-62816,102041,71421,-40689,-19199,-60938,-111261,1271,-108461,-12063,-84368,-114848,-75424,-32849,61783,115693,17105,-23259,108584,58522,86276,75320,-107534,16653,65694,-8489,52751,-27382,-90504,41513,-93289,-86401,-49106,-42790,20967,-72763,-67789,-89184,27755,33558,52588,-39570},
	{-68412,-61802,-10862,-120220,-80878,9474,71817,-70770,-95591,14194,85123,84275,65053,-64388,64708,89056,35217,39922,-45565,70320,-41096,87216,87052,-110306,-45831,76139,113097,-25620,104690,57317,84676,-90102,5247,-100176,22390,-100738,846,68332,-109664,-93577,33454,-28867,-38330,-24611,-73044,-76123,-43490,-76118,86386,51247,60138,34371,116968,20314,-77261,-111474,-49105,-37660,-111569,94738,66493,93169,33434,61907,-52643,73118},
	{-83196,-28211,103250,-50642,70604,-97823,-13617,76420,-2757,90024,-34330,-106071,-29694,-120144,37354,-34547,-57534,79487,16833,-61367,105131,53931,-114628,46397,100743,105360,-97333,-94380,20522,-82843,-86725,-105643,115073,-68794,87633,53726,38473,97043,-93310,1239,-28660,-90616,67082,-106144,-86296,41373,-28851,-86313,-69276,-73998,-29208,-59587,202,-32376,115019,110695,-81016,-47185,31915,3218,-102814,58616,113972,43679,39286,-93846},
	{-102133,6330,-117980,-74560,-116103,48256,-72457,65952,-49092,-49138,23863,-104074,-26302,49476,42827,45791,-74157,19315,-52737,37688,66237,15244,49112,97967,52390,88537,-70615,20466,-72212,52571,-18113,-60518,-65659,-44537,68889,-88553,-89310,36967,-50100,113523,-78159,28971,49305,26356,100543,28562,108964,-29445,-80505,107408,-46128,-47114,-100186,-94660,-113896,114808,-25872,57096,-43358,101586,-115813,-51921,-664,87715,-31019,-105706},
	{-37901,-24004,60385,110545,45308,110005,1744,86013,-81159,-34529,-112170,-91892,-50807,45869,-89989,113106,59255,-58212,-51477,-16035,6323,-22227,50111,94041,-6164,-91760,-1320,-43301,-35924,45387,47279,113488,110656,-83958,-106849,29936,-109936,81256,6362,-79646,-41771,75426,-4501,54657,-104378,-3865,108454,-114675,110305,-109177,92991,91038,-78597,93981,-27603,-78868,37162,-3322,-89172,76506,-97350,89198,29125,-34343,-45254,-17592},
	{43697,-14574,87989,-2215,77008,39436,73960,2132,-40805,9247,12773,-27871,-22752,-81603,16646,115011,-110161,62973,-36873,120199,-17756,-9495,87371,16484,13652,71185,-106578,25507,85320,51878,-100930,-36150,111918,123300,119296,-8016,-113545,79489,-77048,65403,43214,-19324,-8342,9948,-44963,69470,30003,-24230,82154,100014,2467,-102695,94628,-4792,4374,68569,-83129,-14002,65456,-18677,45952,98521,-61533,-90223,33657,99906},
	{88157,61250,-47594,82124,-43541,97614,68213,8957,-33464,20175,105852,23880,9094,109389,-16527,-56655,72981,-92424,98929,-88450,87592,-71969,116976,48488,-118034,39710,4463,34725,15030,63026,-65462,-77569,-97163,70886,-49701,34355,-81877,-21530,-18831,93350,-51674,10855,-84197,-3584,58214,99576,56376,-69174,15343,-108403,-12340,-71384,-44684,21500,114513,-104335,-97596,-32149,109172,84121,-12445,-33120,14734,-86162,-96378,10344},
	{13420,108264,39069,-63389,-28887,119606,-85344,-21865,-67605,-15313,-33075,33061,-80404,-78243,-34146,94178,14259,113624,106182,-12263,-67374,-17243,-113937,7174,67164,38342,-3064,7986,58983,18715,-11090,-114365,-10230,57850,59371,-25726,42511,-83059,-55992,-60492,-113161,61609,-74309,-105354,-84246,83200,-36877,-46737,-35392,-74513,26431,-55580,116996,-110685,-55937,29738,-31275,1748,-89807,61630,99806,-58672,-38577,103081,-36564,13948},
	{62574,40133,40844,-4824,22747,-23548,63744,-42503,36576,-21601,-309,9771,-80485,-6984,80691,-104567,-97509,46555,103385,-29437,35199,-49369,-11906,119733,51818,-66116,-7541,63910,-118646,-106796,16179,-20829,-820,-2466,-27340,57815,41356,11911,87147,-56897,67564,-121267,4695,-21498,-22260,-76623,54460,-23374,108965,-28726,-58522,-65364,-48717,-52203,-26838,107712,42742,40997,-7032,95452,86000,25319,38629,-114153,93770,-13500},
	{50187,-105970,35883,-107785,60394,10164,83034,28005,-42407,105040,-50165,3216,103371,12910,54867,107671,-93556,60055,-32850,115658,-101636,384,-25464,88987,56010,-43212,30940,22281,-43288,99472,97122,24009,54377,-23313,106705,-5643,10878,-47425,45311,91759,115571,-69202,29823,115922,-69852,-53,-87427,-43418,-101317,-67675,-88338,79808,-13749,96651,-49829,13594,12357,66890,114516,119018,73596,96995,-77136,40135,-45974,51736},
	{10107,-51388,-108942,35100,-2172,37863,36689,70768,-41941,23930,21819,-107840,-97319,116402,-50646,2089,5659,2397,-14973,111025,114616,-31849,-106470,38297,83056,-40239,98352,114616,-24877,-69994,-5301,114740,-99949,93037,16471,-22574,-100519,35454,-115063,-712,-66586,-60672,-70326,-96527,-107592,-10931,-12515,3096,115409,29167,-40234,-21721,5835,51788,112992,9656,85465,97942,-18691,49479,108287,-103543,-17085,89629,-115206,11511},
	{52093,35832,-98853,-5106,94692,6281,-87282,-79144,46971,-97831,43885,106939,19552,-112488,-32601,-53521,-96020,-81701,60491,48438,42177,-52549,-107491,11604,-38186,-58866,-23432,-118167,-110868,-50027,9876,26117,44222,-19426,-70736,102756,3175,-107836,13933,77028,-62445,2189,-74713,-99228,-25229,119914,117879,-50153,3548,-55755,106514,-31837,-82691,49855,-50899,-27931,-47625,57160,94700,-40633,89891,-50543,-56306,-61018,-98863,97793},
	{74510,45785,-19864,-67286,-39286,55780,-67213,-31416,25361,102850,68498,-120961,279,46733,62245,-18816,81549,-48405,63857,-87447,-9612,-25588,112307,-61278,-89026,104957,-21949,-351,68930,56771,43935,-93146,-104014,-58841,-117360,-116850,-63987,-76442,8656,-5426,56515,6366,74627,97305,-5578,-73988,92510,-86637,-61429,110864,-36358,-31112,-70096,80329,92362,-26020,89107,47824,71735,65173,-131221,-32147,-68714,54248,-79377,-3532},
	{83216,-57439,-18114,52943,78021,-112853,11009,36834,68192,-78669,76607,20493,82417,-79503,65477,46337,-6882,-22015,-68641,45010,4784,87548,22945,-58066,-80403,-33271,-76270,84205,-105840,108638,-23892,-92830,7288,-41513,31617,-44314,-19485,53188,53704,14345,29601,-68222,9568,-41018,-38442,-34425,-370,42285,-7028,-114533,89613,2919,85247,57200,-18112,-84123,94583,-74470,-32533,6804,79839,59961,-63535,20635,86586,-116595},
	{87842,1737,-38752,103232,61902,50766,-112341,-702,31908,-77723,148,-34957,10514,-119339,45713,32779,14755,-64630,-101097,4368,99480,-44766,40253,69365,48031,-90483,-108754,-51889,-20622,-47383,-20803,-79035,-92104,16166,-30017,106908,115745,70998,79857,-41859,-74818,-99236,-10479,61013,-32919,-24848,2703,93394,29188,74213,58165,76861,-4,65551,-51944,-6535,116696,-5077,19699,-41157,75688,-82371,50561,86201,113647,-111605},
	{70252,-35933,21751,-3689,3891,74124,-78815,-79014,-66475,12865,118378,-65683,108920,-90138,-118928,23849,88494,-53034,65522,-35448,-8008,-33566,-104398,77531,30090,98613,-113526,-11611,23490,-40815,109721,-99343,-71723,110903,-107058,117875,-84245,43224,-42721,-124413,7483,15010,27247,-46419,61784,80938,-28305,-75565,-115558,42695,113128,117316,-111578,13905,106101,-103519,-90575,-58328,-6685,106721,61244,-53243,72087,-91469,-107242,-29497},
	{78251,83951,-38821,-75373,-36370,111556,-43704,38355,106793,72079,114809,48628,-108939,90954,14421,-87721,61156,102013,-109578,12044,-59912,33257,-45124,100768,-92341,-48093,120863,17685,-19167,-98335,110639,45561,-102692,39487,17110,14871,-53916,-38494,37496,50800,122694,39263,-85432,-59436,-72395,7979,64613,19855,41229,-33997,-87328,-261,-106686,1323,-2,-2159,98581,117490,74095,31749,-5857,7364,-89783,56066,-62474,-89842},
	{43318,-63749,-124646,101052,-21191,46175,49863,71536,-108204,78917,65879,-19302,-91187,-120304,31902,17971,-48233,-78284,-68999,-42766,-65956,19161,-31480,35107,119368,-54928,57867,-104442,-31457,-94114,-69312,-70891,19385,-6316,40500,100573,-13309,3066,-99877,-56052,71337,109874,21350,-109527,78997,-6538,-76581,6719,-4239,37161,-69640,12903,77237,47709,86540,-95303,40491,62243,96172,-84106,46914,-49137,-50121,105268,-104894,37059},
	{-92670,25794,87342,56964,108035,119890,70021,29190,-18810,87775,34929,83093,-83591,46253,-91988,75655,1068,-102363,-6024,-81430,-43187,-120145,-81727,-96107,33546,48341,37608,-91361,-46119,10551,52068,-113652,-106504,68893,-93186,-27605,16131,-118023,-77834,-100552,105914,-23276,69464,-42616,-70189,-28178,108956,-27329,48197,-106363,-19867,117059,-14446,52366,115470,107834,85564,97393,29263,58085,91390,76045,-102657,95239,-50278,106445},
	{92282,20650,-56759,-81056,79763,73477,49201,61819,-44340,102127,20404,83499,-15618,24159,-24018,97173,60275,-75816,118793,81908,27765,19598,-103174,-115470,-66880,-19150,-42960,-73599,-92342,-78214,107171,-58567,-116928,-67730,-111319,-91321,-102726,-83273,-80544,-52097,39301,91838,-34220,52591,74004,97403,56746,46554,-36824,-51681,89815,94651,-96527,117924,93380,411,-39999,112010,61114,61178,26773,44963,-13471,75028,784,85487},
	{-15587,-122863,82039,89360,97205,-51801,10042,-104708,27253,41378,-104088,-70232,64452,-37502,-56233,-110580,53725,115380,99325,1457,94360,83740,95665,-92330,-77122,-70536,-93417,65578,-98400,-77020,87576,-88337,90286,-51969,9803,-41018,-120064,27076,66989,56176,36371,-16377,32476,40673,-61096,36992,-98694,21618,-2054,-112205,-112985,97600,28918,20265,-83889,7371,66433,-47444,106536,105955,-58475,6593,113729,84073,-39983,-107059},
	{87791,-88227,78394,78434,76490,58665,-26400,116938,66814,-7880,664,95750,-43417,-91546,38988,54803,59659,-106678,-80447,7647,63638,-73229,-80381,-112293,79621,120457,-98635,5921,114258,-8159,-120612,118218,-106058,114816,33103,-61261,-1592,61977,-91762,39759,-46201,52978,57079,70125,-65516,-56271,85405,42150,3178,-62473,14658,114950,117769,-111222,-73964,-39201,99235,-68758,-79512,33668,-116120,-107956,-65417,-94640,80337,21263},
	{78193,102604,64253,60638,-7612,26623,23987,8601,110794,28430,31416,107793,-53834,95358,103326,-109798,-84018,11522,-95778,111058,55399,78052,26836,-58775,38603,-83058,-100947,-61350,-75379,-92594,93617,-48506,-32095,-70949,97490,7598,-54522,101707,98223,-41292,-109857,20479,28443,-36264,24997,55141,112892,78922,-14887,-3933,120560,91161,-113435,-105734,48429,10625,64022,65780,-52806,27431,19814,-108535,-5503,5021,-7475,-40009},
	{111624,65680,93179,-22130,-117785,-29048,-79503,18792,100463,-29297,-91562,40190,-1831,-86942,77612,18187,82716,-102281,-59130,72553,-61849,-99922,-55700,-47002,-100743,117382,-79931,26330,68228,273,24437,56811,72196,-98283,-77917,3995,-100780,48715,81800,-43296,-74314,77245,-48477,119067,-95158,-51877,-29439,94641,44708,107524,-43722,24348,55783,-40017,-53385,-103097,-104225,-18520,-62471,-9077,86983,-100523,16644,107620,82251,74173},
	{101461,7736,90917,94980,115185,111511,69324,-105741,-38302,88025,-23534,-81870,836,-26824,105653,-72342,-95104,-4298,-28793,46344,26357,-23216,36218,1908,47005,-125856,-29539,90749,108785,-62059,-11908,-110941,-54621,26896,50200,55889,-62555,89721,-103534,-53708,103281,-12783,-23949,94112,10529,-75092,76464,101772,12284,45692,-105038,56279,-85505,-38296,91775,-73912,-93050,-33797,60381,-60128,-58025,31486,-112813,4666,-102898,62599},
	{45944,-120381,-115078,43034,-29092,-10646,80492,-834,-401,78653,-19342,-27725,105269,-71626,88412,-62760,10864,-57603,72865,-114101,58956,-113887,63027,1652,5979,-37180,7929,-39005,113798,-49115,45906,98415,49595,19238,62462,-114242,-47918,-49294,-110071,86651,5033,-82512,-116427,-26929,-66547,-54799,-9669,27879,-9884,82986,55196,-71057,-86282,69738,112781,-2164,-12098,36919,115795,-8150,-84767,-62754,9360,100103,-41084,-77721},
	{25310,-108019,10410,31779,43452,-101998,-123779,59454,-99616,72898,-81123,117522,93089,17197,-3946,76188,-19281,42131,97556,-46020,57450,-19457,21525,-67034,83682,21861,-63395,31022,-1223,-91319,23460,88471,-58469,92179,-93237,-61425,28136,-10073,4604,118400,121124,118160,-23608,5831,124038,-69021,-74925,-70862,-22023,-7921,-81456,-17057,102189,-48389,32912,-42947,83694,-70834,-93755,-12373,-21172,-82605,-107163,-60152,30545,-114386},
	{-75528,-65219,14644,-43464,42480,-54089,19935,63888,-102747,-80083,-16651,-12104,-36668,-6274,-42362,9459,-87600,-41146,-13697,89998,-71989,61025,77767,49258,87595,26369,80723,109100,-44519,40206,-31741,11787,-119501,7745,-12131,-89204,11472,96001,-11207,-110573,3588,57176,-8396,56448,-96610,-24601,62343,-21598,-79281,-61010,-52228,-76429,38832,54379,-56408,103693,-81797,3628,28492,70731,103311,44378,92037,80872,23313,113563},
	{114846,74519,-101644,-71470,67588,-80968,-73804,-5967,-64065,6793,-94585,-117366,52201,-81099,59582,47344,-18932,78628,-58496,103699,-64900,-78272,-16387,65035,-107949,-54802,-98826,33389,37551,-52412,-80116,94649,-73046,69605,82363,-16016,-61479,-98138,84288,28278,43054,-40537,51994,-2007,105003,6747,44675,638,2378,-39525,45735,21835,-52979,110851,96879,73187,-39619,102152,5335,64263,-116759,-14535,-22281,-95037,-697,-98381},
	{-93926,-39705,-109764,45468,111887,47208,47977,-3804,8688,-5246,46539,-24731,86442,111853,-1982,-84501,-9465,116139,51970,108466,-14509,-54818,-15974,-64810,91290,-107448,59287,-37557,107870,101222,-51398,26111,91492,-85990,44392,23357,-82735,34688,47697,74521,-15791,-4685,-36391,46207,-65803,119267,-4231,23922,-104547,-10208,77690,-105487,-3657,94035,6680,-38715,-5709,-46575,113026,76046,11735,-99010,56010,-106565,-10334,-120295},
	{108446,-40982,-48784,-23336,9528,16828,70953,75215,91828,54990,95772,-120121,5131,-43417,-42386,-58890,79581,-60018,100979,56213,49689,6128,-53705,113831,22024,74093,25733,-13353,-114830,-42782,59398,114643,14447,-31015,-50170,-37074,-36091,-115023,-15051,-117968,35769,-82610,-43357,-32216,38539,109302,-34412,-104732,74695,28866,-91768,71224,-98929,4012,95023,-2947,108322,-12662,-33518,38935,-104268,22594,-119416,23482,108113,-6253},
	{80237,48140,20870,63613,-85703,77361,-113407,-88846,-77212,-110582,60135,38036,84407,17697,66024,-34049,87715,75578,71887,11519,86210,-104870,-16167,-64314,39206,73339,74931,44694,-92268,67645,101679,104927,-85828,-69474,88839,-83118,-53905,67466,21625,94256,38978,35576,110918,-111561,-41349,90154,-4404,-951,-10935,101787,491,41151,-6695,-111530,40434,-66725,-44368,-108191,15910,20354,-18587,26954,47771,57864,8975,-42403},
	{10206,-79152,-114615,5099,101786,110074,-92260,115154,56762,26167,-39230,31145,37539,12329,51299,-50027,-20607,112104,-94660,11030,-116297,-96127,-111441,-107627,-117062,95004,59513,54243,17136,-13720,43174,1089,-73595,-83826,83482,-47349,-48086,75743,14359,-74811,-77245,99494,110929,-30391,35993,102393,97198,-30053,-38874,-39754,37626,69816,-97371,-99361,-60414,30044,-107535,68492,114235,-100903,-69495,-117424,-96749,55605,72494,41813},
	{-93794,74024,27478,45240,74115,-67044,-12287,-110958,42434,79548,-46556,-118485,79401,20146,-39496,104058,-15882,35250,-56334,19247,80935,31476,114381,-74722,67282,-43100,-8699,-14441,52170,95833,-83049,27514,75767,-103256,-61650,-47990,-77227,-34089,-7075,-110284,42360,-78684,35245,28165,-108302,75268,-15138,42277,-116501,-47378,-103070,36415,47583,88555,51642,22327,-98379,-46297,-10669,-44087,-118299,46773,-107204,83186,102953,-394},
	{-51364,-50678,77358,76557,24843,-26976,-22367,-15006,-83507,66653,55271,7787,-22107,-31812,100280,-17085,36865,-22777,8250,-38885,8764,-6189,-113167,-28575,12438,60834,94747,102535,3662,106993,-39243,-108539,3104,34106,61400,-84856,25753,111470,51902,38590,-81588,-116977,88821,-95953,-29716,3059,112117,-69917,-4658,-113103,-45198,65353,102937,56047,91801,-84166,-35243,116643,103020,-59114,-108725,82093,-111397,71920,-61581,-14867},
	{-79169,84178,-98932,56771,-101960,-15552,102731,71221,21167,80894,-9488,-44937,46734,-2363,-59013,-1030,-30716,12758,-42260,33141,27340,7054,-38352,73789,39878,85430,-4672,4273,-84853,60787,1708,33063,65103,44392,-44704,-101472,-33476,-8270,94996,41341,28083,-114224,46065,-88563,86533,-112953,-120660,93043,103691,-17994,58389,56971,-76329,58700,-2640,-48766,116945,14435,1544,27436,-43767,62972,-107989,83553,-24455,34059},
	{43938,-31021,104684,4442,-110517,109899,-44114,110095,43383,60678,7458,115152,-25137,40219,117391,14694,87323,23446,945,94728,-56621,-36272,-57730,105609,42750,-53114,-109358,-34475,48361,20582,-93837,56414,38443,48787,18934,112934,-82419,-46886,112919,-59951,-115284,-58791,60192,41308,102274,-464,-5703,63645,89028,34162,108253,-114711,-29018,26396,69724,-38857,-94929,-57722,7529,12900,57074,31902,-22245,16183,-53895,-37779},
	{37500,-84749,-39810,11032,-105672,-97115,-38472,25202,111064,64931,51439,82376,102248,-76734,-92016,93068,107347,-111724,-60618,-83049,62149,83263,86679,40695,-50167,111496,74427,82158,96453,2394,-100421,79009,-42470,-1975,90151,72944,-94883,-73890,68525,-79837,-108066,57386,-83491,1756,12269,-109068,-47933,-88351,49511,-86595,-71108,-115243,-23068,6065,-115335,68547,-70060,-50642,116037,43393,19994,-109231,-49341,70211,-96924,19152},
	{-77691,-69862,-9657,101636,3185,-104335,-42121,3559,-38640,-51273,43409,28562,-89306,-100062,99814,-113183,-59167,68598,-114143,-46187,85506,46409,75257,78832,29710,117902,55462,73798,12009,-8282,34790,3294,-111198,-66296,-111766,107549,3788,84157,27856,73565,-71600,2542,69968,-52209,-26793,-21248,118075,-32674,31514,-120321,112956,76438,102684,-47823,-42585,-34916,-84644,65414,-11558,-89151,-31104,-100725,-114364,6075,-57759,-5843},
	{-99868,-76416,-75360,-903,-19903,29948,-19624,-112243,-15737,-12401,-65338,-51702,-109345,117991,31507,-74315,-106951,-42612,69410,-44918,111706,119724,-3713,45985,460,-118046,-119621,-49592,97604,68381,85198,40798,57621,23845,-106721,63026,17563,-22558,-50588,-101691,-108143,117626,-62961,92716,37837,-5634,45920,6325,-43056,-18855,10247,-66114,-87312,-41680,77389,10983,21482,-110565,-103940,-76872,-75852,67991,-70746,55275,-52458,-71061},
	{-68884,9635,-22434,123610,-17107,103540,54480,-9502,32176,126065,79358,78131,75654,-63014,-79463,-91328,-71286,115992,-101851,59524,94781,34662,-110510,-64947,95062,-33137,79098,6646,-15083,-117746,-108520,-65010,53127,10200,-83601,-38434,-79079,-39836,3988,90151,49250,48298,63521,89434,111722,-47119,-18650,-84,117564,110695,-28027,54711,22766,97785,36773,62469,-18089,-15688,12448,-98626,95370,20097,107015,48744,-71863,-57716},
	{-64384,-5005,80241,50649,-65831,-73029,-107275,-42427,-100780,8037,57388,-60793,65674,-108118,-51394,-86899,-111236,31428,38616,81333,-99330,-25176,-30251,-32842,-21528,-21041,-38203,1471,52516,-100000,116612,-103653,-76326,67881,-76864,37691,36785,-32555,61143,30094,-110703,-29047,-639,-23314,-88086,18994,72162,-107655,90123,-66551,17438,-13639,61263,-9414,-78763,-99920,-10217,-89725,113644,10470,35839,-22300,-42556,-7277,-94226,-35827},
	{36387,45287,105352,11760,91136,30500,-107341,15233,-75545,-33860,-60552,-98599,73752,-37745,-139,-21275,-92374,-117744,-29573,-34836,4544,-100149,-111828,111839,56604,118454,12239,-82642,40772,-38038,-82415,82113,33857,-17808,50430,-110443,-10123,94434,10797,29585,45427,19954,6687,-5068,-28450,-3656,106798,61121,58387,-69622,-102076,-77454,72550,19267,76964,109694,30044,96335,16021,39377,28832,-19449,88802,-92672,89330,-115755},
	{8678,23448,-21072,62000,102081,-103270,10194,-84470,-71986,100483,101453,-107029,-118970,96009,-118290,-48321,-49510,100595,-35301,-49817,3774,-22899,73447,-31361,5300,-57064,-71682,-1940,-19955,101118,-20957,24287,-104470,37725,115453,62978,-70231,-112209,30425,69445,-80264,-68880,19287,-95650,-107532,-5865,-40189,108313,2431,-49554,17059,80710,-30361,4333,78128,13825,-106298,-9660,-74209,35213,105172,-31360,-84404,-44203,-12634,-107104},
	{68650,-90138,-23766,-18928,50494,-65296,-102115,33193,-6568,20755,-11819,87942,-16518,63389,112098,49557,89949,-86864,-2484,55864,15589,36194,-71305,-119937,-64833,-15093,19199,113706,75237,95186,-16378,-43815,84595,-59782,82021,-116533,40824,-99407,28993,-106153,-54095,16109,-75375,-17228,-76096,13619,23517,-70875,71669,66964,-43634,86794,78122,-6457,50747,-31195,85724,-105773,-99619,27351,-119539,97559,-18564,-113949,-6116,77176},
	{21085,-89795,-7634,-3870,107639,-41201,50583,-6984,-115282,79782,88050,46723,83315,-33810,-102160,-61691,17134,-82993,79665,82272,-89928,-119625,-93884,83954,88824,-18616,57371,50539,48104,-36597,-57602,87194,74608,117615,73851,94826,-97248,61165,-77568,89420,11672,111546,35406,45264,-12893,106650,-66373,-66306,15659,-18871,-37670,-21430,-102937,76461,33504,-82076,24232,102435,-69936,18607,-68903,-72154,50395,-85793,-101353,-92310},
	{-3597,-65638,-20575,-108512,74793,-47316,-54460,7274,107708,28862,-110083,-86311,-22111,-17976,73160,62932,-102722,95853,-12411,96317,-2878,-113657,-49988,-41591,26285,-72666,29585,-24766,-38177,88610,3836,3710,65900,85223,75780,114550,-42854,110869,16919,-91519,-95247,54743,36130,-44050,79507,-104679,-11626,98744,-66850,86498,-114616,-117851,-4954,33278,14667,106485,-67770,24971,109884,-56154,-68775,-36719,77873,85264,-103464,21616},
	{-62518,61906,1000,-64586,-2396,-109408,4122,-80332,-62076,28005,19148,-102083,91810,-67082,45424,117060,5676,-62311,99270,-89590,90003,91811,-17405,-114889,13256,87929,-76581,-14733,-108268,110865,25823,-76859,66310,-101678,44325,-57695,-4901,-43837,57729,81609,-113547,82246,81145,86962,-78371,19032,-47348,-115976,51677,-55180,52083,-112082,4436,80384,101595,-21249,19540,-73622,-106994,-43478,18740,-14932,104557,-40135,18228,-1541},
	{28053,-73749,66767,-62276,-48340,52658,-10020,31990,-68780,-5463,12043,73998,-8252,48841,93527,-112259,9968,-98574,7343,-27713,19219,17398,44714,76515,80560,-102774,57139,-33610,63264,37437,-84671,-86732,-90580,-9605,-69369,-76749,-33703,-84711,92016,52775,-5736,104248,56889,4776,-117347,-87215,-34885,-3135,-70174,-8152,-59910,86376,-9494,19136,-105742,-32163,-73083,51535,-23204,28194,-40324,18819,24715,28395,-104259,73564},
	{-25899,102391,-92641,-113948,61456,-103031,-33100,85075,63731,-19335,-98088,89521,79233,-52801,73097,5336,-48657,109276,31073,64223,56811,82445,-78833,-105128,-29076,-13017,-32213,-1417,-14721,13057,110145,-71176,-76558,-84199,95398,59830,2328,-32996,27524,-31996,46156,-26733,79682,17463,99229,100587,-91231,53658,-76641,42318,50617,-80396,-40156,15403,71368,45914,10581,-47503,-51106,-64140,72807,77588,-70837,-53632,-64651,-44160},
	{69385,56015,99302,-27670,12670,15716,76064,-92767,-10453,83369,35797,-101368,-100436,102480,-86639,-32008,102921,-36079,-11383,-68597,-117034,46548,-41474,-5885,-35219,111919,109265,59792,-55980,-77458,-73363,-56377,76881,6606,-6166,-70200,44840,60992,-43376,-17190,-111326,-28427,-67275,-96349,68042,101149,55030,75048,20096,91307,-6044,39783,-51967,38203,-18033,5034,21348,-1563,74937,99717,-97779,102758,-32389,70536,-93636,-94824},
	{-77196,-7596,95827,19722,-53501,36110,74437,74675,-80381,25006,78534,-39550,38684,-88638,-101786,-47832,51106,85027,59404,-70682,37559,-41396,81743,51233,65974,-54630,-42929,-38146,-96432,-107494,58951,-91562,91832,53576,45345,-93478,10738,-9470,47945,62958,94313,-32137,-4574,-48404,81882,98597,-77081,20695,84588,108951,-113419,-112496,114796,16630,-112591,46012,29020,-12882,-77191,121502,-35958,101003,-3509,-96581,-29554,-39992},
	{-121859,39852,57221,-72856,-106837,-25044,66532,38014,113791,87822,-81680,-24060,-21760,10537,-42577,-89771,-6386,55157,44177,-82332,73522,-81966,29926,77450,-59343,-100112,68573,-1535,103322,25002,4170,-30753,-61132,-86821,-76114,-50917,16769,63184,-43824,-75059,-61807,-24371,99484,-33828,-64240,-21215,-86799,6712,-53436,76242,-97513,-30329,-71646,75050,76074,12273,91502,11862,40174,-12413,-55929,15812,-76446,43959,21732,-30508},
	{19743,-104873,-106567,-1981,-102934,12802,-14781,-106863,54426,-35965,121750,100382,56689,-17384,27430,7141,35991,-110721,20403,-52615,-21960,-97191,101936,-12815,41051,23723,-11868,74857,51,25662,118257,26339,-67922,98929,66425,95275,-109582,50524,-61706,106433,12730,42231,-55357,1110,14228,-39558,-65163,36196,-69219,57226,-123987,67326,120703,-15474,109853,-69249,47790,28886,53716,8178,62126,21936,-117545,92879,91564,-98868},
	{-107301,6500,89300,-107110,39708,-99844,37832,91307,-47938,-118999,-84539,-115283,-83014,-104271,-27274,32323,5084,81704,-61071,44985,-85867,-70212,83072,57692,-72010,-92028,-26985,5001,-60858,-64482,-94164,-98281,-25028,-49968,-32651,-97602,44460,80223,87571,63677,16695,49661,-63090,-113056,-32179,75838,3093,-7699,-76943,65706,-69406,-53130,99721,87603,99788,-75428,-96169,-31257,-1215,-53846,42505,5022,-51543,21181,-74084,62657},
	{16082,28415,78737,-16756,-42589,-106561,30551,-41174,-66148,-90417,-49108,-90697,81166,102350,100963,-110050,99824,23895,-121158,-4847,70648,10944,-1093,120085,-32965,-106229,-9054,-52883,75948,-108503,27423,5410,-107095,114542,-20299,-87512,71960,20138,-69669,-53048,67850,17994,66408,77370,-65693,-17149,107345,-7602,90379,73810,-46571,-9007,-22022,42264,-60301,-9180,97564,-19564,503,-109653,81258,-111747,-73295,84556,17117,-19609},
	{-73862,-118475,31787,-35708,95052,14716,-81059,25943,-4332,-79761,78570,-76048,47326,-72777,-43958,88085,97188,-40103,55028,83732,88151,65497,106990,76611,-109310,-101974,117965,59008,-85356,50678,57933,73408,-29266,-70792,108304,71973,116622,43922,59821,-89303,50069,-8157,-52255,43220,24544,19309,-61388,-37460,-67242,-75973,-96158,-78901,-35364,-11739,-10495,56809,93034,-108193,27673,-16812,-91386,108537,-96383,102202,29345,109989},
	{41338,14754,52487,-23920,104517,-25857,-41602,27147,-11294,-36443,73757,-78811,72764,120510,81351,-4761,-78356,117521,-60550,-82410,-69453,-43993,-45835,-102643,-100176,53188,24548,-33493,114159,-109851,-27730,54045,-51775,-109104,-85481,78898,-70976,13228,-115455,-15537,67289,103586,64297,-6134,14631,-103342,33956,106826,89415,39515,37104,-29790,77529,-89102,-59026,-72737,69501,-23556,91272,-75353,63571,61026,1666,3714,79040,52965},
	{14405,-20714,59205,69020,50043,-49942,-29612,102688,-4349,4767,67515,-29752,87022,45568,117560,106287,-104528,93749,50692,-4674,42698,-74535,-23613,61276,-24178,28734,17334,40887,-83319,38950,-28634,103949,-35599,110337,62665,-14297,-116423,93112,92983,47739,-117483,-66542,13031,49955,-49474,79406,43840,28195,-17041,18655,-79252,78608,113771,-89263,-107582,-49195,89522,52240,82376,26600,-35080,-61819,-59308,-110029,-47349,-50719},
	{-367,58114,-86030,-32225,-91697,-98738,-8207,-49612,-12692,60012,-71499,109465,-83465,-60261,-97078,89882,23342,21485,-50037,-60800,75366,88421,58674,287,78100,31358,96603,112523,112375,33392,-34461,118636,-31920,99183,30343,9911,-24937,-37949,-90431,81466,-82745,-60428,-42971,104204,-9169,1220,-34296,3485,-86528,30984,47509,72176,65717,-6505,-61802,93006,-113811,-49614,90481,27065,34575,89881,-20518,-109878,-59527,-69916},
	{117842,-66473,75579,119807,-110411,-31573,-110622,41326,34516,-41446,-52168,-72204,-63817,40708,41323,-69456,24298,-12968,-87634,-59734,82946,73612,85333,66462,11465,-111598,116950,-115709,-96553,-47938,-2578,18637,50730,76018,-71723,-53598,-20845,-96292,-31246,-78209,-82663,22601,12311,-95308,41387,-9859,-108780,-23180,-61178,72172,-24874,66232,-84813,-83426,-84053,-76283,-117423,-3417,-93830,20139,-8362,-40989,117898,35329,107491,-64244},
	{37059,32751,11054,-39119,-24993,-22008,91450,61848,99553,109886,-110858,7171,-75050,62877,-67071,-30669,61605,-54190,-85561,66492,41861,-113499,55540,-47079,-87094,41742,82032,44631,107952,-72930,89657,63629,-4872,19856,43739,-117007,60596,35105,58491,-49713,96776,-21934,41930,5556,42269,-87007,-54384,-21717,61572,27627,-114619,68943,-40654,-96100,-42137,-41823,-16045,19485,-71833,91804,-47302,-62451,12950,15208,38781,90072},
	{-109541,12748,108126,-11315,21905,88937,-95830,-12995,84741,-90715,-38495,45941,74930,26628,113883,25301,-77707,-94784,-93133,-120276,67840,-100023,102184,83330,-26414,79156,-106086,-82977,54875,-95202,-31516,77907,9940,-93295,35028,-39081,96283,-64743,-48379,-84035,-28782,21981,113440,49450,-106418,14385,76080,47350,-45366,13519,54380,75660,24925,-9974,11868,63940,50402,21345,85217,91550,63169,-80707,30501,41340,70249,-20154},
	{-82586,-113045,-99309,-118606,58899,-90408,-23659,-22137,-44625,-4866,13917,77819,-3752,53588,27669,54069,-104147,101042,-59118,41122,57160,49543,-71852,16098,-16003,-44342,43360,104231,114129,-72684,54889,-50392,73430,82798,35458,-34798,35834,49548,106198,-88971,75435,114055,83197,80734,-39638,-57047,-74285,-65657,-44255,-28693,-48717,33089,-22912,104621,-104977,73913,-46939,48212,-39826,-96233,63954,69776,110177,43891,-26127,23211},
	{22452,121328,-40805,80057,-49378,58902,-4052,30050,108740,-78038,34613,88753,75113,103788,-61790,-18880,-87525,-101806,115040,55286,90137,64331,-14205,104705,30479,-78813,91537,-95996,63541,87913,55100,-3326,29448,-21851,111224,-21239,75596,-61745,-112340,-85961,-74648,-109246,84954,3749,30078,-72831,66584,-119883,7550,28448,-93635,72032,92615,-105399,-2474,-105376,89809,63201,16555,72357,-27702,58207,-11816,3893,-15658,-852},
	{-96933,-44976,-89508,-81161,-15852,94193,87270,53781,-100661,-70337,-47742,-97603,40623,118465,58303,4288,-116599,99890,32995,-14946,27405,8885,71415,8428,25587,-90538,74567,-108023,-89349,-5734,121814,-117065,29098,-88664,84079,6963,-24372,-62471,74740,79103,-21178,-72501,44903,-6454,77105,51704,22171,106635,79648,8787,31965,-41097,-109553,107067,53419,85472,11391,-49239,8572,78393,65162,20492,46782,81387,-104653,76762},
	{87542,-62780,94878,-52757,40917,-105205,96551,97094,-34294,-21050,68938,104183,-78462,9444,103183,113428,-366,-103533,46516,23724,-2176,-92875,11852,44101,-6007,-95682,115846,88417,46987,88791,-75503,-97982,-47362,110789,-18444,40973,90079,-23,89142,-59489,-98963,98247,-1348,-40665,-120085,38371,54242,90647,108624,-59921,-12957,-64983,21961,-107980,-77390,-91215,-50743,-95479,-50307,-60517,-42153,108109,119032,-59276,49547,-67478},
	{-109852,12285,91562,-113513,67571,-114193,-82034,41497,-107602,108234,49364,-100533,-75272,-100449,-40560,-109649,93469,24981,-51723,10769,20329,-59510,-2737,77982,59783,102315,-86885,-73101,-44136,-44785,-82241,29668,-12349,-17594,22213,-74811,-106499,-69978,36424,107232,101294,5178,-58955,-1001,-80576,30317,-112349,114886,63947,87235,-113624,-30221,32525,-37052,87321,-91057,-40797,-3300,-45504,-16060,46197,51884,80582,75321,57344,-78157},
	{87014,-4041,-25758,34700,-64393,47612,-88416,92871,-30772,50295,-49715,93784,38867,-82009,31559,-64106,36575,-13100,-32838,76858,114072,-45934,39225,-71858,77636,99152,100336,-33717,-21349,-9018,75656,82197,100282,34049,68328,-53558,-42518,106494,-9408,40115,19729,86222,30558,55734,-100053,-97445,-20839,45180,-5801,111347,58512,109487,-117895,86846,-116286,-32517,96974,-118301,-53973,-44091,63137,-79662,109632,4800,-40678,-96755},
	{-79336,-71571,-98288,-36984,109490,-94554,82282,-90600,46533,-41494,90873,-100052,-14761,42433,101384,-60261,42176,-71618,-58378,-62215,-98868,-22131,6397,-41693,-93696,8486,54393,57901,-96907,48544,-8134,-12169,-90302,-61658,-55052,114015,19290,120389,22653,-57991,-52417,-54028,-31867,25455,-94584,-41181,115563,-118286,-1449,-28219,114890,3806,-36895,-100822,-34275,-63947,35252,108630,-50825,116955,-22626,107669,51748,-94332,-81594,119897},
	{64541,-101089,57947,-15540,-118524,104926,100238,105638,-83388,69160,-84798,-118548,-99965,48515,-73035,-59735,5796,105126,-53197,-78043,6026,89935,-91875,48455,57641,109763,42095,10717,-2574,25804,-8697,-1843,-45298,-4711,-50684,114759,-72822,93750,104410,26616,39797,-69826,-110916,24122,68888,34360,6879,91710,-47585,65379,-113668,-86742,75722,-73082,11781,117056,-68594,-54930,58045,58048,19984,-86721,-66286,-26994,-92848,1367},
	{-111324,82371,-117927,111893,-2928,20025,-34015,-2109,59011,-106402,-43350,-10931,77448,34798,17168,32671,-107783,67960,22918,-43588,-2932,42675,70019,52000,-106051,13693,30538,30435,-89802,-101061,77962,31329,2431,-74815,24169,-78205,82622,113487,-68832,-113787,17488,109583,-105494,-96995,-80595,14407,-14389,6009,16198,55174,-115067,-29800,120403,20153,-113212,24308,-67933,-103067,-68960,56643,-89309,73747,-14653,-80084,95321,-30082},
	{109215,-16188,-112601,-42649,59130,56998,76397,39938,107148,-19861,-1960,75072,108848,6999,-96695,490,108827,-67409,30121,-72771,9139,26424,-73664,-60943,108696,17179,59206,100119,-80014,-92997,-92320,-55303,-2705,-53730,-65945,-5426,16729,-2787,76520,-51629,68048,26684,39609,-85619,37157,-59545,98975,67651,74467,56395,108233,12367,97395,-11862,61539,3565,-92663,-50641,-29043,95806,95019,76831,-34730,-75422,22884,46546},
	{114467,107927,49635,-86540,-19429,-13245,-60198,-74332,111645,-51476,-48009,70785,42056,81635,65962,-46936,-51348,-110676,-42054,52803,42576,-111438,-116472,104326,33207,-23564,70549,81680,20134,28131,-28658,-8910,-4117,14132,5609,52461,-34138,-56711,63395,110530,3440,-92004,6434,25923,-104164,-23227,-106421,-34468,2970,82703,25135,-55339,-67522,-2077,-36257,19341,-111432,48598,-65167,89034,-86088,-56043,-83858,-4,-15355,-1038},
	{-78355,38701,58627,-6659,-110379,-5684,-25538,72324,-59913,25367,102428,-40225,-14769,76233,61047,-72301,25353,-115061,40302,34446,-4451,-116818,-19104,70707,104748,94519,-33685,111834,68443,114330,-64090,-36886,22672,-70264,112069,-8012,16916,-95007,-11269,-83160,-15720,7536,-28310,113480,-48866,-114433,18623,-30859,87567,-117618,-75387,104262,17493,36277,-101415,105298,-25764,112949,-19158,71957,-72161,73450,-42548,97194,-83089,-118430},
	{22599,77240,112956,-63539,86081,-13270,-21293,-28549,-103945,-109775,43409,-94076,-63619,97756,-73326,29944,107047,39557,-116473,-51748,95056,-88326,-96526,102813,-76849,-56465,73348,-105960,107600,-77696,-3325,116441,99740,47057,78958,31828,3192,78766,-21678,42550,-93505,41497,-55668,47029,23872,110901,9443,-25612,-96141,75912,22509,100667,-57956,4664,-87830,19223,-34576,60773,12046,-80038,53485,-103971,23890,94037,23394,3799},
	{65156,-8573,-31787,-113155,-70703,61177,15544,-39746,-88720,18135,-25312,62087,-14628,121268,-89357,47562,73342,-111397,54315,-114411,66670,7386,-50898,-85631,-96546,-3435,46846,-18440,-70152,-1561,99072,-95731,-39107,-43399,-18149,-49674,73408,-72991,41619,83821,-10199,77283,-29401,-93266,-52950,-62873,-117458,69829,77707,-20259,-18160,-12499,82653,-9612,-98827,-45916,4395,81289,46182,-109550,-51930,35490,18575,106352,-103723,-103501},
	{-41437,-86634,-28199,122028,-64117,59476,-107110,-11144,-29737,-48595,-85676,44386,-65168,50788,60914,-15427,-13540,-15961,-18569,31424,27784,115675,-60918,21430,-11700,-34703,84433,-68498,45775,17044,-30605,37324,-81318,-17610,31337,-59779,-82654,56572,37202,97119,70144,-110043,-98499,-48273,-41843,-87471,-69130,-20918,97083,-53564,78805,-64987,100115,41443,-51346,17111,-83644,-31473,-70930,40744,46394,65998,122535,-8419,-54373,42283},
	{-85198,76203,95911,-55115,-65826,-41586,-36516,-73627,-66610,-107601,61190,99255,-63145,-17374,103499,-36634,64025,113442,90822,-46964,-76263,-74841,64768,105836,67019,-103486,93213,-51519,-86148,-52834,51907,-117818,5418,100135,-25710,66237,-70771,-113701,95614,8290,-100819,-40322,69777,-56452,70257,15566,-60136,-46777,109548,-61037,20301,-60999,20536,-45461,-97029,-86500,-58975,34010,-71034,-96802,-116893,63150,40028,-22283,-74444,-40077},
	{-91647,109406,-86863,-8861,-75962,-50720,-107987,11448,-84261,24366,-18067,90422,-1025,86534,-122241,48993,-33572,100071,-62314,34851,8273,58921,3848,-88552,29062,102175,75100,-37522,-54527,45335,34582,-26525,25663,81914,96175,108408,-37147,25239,-89395,40887,-106971,69438,-2705,93871,-15629,2085,118805,-65103,106428,40661,34982,910,-61464,61032,-15792,68639,38824,18986,96976,-3561,-77799,1410,34501,111028,272,58829},
	{98373,-118733,113099,105475,-33449,-82508,66849,15948,99111,23867,49039,-25493,-112597,85807,-59102,-4096,-91681,-70331,-97806,-91516,-19245,-113645,36819,64717,-118419,105233,52187,-80577,101620,64105,-96533,91715,116222,-82605,-82229,-13489,-89468,16434,-31366,42015,80406,-52713,-110848,-36722,13948,-60513,74151,99068,-60035,-34918,70824,105089,11669,-10077,55357,-38251,-100389,-93201,9196,-47427,69557,-101252,-78370,-114795,-10787,68779},
	{-88221,10855,84444,-112863,3864,22572,-59039,4736,44412,93975,2242,33100,96680,-37754,-81462,-16784,17913,35808,78394,93856,40258,-18575,-11843,47791,-96569,-106471,-92994,65798,-44954,71401,-1899,-94005,39743,-37803,81217,42838,48579,-81852,83471,-36767,-2357,54888,84442,21695,102168,-26791,14407,-95893,-101894,108082,-104688,-6656,-57429,41622,5386,-51990,-33828,-23630,53069,-23958,-24927,80284,-39852,32073,-55052,78281},
	{-98354,-55857,44606,89168,40146,-105250,69831,-66957,38173,111132,-62138,10766,-94289,-66120,-22875,56449,-76692,-112546,-7553,84056,72516,-23888,102486,-31386,-36206,95273,-75472,-76867,-119062,-47796,-83046,-60360,105084,40737,79491,-10456,-97302,100933,1676,111261,40049,-53187,-16826,65162,42244,-51151,103292,-3406,-41781,80912,-1309,-115513,14994,-104667,-92145,-113886,-63255,63239,-39045,25181,33081,-78230,-121317,-6188,70060,-101624},
	{-43745,-112479,-22352,60965,30821,36974,10367,-71213,-92782,38628,52205,102622,-94454,20302,-44163,114959,-10412,-47395,-87969,6953,-15720,-9968,24953,59999,-103250,72892,-84460,113732,-21606,118827,81882,-56437,114395,4082,-10492,16689,-56484,27144,-34279,62948,10566,77615,-24591,-39223,-32575,19237,-66377,75262,-56969,-9254,-38111,-10406,-28837,-5938,-3344,67843,-89141,-5091,15707,113611,-32416,32331,-61741,-8173,18921,18346},
	{22485,-96550,11673,30850,75929,20763,7262,43984,-102226,9657,40024,-46188,-23503,-52980,-73861,107413,-13806,-96570,105738,-33037,-75086,-63796,-5946,97984,105173,-10663,853,-10680,60333,41113,109424,32869,4552,-86528,85504,-79198,10933,-83777,18316,-79493,26756,-28624,-111460,-91375,8755,52648,113622,105619,-93904,-77877,80146,94441,-116846,-111725,33624,69766,85898,69488,57451,-78864,-11597,-48776,30163,109362,-9892,-42686},
	{-32206,85478,-1967,79356,-112444,40358,-37600,-76014,12959,16077,57828,120795,74480,-100207,108623,109589,-33044,111947,-65211,107562,-17331,-11726,1093,36314,-111558,-110326,120280,80650,-82200,-83190,-61972,69727,43495,19248,91510,-28386,-48076,67832,49152,95944,-88253,101093,99059,8579,-89509,-28454,-45516,-24489,10452,-58781,-47360,24889,-17502,-16205,69502,26750,-44232,-3488,-114100,57534,-115402,124624,17514,68367,-121510,37058},
	{62188,5549,-94277,22468,-81585,23655,27332,55624,58274,-10970,-521,-66526,85154,48562,-11589,-108771,102405,-63559,49543,-50789,98865,-90516,43886,62319,-35658,3576,2731,-89678,-68112,-34872,17318,103885,95369,-28697,-15543,53813,117291,-112285,15695,-2343,33828,99248,-9399,64295,-91875,22583,119462,-50066,60402,-22111,-65143,88083,-43207,31109,27738,-26339,-69488,-106675,-63827,-75725,112018,50783,59551,-111202,75493,32329},
	{-108520,-38916,-28234,39824,-117392,-96588,-21765,-29052,115014,-40973,67159,110248,-109301,-75045,-68512,92946,-78839,122054,29525,2413,-33432,52163,-59879,-92172,36994,-4433,-55969,-66800,-69120,-118948,-115967,-79787,-3166,-121528,-115451,-82332,-6740,-56156,26749,40005,-100536,-84399,-92819,-35826,-19037,-117794,-115868,-7177,75059,42749,120177,-52290,-31178,-48902,-35597,30109,51385,-76006,-17260,51110,-20757,115228,98219,-39826,15236,-51660},
	{-14778,87580,49249,41904,-51562,40022,35024,107089,-113115,-108527,-113468,55525,38185,-115457,-60776,-6201,104653,76202,44540,16541,-31895,-94668,-55118,-80379,-46538,-74971,-118719,-4439,-6369,-81356,49777,-15719,-22833,73839,-24401,-45752,-68577,-83822,43462,27436,-101996,-28958,109437,-60279,-97248,49585,-88912,83742,36488,-67179,2452,73638,73311,16282,67944,-117400,57034,-45542,-62901,-16704,-100370,55936,-15287,73613,10225,59725},
	{-46565,41540,60924,87100,-59070,-2866,-19291,-41297,-43548,-103263,16454,-47057,82122,40238,-14447,32784,-90559,57229,-22978,61515,-44541,46524,-115976,-6315,55051,52437,67535,62433,68229,-72815,57444,-18323,-94090,-113910,-788,-37003,101648,101291,-83370,-30050,-57484,10343,107593,-104403,60688,115888,-21031,105327,69207,-52218,-5016,-35498,63201,114359,115077,-72672,20238,14948,-45340,-33620,-118565,64141,101909,78658,-124945,-82338},
	{-55224,-95692,-98237,-58565,66607,102375,-56572,-55876,-114268,-26713,-114756,29855,83168,46202,-108960,81740,90665,-61426,-73342,-50077,-64086,51645,-74398,-59179,118030,101231,-64899,-70727,-74886,5054,73807,-91195,-41867,109732,5010,53606,-83382,52948,1466,-43527,77688,-109945,-103608,-104184,23994,-91934,54517,36822,-22793,110509,119735,99990,-69817,-107315,84277,-100556,-100960,-85170,94968,90178,-49884,-18754,-17834,-117148,-90733,43582},
	{84354,-58173,-65673,66527,36577,-56301,42348,-5021,19680,71348,-48578,-104955,91597,-63739,108104,-16415,30102,-2940,-117241,99097,-67737,71009,-10647,-34817,74652,5812,95513,100902,106805,-46190,9785,-88022,-66063,-50411,3718,-77434,34342,2366,-108438,93244,-82312,-66934,-88446,-564,-93487,-84670,-117432,-39294,-32929,-93092,-50565,114172,16570,17286,23248,10585,17530,-100015,-62175,53783,-9666,90235,-104940,-120158,-46355,-22141},
	{-19246,94295,-94876,-48534,-23268,68925,105350,110612,-64657,106523,-83155,90557,-70111,56076,-107959,-74450,-41178,86502,76291,46932,-46679,-112180,39944,296,59577,-10580,96239,76678,98140,-104234,97447,-57750,10101,40149,46619,-95489,24484,-1017,66011,57004,-115022,-115893,-13886,108484,63793,97905,-17446,2457,32416,21139,50263,-18203,-22365,-72601,-16974,60360,110582,59617,104722,-39313,29288,-110750,10500,-111526,-101356,100316},
	{-116555,-24896,-113415,-56279,-30075,76485,-1481,-78814,-48905,-120675,-109201,-107020,-14708,64506,34978,-4951,94515,106864,118228,7510,-72499,-13451,34325,-25643,-21901,-38119,-55879,-17660,96521,-87000,-105066,-3851,18948,-38090,33986,-16637,-115313,24169,-69456,-80784,-69276,50669,-106696,-72097,81541,1318,-6740,76251,-5441,-99864,-41270,3997,101546,44683,-90730,103344,33376,-4076,-7353,1027,-15992,54277,68565,75725,5962,65477},
	{99625,59999,86302,117353,-57005,-109888,32963,46571,-57799,49179,60569,-87437,-47524,12624,109509,62972,13600,64746,-52327,38902,69565,99220,103603,67759,67613,104218,-98764,80853,32291,-72583,-97738,-105451,95628,42980,-10010,60186,-60602,4322,-87960,-15685,-64018,-31275,-56894,-95292,101014,-14701,-62322,90628,104063,-68810,42439,-36639,14689,-77228,12881,109323,-90740,-53976,-53215,-13512,67026,112655,-109174,105418,-1821,113490},
	{-99564,73565,-52332,25104,-46599,-96923,-41039,-63842,-80891,-81959,102366,-20737,-90747,-472,-115862,-102104,-47135,-63725,-61310,4338,87126,-4559,95471,-38990,-70890,107026,6726,28515,-114687,-16485,17588,-38425,-79418,93634,79417,93423,-15781,93767,-42672,10598,-51583,-78887,8554,-67056,-80281,72704,-111423,104331,-2097,-11961,92515,-41773,-22078,64279,24311,31987,15230,-103644,-98481,-24018,-41959,70698,-3661,-21476,-80044,117283},
	{-29405,31864,115980,129316,53823,107872,41139,-20,-34418,-25651,92484,50166,-116226,71653,59119,34820,993,-69239,-117401,106154,-66356,67614,94952,-24946,-14121,34589,-19357,-63111,-33078,-50583,-109015,53767,-91551,28755,122507,-89846,44275,45769,77844,-101012,-64701,-24773,-93290,-64766,-51630,71942,-74331,93519,-104887,91537,62150,-105206,46632,104268,18110,103900,-22958,-5071,-3482,17722,1044,72404,-62559,5683,-104145,-60125},
	{-50712,-4178,-77167,53583,58486,-43775,-108832,74947,-65042,-852,-84245,51137,-46191,30953,68951,-55648,6660,21898,102597,-51895,-103077,36364,15000,-78176,-30024,-12519,-20757,113336,-48286,12869,65495,31874,108281,-8582,-2316,-92474,55493,-100374,-8618,31159,-110600,-46060,-82644,-85411,-110821,-116582,-99518,-79415,-60707,-119933,75255,43570,75430,66174,-43328,107982,-82206,-107407,-2328,-81750,109504,20971,-123661,-99777,-107231,67059},
	{-75008,33977,85287,77680,-76411,-33297,-64812,114455,-19764,58278,-57824,-61976,54100,-38366,-6286,-84716,5819,82227,-77034,100372,55267,112749,-83176,-91179,68820,106701,85252,44394,84429,96721,27249,-90810,76663,31850,-90738,81936,69868,-5420,-47631,-44304,26701,113316,-81185,-104464,57307,37323,-22194,-90100,29451,-83355,-30077,-104166,87440,14452,-102319,72562,-88796,-63855,-35957,-78708,35285,-54937,94927,-7699,-16718,-84895},
	{18176,-76130,76619,115165,35169,116548,83856,85901,78635,11524,71395,-24808,-105429,99490,19974,-99367,-76135,46493,96217,-13518,97944,99408,24966,-75565,110132,-44092,-7833,-30007,78161,100867,-109921,49314,-84559,-109511,-99034,7807,83946,31707,84181,105234,68476,70027,-102784,-67672,-26518,-49195,-110071,94705,23156,-495,-35853,24477,28906,-47018,10120,-82921,61946,-13655,107929,86687,-41552,-93117,38367,-9921,6729,88741},
	{-48399,12263,-80973,51253,16784,-85669,83812,105973,-15656,-34080,-93688,91606,13431,71300,8059,42191,113767,-62839,-80841,-120144,-28666,-80768,9358,-65042,-28055,42924,97693,11553,-85755,6732,54992,-38069,-32214,-45294,-109601,43686,-110959,58815,-60306,-4120,-69080,101946,101947,-95486,106874,-109142,92146,-112737,-86914,116731,38260,44788,16324,-39308,10607,-45669,33297,-33212,-34572,-63707,-44487,91033,70870,-4817,83727,115320},
	{79678,-48961,66236,91515,12353,-45887,-113355,-5012,-92059,-38571,-42831,-73195,-83152,-103452,85113,-78307,-56597,-47090,117312,-21126,-115731,-98445,51630,-72834,17214,40651,107591,-54554,-1871,-94054,-44707,77886,114857,56107,-99486,94852,-4322,31478,84645,111607,99391,99668,2925,50372,55466,58461,100283,-57393,46193,-7824,-73207,95315,71676,-30236,-16042,73358,102241,-83925,110758,100096,-86367,-66568,108640,29674,80885,-115234},
	{20010,-57290,-81884,99276,92586,100811,117583,5454,-27659,-105462,-8669,31498,115268,3727,61903,-76074,55046,-5579,-46970,106568,13046,-37134,-79569,81943,110838,30269,29026,92022,56879,-105275,88960,81580,-8311,-84312,113984,-84752,-53808,-99598,-5556,-61698,46311,60395,-42302,103796,-11222,-65814,-115179,1229,-94694,79059,-87736,-62784,-22228,6458,-9956,114492,-50465,-9571,31458,89534,113112,-97596,-95901,-114564,114211,-95084},
	{-119346,57654,91368,98012,-44290,123381,20694,30189,20231,-7992,-113292,-37764,94533,-51115,-62558,-96354,86893,-90657,69356,-43025,-88646,36668,-19104,61697,-26927,30343,-1397,-42088,19658,-103884,-101598,-62004,90613,-32042,-61954,13374,35012,93541,-48193,35881,24385,-113891,41703,-57910,17119,60337,-105142,46748,55080,95131,-63457,48522,44016,-49731,-110738,27565,-19434,52191,103922,-34541,-59048,-84732,116701,-7604,86208,-35758},
	{25782,72696,-78813,6725,-106488,76449,-100316,-110596,-118288,-43317,-116175,-18947,-118660,8366,-112448,29332,30742,41825,64844,-84506,79425,-53400,-31601,-98068,-41599,-96324,33503,-85875,112450,-93799,-59957,115660,-9840,120711,8389,21566,59482,-47435,78653,-116794,-44706,-86715,-81664,47213,23960,-4501,-106236,88068,-23896,50874,-54836,-63847,-52643,15474,17905,31584,-30571,-84950,5194,-8354,-60970,39554,-75505,-20780,97531,102900},
	{82473,98781,76770,43666,85662,81626,-30744,-14967,-90086,96304,-94106,105814,52023,93477,-38853,26019,59073,89945,82619,-55848,-33596,111846,-111956,28242,-72003,61017,59159,-85093,95445,-26459,16207,15316,-110456,89695,-20983,76355,21410,43169,66978,-74303,90058,-31102,2771,97442,-96826,48701,-101852,48796,-88012,486,-30251,17138,-38150,70281,-83738,-107861,-2666,49724,-67607,-76328,108709,-81800,23314,79938,-79030,-37817},
	{94024,-66699,-95590,-12415,-95639,104948,9478,-76026,-70181,-30212,59522,-52207,62628,-103574,41528,32051,45320,-109493,-59658,24998,16172,84177,-47369,-112185,56540,77362,15431,52585,-69071,-5860,-82041,-76576,36490,71419,-60875,-21786,49851,-6767,80196,86352,-75508,5996,-11137,-15100,45345,-105867,39609,-10490,-63289,-72072,86176,-61316,98809,33080,3344,-86772,-94248,-106608,-66370,19220,-113833,-62059,-99581,-3902,-19715,72583},
	{-19213,-25169,91832,-32374,83488,90223,-81381,66330,-66677,105554,-55463,27420,-109127,-7568,-11568,-51568,-117635,-49397,15961,66756,100033,73252,2276,-109505,105877,-10674,43715,-3124,-93466,3723,-102912,28155,-25601,33435,55992,73166,105183,-34033,61215,113181,-16014,33171,19987,18293,39353,-119542,82644,-75639,-78767,30744,89544,3353,79393,63061,-102649,96969,-50614,-64045,-758,-61041,2569,3441,77368,29624,23179,102419},
	{-95840,-74660,-8551,-104937,-32336,-104938,-10024,116200,69800,113468,-4614,-25635,-56634,-37645,-107220,65746,55111,56065,49550,69264,-62616,33872,-31711,14212,-85973,98418,88250,-46990,32998,-111735,-67668,-34537,38155,119272,-42164,88494,-117208,-113669,92879,-31811,-37343,-45684,-65345,-30587,-44354,-66537,86331,49485,-88994,34679,-107655,1132,-57995,-97616,39737,-70501,8868,113133,-21006,107860,82270,102363,-55287,13464,-174,71789},
	{-88908,43172,60059,-4224,109018,61748,76592,21441,-33830,-45807,72988,14538,57638,15056,-103462,-13355,44323,65323,-92405,-9960,-29310,52182,113208,-100107,117486,-29431,86283,111558,23067,-80811,-82551,-61654,69056,29519,-25747,60793,-18543,-18482,17345,-88574,-1976,66658,41034,-97550,74329,15943,54755,-41949,1877,53980,-69766,-41191,-711,-42251,-18855,11680,1543,20767,-65044,-35723,-23287,-34628,-99407,-98305,57439,84300},
	{111826,-22961,-37376,83271,-65625,108360,97236,-18355,-60538,55939,-21854,-9971,63813,-2264,10551,-116247,94847,-19943,5537,-27362,27145,-83051,114646,72613,-102987,30017,-79405,8489,105197,92102,88390,-2416,74702,-76171,81461,-82780,-43398,96270,116721,114909,112101,33533,-114878,37788,9436,69368,-109677,83090,67671,-72334,-114326,52053,-83636,64769,-36164,-108991,78481,-68922,24762,-72684,-56440,-47433,102122,-85974,108605,34543},
	{-37086,76648,-66557,32414,-93200,94778,23954,89271,101478,57615,18277,-36344,-46429,-36833,6159,114799,-30343,88934,-118110,-68307,100468,-46615,58622,-21823,-117839,74498,-41006,100534,96738,-112740,-71470,112244,-97510,-9330,-15095,-61191,-56257,-6665,-51671,-105573,-38982,1033,90324,13691,117337,-27016,18650,-8389,30855,29429,-5344,-89018,-51450,-91009,-111249,7671,25311,99389,-13581,-54226,30817,-120961,117130,79578,93232,80988},
	{101901,-22370,21343,44616,-69710,96754,70105,34593,-30238,86637,-69625,-3846,-47584,-14495,-103696,-1679,-13263,497,115645,89038,-85019,-108345,-29614,4353,-26531,69563,17927,-61387,64903,114270,17524,-4759,-42433,54566,90253,-90750,-64182,28650,85170,68753,-28306,-61569,-32805,91652,-47746,48117,-52402,-25633,66882,-83593,84765,78586,54329,41422,-100398,81566,-73752,20503,-38407,-43522,-57166,75460,58501,-107079,-104523,-53899},
	{67588,56396,88662,-12301,-105546,-40436,21706,61892,-42833,-110303,93823,119103,18033,-43866,-18881,-122368,20756,87849,26723,-96082,-90583,-103066,-6561,38008,-19816,25683,55077,-45254,-118411,-58206,93039,47076,98933,-42076,-93915,26289,89093,52086,61579,-93692,-34353,30278,119873,-34355,92601,4401,-107746,-43737,74845,78838,51089,110507,-38703,8954,-45374,-104017,-69698,88056,42802,79310,105236,-10037,-122661,-2844,-36393,701},
	{-29207,23834,-92672,50125,-130763,77117,28674,85856,-101694,-130536,-21305,75923,-9039,90783,-91247,-19107,10401,-39331,-103530,-7590,75160,-47669,5448,13279,-14530,110521,-66334,110356,63681,-82686,49174,-98689,1800,-44515,-3878,-11684,-101018,-105519,-88777,-22501,75055,-25246,-107170,11182,18092,-33344,81701,24913,8492,-85612,-57037,-107702,-68304,67608,-105185,-62200,98603,-14993,-67664,-75372,20141,52524,-52662,15390,-6498,-80518},
	{54583,101553,3731,75237,2517,83648,-91171,74047,116868,-76607,103767,4104,-10532,-100674,-70975,41051,58845,26515,41399,114708,61885,-87370,-54452,43379,-9665,-28965,-8892,85147,-110341,-1276,10960,-64170,-274,8914,-121815,60069,61304,-937,84822,-59109,-37683,-74849,-100559,110473,114083,-120844,51078,-25603,-111008,-22530,-58928,-117147,-49929,58985,52584,-116214,-31576,-110847,16599,71382,36993,-29990,-73311,52103,100493,-69285},
	{-81014,-71206,-64559,-9319,25171,9569,-49187,-9388,93204,-102711,18790,8531,-99840,51441,53281,65270,102843,110015,2283,-99153,49858,79840,-43812,33119,102210,55288,-88582,17142,68710,12613,93402,3314,33236,11705,-108373,-99463,84717,-20484,-75861,16394,-32603,2481,-59133,-28560,113311,-42040,19433,108527,-60613,32438,-92934,-9326,-89327,5351,103106,-62705,39793,98661,13622,-76943,-8264,-104470,66681,120452,22137,-25679},
	{-19919,-96445,41457,58735,-6017,-98966,68845,22226,-11848,117939,-106505,84147,22350,-54352,-68510,-63602,-60299,-69860,76939,-11241,55232,118058,43021,81455,-28543,-51987,-30601,64361,57226,-78878,2806,-29774,21679,116717,3452,-40904,56518,65365,47781,-91767,-52014,62735,-95461,27401,-64278,109272,-76288,97045,93895,-62732,108480,77729,-162,79114,103611,99142,118548,-40452,120028,-32592,77963,90229,28521,-2229,-84621,71455},
	{103994,33779,-32283,66677,78537,66111,89915,-34746,-117878,44690,-81042,13936,-7099,-37162,68618,-10451,28311,-21734,-76113,100752,-88138,54353,-16001,68045,61559,75537,-73721,27032,59251,102546,-45208,11000,-97303,6330,6700,-54884,-83446,-31637,44678,-101584,-49129,-87650,-45784,-69186,-117223,-82304,-55643,104093,-26270,72594,-18245,68245,-58607,-64418,4246,-29440,-70648,-106849,-5278,74451,-621,28986,-1387,-106603,65277,-106687},
	{-38244,52636,-83615,-28996,74461,80521,13442,30600,-38337,109800,-73816,-90320,-41783,64595,-51758,-6659,-16614,-99519,28174,-84324,-63729,-34611,-1995,89461,23541,-44488,-46091,43364,54492,79385,-90335,-53681,-98952,-93979,-71604,88407,64071,98929,110806,-21097,10448,-6617,-45937,-84608,-102853,-71127,-5106,32089,88677,105973,-114657,-74580,34973,-36728,60342,26571,63155,-102036,-84271,89473,-89169,102549,-95984,-78349,-117340,-72316},
	{-70424,72753,-70490,38044,-32248,77756,-73782,16013,95012,-71696,37959,-58438,63753,-82212,-53683,-47102,-54284,22956,86643,-10405,40863,-106266,-93321,-56742,-71327,55996,64644,65658,-51984,13701,6772,-83340,8769,18257,82913,-34815,-83732,91612,-112959,6054,-23316,32793,-259,-36289,-14148,49753,-70735,-115097,-78793,113778,12138,-76614,8337,-79002,56289,78375,90541,-15634,11368,-53389,120089,124833,109021,7765,105428,-4665},
	{15208,97949,86094,32930,-86073,-40636,-3573,-4371,-61810,-65151,-56384,81188,61364,-90643,102620,-89556,-113063,69509,134,95707,-90468,-99131,33481,-94167,-84939,-43232,103685,16429,-1815,1504,-84685,112951,111394,2358,-72324,74915,-116631,-12859,-64384,81430,69132,81750,88245,-14260,-87872,-103819,-50623,81244,120597,95164,92365,-86790,98674,101328,67509,42058,-49424,-36538,2552,-123171,9709,47102,-40206,36217,-98240,-52046},
	{-45379,2891,-75575,-93235,97028,23883,90171,-35683,-72645,70325,-103147,-112502,-42183,-62750,-97448,-25260,-40883,7922,-19082,54592,-6177,102534,33037,20646,105489,101848,43373,88217,53234,113622,50968,-93985,-105343,-18858,66292,33043,-493,72956,-64284,-31420,73629,75753,97372,75823,114792,-103758,-63324,-57304,8503,110901,-81487,46394,63001,21614,-69974,89171,-97335,-30616,-68854,-42030,90357,72350,1686,-47299,-38537,105038},
	{-80843,99215,115363,-88961,-16204,74229,-83081,-16065,-21954,34764,57162,10756,-121256,-104464,405,66586,-79217,-115419,2157,-90951,-68513,-49772,-101743,99956,-75103,-4804,-90129,76839,102400,-54669,-65586,12408,-90874,-8324,-82709,-21689,-66089,90024,-8671,65480,81652,-78756,22117,62295,-25590,91232,65554,85315,29445,-2273,-55302,80434,-73447,-88380,-69002,31361,-35990,-89918,94673,85141,19729,-115492,14857,13368,-77421,9711},
	{35387,-61152,6606,46646,-109465,105973,-78140,-21598,108991,-117398,-77918,47689,-670,-100056,88499,-59445,109022,3673,-71401,97286,12682,-39766,-63484,63791,-9503,-90768,-16750,80134,47,-9799,-114986,-82563,38435,-21003,89046,-119562,-36952,-104655,-73654,100839,33374,-1102,112853,104212,68598,12167,93753,-35910,-90497,-50608,26981,-47807,-83203,-99339,52657,95813,87947,-25691,47736,-94421,76336,54303,-17035,79623,-63615,-850},
	{43197,57118,41642,-109104,57812,42931,-109486,46926,-47738,78984,13703,-47920,-40637,-95350,28753,-94316,59989,93388,-29055,77197,75415,39367,75632,14313,29642,-16932,37562,-67246,-4441,114504,-42629,1822,38581,-75542,-13671,-80471,54038,113844,-27860,-98141,46837,-38021,-116151,-75411,-80058,78626,27358,-69289,-36480,74624,56454,19195,-106818,100460,315,61276,52561,37225,-39548,-116616,-52963,-77497,-30583,63854,50202,-68459},
	{78458,101447,40198,-93932,12923,-11715,-35916,-84061,-97832,-74590,-81604,-26015,-85081,109298,64518,94740,51144,11347,15064,94279,15281,12077,10311,73149,65263,-15470,32592,-104844,42620,-105876,-98839,-21519,74564,39982,4493,-33090,19147,-113478,-38683,-33505,26826,-64160,114311,88688,69428,109093,61838,14931,-109442,40253,26710,-54306,-75566,38969,17049,56426,-3297,-12213,-62659,87246,-38622,25073,-43662,-8450,7261,104909},
	{-92658,-63817,12302,14025,-64951,88288,-22866,80973,31259,-77645,-63546,9593,-101081,104900,43203,70198,-47672,-60370,65721,87514,72597,-116522,-16576,-107332,-73295,-46266,110327,-18957,8755,-58067,-99319,-30453,88145,-92129,56108,12753,14804,-33958,34039,80302,-626,-16523,-113284,-69067,21426,84891,116642,-12143,-18834,112301,104376,62494,-88283,-19323,66082,92035,52482,10264,18738,-6336,10773,66683,-5548,-6179,13986,25790},
	{-67881,61630,-110148,-23105,-12285,-112786,117057,83877,-97120,-68016,90466,88028,-27704,78792,27527,-112405,-114632,-55938,-48930,-104075,106521,-58618,117905,47939,101764,-20088,38172,-68993,-3872,-26912,-73845,28965,-19499,-30565,78607,14800,-47697,-24241,7999,46442,-44465,90041,-47890,18640,107747,-78188,108436,42382,81211,17820,106853,-89661,16446,-54749,-87254,-45681,117045,33292,-97721,7515,-98718,-100664,5400,89464,114232,-21942},
	{-66813,28961,-56564,-39307,97738,65627,-67273,-57244,47332,-110812,-107017,26219,74681,-77124,86415,126125,-46727,4856,-13442,81495,-37991,-67960,-90052,81064,50364,35946,-93629,100496,15319,34109,11117,114399,4297,62993,-31637,-43847,-59801,-36591,-108374,118710,6883,20267,-117593,62962,52339,-40767,-15688,51356,114855,109203,110113,-96023,-3257,-52958,48134,7073,-4464,-55832,-17325,38905,18014,70520,38066,112234,39614,-20344},
	{102578,-37650,-45734,74977,34744,-9356,-71534,712,25182,-88221,-81231,26768,17797,-85467,-98040,-72717,4651,2159,30336,23796,-88865,83538,84256,113276,-83440,-87996,-80371,-111096,40170,93949,-33741,-93132,-117110,103537,28025,-42738,-67029,-25610,-33116,-2310,100030,-51602,54035,66748,-33497,-62532,-1332,-18573,-13469,-82753,64806,93471,27745,-39669,-85902,65946,92154,-20785,-20028,75751,-5560,-24022,-104774,-31553,-113904,-39822},
	{83900,24990,-53313,-64139,-1921,55302,85189,-90774,91286,67100,-57527,-16554,-90719,1643,-52151,32292,61141,-94542,-66605,-64250,-94863,78116,-49705,-56008,53943,-110940,-15545,10384,53798,65158,-101851,6517,-80400,19618,28004,-7270,116275,-12286,-31602,39871,73735,-49239,-9037,5309,119458,38270,12811,13401,42910,55554,-35899,90105,73077,70062,19157,27061,100051,13701,-15922,-42160,77008,39155,-43208,52902,-36357,40874},
	{4557,-220,9366,-63927,92045,-100583,68090,-17745,-105996,-42375,-19522,15067,-45873,98243,-7330,-62028,-39672,-95233,15639,-68967,-73977,-73664,21826,-100237,-7379,101297,-90023,22208,102366,-64001,106534,16267,-107179,-68474,-114829,57581,48634,-77087,117508,-54971,99564,34319,-74760,-44919,-69478,-88978,-47881,-8620,96070,35018,-94871,-104457,24489,66720,31168,-12741,-58397,-30542,39266,-122826,64620,69766,89976,-87935,-108104,-97955},
	{-8660,75949,-37403,86540,-53458,-81113,109615,99521,36917,100504,-22351,-81258,31162,33162,73401,-74595,-55263,-98616,104176,72125,-60893,8283,-37247,7981,-45153,17822,-117350,-55671,-46298,92638,63413,76025,-29108,-106002,-62185,112025,48942,78220,-29140,14625,-63133,69527,75283,28494,4780,43279,-29915,-24119,-83735,104219,97374,49472,-88873,-60129,19750,-40802,6943,-51610,-105350,28493,22026,66890,31851,-20124,-78419,-8201},
	{79478,95185,-36120,-52684,46653,-64935,24739,109241,-15479,-13322,-85672,-31284,10095,-119377,37950,42772,101554,57815,102513,-18799,60652,56174,-24937,-74897,104056,98428,42019,-116661,-27016,43000,70376,-83482,22947,-33009,-112557,-101352,117533,112236,-70817,34545,22702,-89720,8671,112800,12214,3377,-38915,-61995,-43670,29844,53315,-96710,-31541,-108733,-67916,-106491,-102267,4422,-65814,-42601,-6413,16558,96569,-94845,34250,-30227},
	{75696,-88052,68634,-119791,-43003,115134,45210,103200,10501,-10747,-75051,15278,-24276,72529,-61147,112774,91325,102407,115669,65849,6171,20818,-78083,-66699,-34891,-80899,-19288,54972,7693,-54237,55603,79912,45051,-14766,-63484,53052,20017,54539,72930,-75175,108860,-81119,81308,-30602,-39936,-65949,61536,37702,-79230,-94461,-58283,-68681,-83149,104787,-69671,103388,-52366,80770,5888,-122534,-95261,73383,-79673,41047,-96634,-42941},
	{57400,56831,12820,59776,-90463,-125053,-90282,-42127,-48391,78268,89513,109710,66424,84754,-97324,14228,-100024,-46935,18618,23382,-72942,-21945,58025,92562,92047,5491,-113560,115505,-29060,-43316,-91818,-92265,-99741,-77849,-48824,-105974,65827,-84515,-7334,-72622,-64999,-46934,-95132,73769,-93322,-4768,106170,-39687,-81276,50749,-114031,3494,-69610,93865,-35412,7989,52167,-56088,67939,-42082,6573,-49331,-64954,95716,-61040,-74069},
	{58191,-66142,77380,-23602,-49675,-67905,-42093,62467,6561,-45748,20501,65870,54901,-26155,25217,-82630,-82614,-78557,-67185,-62263,65285,85197,41994,-18376,76846,12720,82769,24396,45100,-18664,-68111,-102048,30330,-101665,36748,-33495,22187,14259,43191,-85932,48363,-34884,-6730,24118,-19413,-85903,104621,27295,56183,112445,-90291,106506,115405,-40061,-82345,-31752,60927,-63130,-43362,-50396,14569,-671,-2808,-33598,40538,-77098},
	{-9723,-45288,-107916,108288,-60213,-83275,-75677,74179,73870,19174,-118725,104478,1858,-54062,119975,-65426,-69551,-45442,56125,8451,104456,-40787,-31736,6045,-103597,-90278,-20517,-24983,-110836,-69322,-25574,107899,35800,18632,28566,-117780,108633,60046,88359,-19558,-57695,-31558,-30175,76427,-64092,100529,3111,39591,17688,-19932,83152,117641,-69736,52962,-42766,-74587,-108757,-50606,52201,-52475,-1911,19015,-99254,-98712,98535,104061},
	{14757,-58352,-34000,-106249,-38692,56081,37315,105601,48590,-3099,7666,42994,113891,-94624,4208,-24780,64746,-10777,-26694,105988,-107047,-90204,-33755,-42226,-108232,-51421,42014,115127,15305,69091,112992,-114972,-32661,83425,-32456,69365,73470,13354,59541,-105822,-30304,55197,26797,70576,117646,-34285,-66576,-40864,23735,56850,-118637,43267,83890,1588,-119471,-29197,-103609,99350,47605,114660,-97464,66564,-74663,97555,45622,-61685},
	{31359,-50980,77082,28063,-34968,4231,89724,-36937,5872,14518,-103649,20393,65038,-120912,87292,114065,49287,-74299,108470,36678,60773,-23514,13900,-18081,-5421,-117270,33639,72449,-90388,-49100,-5301,52927,-46196,-14563,-68273,-79161,-61015,-75370,-54561,54388,98553,2654,62135,-13197,-69192,-17090,-25733,-70112,25745,30751,-10430,-97317,-11448,-77809,97257,115528,-74652,112624,40963,-59666,41018,-4425,66509,-69374,85061,-24032},
	{83790,-116567,-7786,64539,-88747,51187,88342,52043,114317,35229,-54049,29990,90468,17915,77827,17835,70995,4344,-96834,2043,30160,-16390,-78167,-98037,36405,-30295,93614,48966,95693,-52968,74081,-57174,35822,33913,70373,-98334,-98038,94981,-38599,104676,-60669,-114726,-30506,-22705,61013,-68021,-3548,99956,-89302,37282,-22567,78728,108567,8796,52125,-89845,-43675,-112312,72820,21394,-40708,-58014,107130,64576,-28858,54149},
	{100657,35829,71311,63689,26720,70791,-20012,-168,101171,19817,41208,-6305,108881,87641,-112888,114107,10541,-23111,-65183,94084,-77432,-105874,-13236,-3211,91922,-104264,-121433,-114203,111517,24804,-7548,-29884,104080,42620,111309,64130,-87785,101491,1116,24335,78375,-33547,-26196,7965,40271,-11700,46322,-60294,66150,-51709,103362,-13544,-14361,-52436,-62552,-7995,-25390,114718,29149,-119060,-58937,-29969,-17599,48966,-93479,60225},
	{49442,91679,-38983,-60513,57411,42578,35338,-10950,77618,83850,23510,100766,47003,-27263,56953,-106178,54860,111954,42504,51883,-15580,-84220,97193,-49499,16776,38632,53258,-84908,114508,-48509,-71413,73171,-58381,75374,99571,99710,-117922,23345,-112337,-75908,-107787,-60665,92705,80037,3020,-58471,66555,-47906,25978,55723,-93541,-32257,8929,-5787,37183,-100078,-52512,86444,87551,-119723,-99216,17601,-40221,-37311,44839,-103588},
	{-85056,-58004,122570,-33536,34175,108535,89078,34883,-56631,-15789,62733,68464,43753,38900,-96259,-65452,49623,-18656,-61742,105500,68106,-79727,5892,71660,-27056,10109,-75198,65461,-103225,-83077,15134,95821,99178,-63388,25473,-58807,44321,34028,-113789,-66990,99986,102598,14253,-115413,-2842,-14312,-72180,-57657,-116871,-11706,69137,-97439,-25269,115489,-15468,-112794,113971,-95944,73407,41479,77158,32403,-77779,26530,98903,-70743},
	{14278,3648,75423,23773,103255,24497,31083,-77831,64155,-33643,71398,-40314,30156,6252,-6299,117392,41480,96430,-46956,26179,-84191,-66844,-71091,-93758,80962,-76408,79760,87499,-8656,-109841,112078,-67063,38014,-61975,-113702,20531,22126,118033,2824,41088,-102744,-70325,91,9797,-104441,-89188,55048,-37322,84700,87116,103254,-17622,65370,-64282,-9911,23520,-104363,73012,97152,83623,-41062,-15914,-71677,27728,-73286,-31964},
	{-26136,80723,-96380,-60290,-55249,-38173,-100224,112819,-110854,-14834,-17857,99539,66145,77784,-75709,-74290,-74958,-61724,-26301,21751,9090,-65088,-10324,107577,49468,-79390,91172,-110101,114401,-29469,-66268,-119308,62690,90252,91127,13970,70809,-23357,73674,65451,-116208,-79207,-9671,122373,-111137,-91826,-64073,27093,-7379,84403,-18543,90276,20161,70181,68578,-47234,-18364,-41526,13125,-102349,-19311,-91622,38935,-66699,40873,104749},
	{-18512,80606,-80081,-6737,-8687,-38539,-95767,68156,71756,46949,-38417,48050,14725,-73873,-83001,76462,74337,-106356,58879,-118606,76783,-59392,-36733,89194,-109239,30740,38064,40982,-99439,27792,-4493,4046,-48342,-15982,-21440,-67373,-62232,4490,35024,54940,-59413,-42398,103268,60122,-4031,71314,-29259,123,-4035,-44540,86663,-89413,-87321,-66554,3151,-54695,13827,-39335,118089,636,27957,97579,-45077,-106335,-39566,107563},
	{41584,49039,57141,-80638,-67025,-97168,97340,102865,-19931,102969,-32058,2466,31197,549,63548,87331,-69598,-54307,40602,-61521,77144,-102008,-4196,114467,117239,-51772,48564,66244,62879,-691,27796,57561,18701,5402,-1326,28455,111902,38110,-85111,60794,45042,-82504,-32018,-98438,96142,-57814,-2036,6010,-48364,69458,84358,60207,74705,-12324,-109000,65941,-116219,104331,23932,5911,-31,-87430,-121247,-98931,-119008,105178},
	{121722,-89180,-75322,-41329,29729,-105152,16830,-103206,103436,-39976,-30832,-18569,-110820,97869,-101240,-23302,34666,45546,-88993,-52947,109997,-70389,-17646,70111,-98264,95811,-4669,47845,3729,-73430,-26472,-32631,-119572,84065,-5775,-56906,-64679,-57439,-23402,7486,53491,107459,71619,103632,11991,71969,-16927,-19290,49507,-65389,-82259,8035,-95073,-33099,90591,-84812,-35657,-50083,9243,-39768,-62470,38155,120800,-28817,25332,64530},
	{-5917,98538,-25969,30793,22125,13227,52933,78828,-36789,-35725,72062,-61353,1496,23903,30988,27205,62633,-92755,-75269,90157,17856,-23012,-81658,33459,-109143,6363,-35664,96636,-70125,99514,118348,73863,-22177,85847,-19104,-101768,37218,107050,-80678,-15957,25044,-46954,19870,-66046,47079,-21472,16695,75322,-43481,52626,64163,-72744,6006,-68979,46337,120016,101054,10854,48979,-29551,112662,-18315,-93006,52391,-77943,-11399},
	{-19124,-57511,-55686,-114011,-114429,-31085,-14318,43613,39025,-91022,-23944,66015,-50214,27116,20065,-97059,-90681,-116449,65419,-104228,-66910,-35552,-107804,10241,-32746,-122483,15412,97883,-56635,-78871,-77869,-15132,-16986,18757,-91194,-87850,-92554,-29440,21493,-32619,80636,48733,57013,-8780,22208,99252,67616,-19458,-110033,113902,91570,112279,-24322,-15998,-98368,-13965,-17515,-1030,-41088,100354,-75392,17201,-42584,40362,-19263,-33273},
	{-71441,-27550,-94756,93213,15344,95486,-40566,41607,95400,116057,86010,-90273,-54676,86598,-32404,-33527,70942,-55512,-22336,-42193,71246,37810,85493,-60619,39076,121353,36526,20559,-85599,-48665,23117,-78147,86742,-7063,-119250,47009,125029,2755,-81727,1099,-60728,-101304,79997,-27555,50272,120449,44307,79531,-108381,39841,82808,-67149,-89271,55110,76777,-45860,68186,80607,20831,-45111,19197,24877,60487,-60328,-115260,-61820},
	{44373,-59244,105450,105321,114519,-18247,106969,-35282,75062,35094,87043,75909,71394,-96971,49623,6199,-35323,-480,51600,-64406,68178,16481,59399,36328,-99783,-80293,-112032,-108459,82688,31063,-95779,84489,-108153,109697,-28096,117515,74345,77202,-112164,73251,-90292,115551,13395,24151,63759,25996,43896,-82535,-27690,-99140,108436,-58419,-6428,-15777,-80083,57598,-26486,66743,-87575,-108645,-114384,90483,-100303,-41544,-47906,21573},
	{-20812,-24749,-22797,-37463,3634,-79329,-108253,-17009,-120845,-103669,62429,-29333,29788,5584,56064,-64384,36843,138,-87882,105842,15263,79740,-3393,52172,-87640,-99547,-57945,25962,94086,-112871,-103250,-109238,-118223,-33620,393,-41874,108571,-84532,30867,95222,-30148,-20263,15740,-42375,10219,90065,50850,-113980,-107091,24857,-84520,100275,16665,107523,-74299,-83433,-88063,-61819,-1842,103991,-96401,-57667,87707,-125735,44168,-74828},
	{110648,119473,-69785,-37065,56749,35241,16226,-92056,42454,112776,12331,39806,86562,-117020,-112903,76777,70596,83162,77254,-100174,4628,97280,-82213,27692,68234,-25396,16347,90802,54888,-52632,56043,-30626,108947,73721,-112777,39358,-111806,81735,-101914,2104,43066,90634,35683,-12212,-9751,-63917,-47444,-30973,93919,-90455,35240,-66622,-118669,62005,4244,-40427,-58915,-113161,6205,-80149,105492,-11842,-91610,91550,117096,-49288},
	{-30267,45637,117938,90647,35774,28493,75385,-41640,83992,-84274,73862,55191,-118304,82959,-38838,-88042,-85751,41540,35834,58181,-99601,113423,-95594,87263,-102025,-85020,-83910,111133,-90860,-57793,-91331,-31028,34725,93311,-91003,-93493,102987,-16523,27733,-45295,72205,38493,45645,-83398,-59440,-100175,-53042,49855,36780,33002,-17127,-64079,62216,106423,18561,-30535,66827,48379,74206,122914,17398,37179,-25477,-79485,-76954,-36391},
	{46318,-32783,-25531,111468,-109495,-18134,-106546,117644,37500,-110758,-101876,-18793,32761,86310,-62029,48060,107017,-56467,-115588,-66258,-79008,7250,-6843,48265,-69214,-5670,104211,-118662,110549,114648,47924,-74607,-33797,27159,29666,47688,-2255,100000,70876,-90148,19587,6250,-115022,58662,25634,5627,-103750,-79813,21872,-83333,-94744,-103368,-42144,63565,-94320,-84516,52756,-42632,58698,-37363,-64913,36878,-110330,81084,-7766,17218},
	{-73968,13304,-54890,37997,18815,-31782,-26756,-21312,47032,-77593,22873,-99058,83264,5669,-100431,6771,-88213,20922,-65759,25358,25237,-94752,97183,119426,-94918,58934,97184,54704,-48808,-115635,107395,-64237,93776,36360,101193,-100097,12053,24195,46309,104821,-3935,-41752,-101487,21,-37981,-58802,86378,-79788,-91980,59395,92265,-29588,70436,-67363,115146,-74045,-87164,-98714,-49303,15628,-97790,-10490,71351,-77754,-42897,-67567},
	{-61070,123243,83022,-68211,-75560,93271,-80310,61550,-71508,120060,114897,-61365,90279,85428,-22389,10923,82742,23676,-80212,61374,15983,41108,-18941,75572,-4963,290,102351,-111524,-58344,110588,32549,-50607,86761,-19204,-32553,15070,-38372,-15604,-11597,-31095,-83545,5539,43152,71144,10410,-107749,31098,77886,78084,4167,107579,-13256,86205,-48900,-95549,-27817,-118334,46512,-7581,49470,78744,-28317,23396,13636,-112231,22286},
	{54316,-13242,-24803,-16741,-76589,-83039,72553,22625,112219,-103578,70809,69694,55858,7208,-32560,116730,108520,96794,-21018,62265,-77359,-19467,-47948,-64736,-115838,68562,-39589,-67453,79662,3798,26666,-89896,61496,-12188,92356,3104,20292,-29544,-74188,-93047,-24695,114403,80325,-92865,63279,-119321,113499,27443,55306,17851,72109,-61696,-29063,-30608,14683,72540,-51248,-112150,46307,-91963,65833,-104751,105687,-51449,-81451,-88006},
	{-65240,17624,-47385,-19265,13378,-32765,43614,-83417,77405,91053,47113,70815,22747,-47189,-15353,-42925,-76273,103243,-113943,-81495,-101507,54643,-87195,-107726,-2410,-62044,-7436,52950,4709,-45710,110964,-9437,117163,101591,18329,97330,-47587,95130,98886,-92149,-18002,-17476,-61293,85041,-82563,-26086,-35311,85602,15352,-113792,-4754,79313,-117315,-22440,48894,69680,66340,-1374,52980,-95639,-33144,-70366,110110,20456,25209,57317},
	{-72556,19965,54178,-39685,-107037,-47068,-49779,-18158,120194,-15090,-80892,-84704,99813,118055,-49955,88219,3729,62923,21942,2942,17517,-74351,74550,30032,114626,-57549,-76464,-100789,-48259,-103196,47477,85087,96806,-98110,74510,-36671,39601,-69492,-76370,-66038,36357,-22955,13939,241,-62387,45704,-96837,80130,-7328,31107,96699,70169,-62889,-12278,91886,-110301,18436,-39023,15685,61559,50890,54588,115147,62668,-61533,-86678},
	{112947,-33504,16847,-93993,90680,-99510,-83604,66405,-102263,57606,-41199,43618,59562,115776,104912,77862,-23004,27177,-33057,33559,-98241,117367,61652,80053,95482,5366,101290,6875,775,79385,83041,-27816,-7232,96027,104344,154,-38825,-5286,91426,96485,-41316,113308,66150,-117551,29382,-19360,106950,-77429,-87448,-78238,-5271,-73794,21297,113783,106264,-65651,95145,-107659,-31947,46270,-122005,47773,63856,92818,-95578,76066},
	{89789,4842,111488,55007,58770,13038,-43240,-64876,1976,-36018,21288,-40968,-112827,33655,-39040,-103584,71434,3340,-9114,2343,-88277,-79273,21655,-11201,49766,39828,-105398,22537,117147,-117553,-70219,-19636,82344,-49597,69552,-13217,113176,-3997,-4038,-97526,103849,-7688,-52718,71988,-59594,-36834,-18562,92010,-74231,29911,85866,109763,-48226,-112068,11840,114718,64068,59620,102003,101013,45682,28844,-114390,-3962,79744,-82750},
	{-34313,31797,-100812,2158,-115992,37004,-96102,-78413,93037,-100201,-105108,-54454,11606,-105462,40685,70996,87312,15980,-86634,107766,52558,-91698,14457,57670,108809,25180,32432,52965,51948,-25766,58032,-96624,-6230,-9404,27327,-91747,-116697,42931,-114609,-39451,65297,13616,81301,61976,-68233,17073,102585,4617,8174,-77840,-84708,-106622,13270,-51452,75661,-35160,101202,-69713,77113,53664,84741,-106744,51851,-4754,1294,-89852},
	{-30853,-19798,-61733,120399,-79459,50738,-29678,70751,-93029,41829,114143,-67290,87009,-35979,7675,12947,69921,84526,-36979,-15,-16804,95685,-59301,-53182,-116919,99011,-60734,118526,119594,-61596,-114892,57132,53735,57969,74757,-100278,-21695,-116817,42076,89592,82621,11530,9762,-10442,-53633,-95679,51322,80486,116697,-2479,58910,-87922,-58592,96195,-72373,-111044,-84010,22352,28054,67541,39083,-8881,-63210,-12423,-84281,373},
	{25959,-41937,-50330,-78232,-97408,-31586,100370,32853,54288,-90688,-84145,-6455,-114337,21638,-107732,96107,-44073,-108496,48606,87825,-77132,35698,68234,99768,-26296,26413,-8748,42978,-79069,-51247,80086,54462,109942,75597,-4353,3515,91101,109328,76566,98099,-87890,-59554,-28106,-81937,-119091,-79360,-38759,-53331,69908,-10898,13854,18568,69397,115219,32079,99609,-63705,-39885,28688,83949,-97267,82156,28451,-114182,-97304,83589},
	{-86689,23360,-37410,6359,50978,-44323,47387,55946,-88709,59035,26908,63218,37396,29073,12871,-76241,107307,-86786,95536,105347,52504,13113,-23641,-25099,38640,-30314,80366,-75,25573,20036,38246,-37537,100101,-97461,-31286,51567,-96786,59844,-101322,51995,-20240,33524,91067,55543,38786,-101913,-43015,67437,117304,113555,-69376,-99681,-82411,25537,102862,-17102,-54628,21196,-25367,-102823,-27171,-61349,25683,56795,-106602,-106818},
	{-24015,-48290,86072,76842,796,10187,62521,2449,-77153,-112713,11803,4599,-69771,30882,116794,-71189,-27283,29159,19978,54960,-31585,-8631,-46053,31923,101828,-65948,54677,66678,54510,-63133,-82467,-114215,113338,-57616,-99427,309,-42936,91706,-97714,-17389,63105,-12909,88693,96387,-57159,30482,41433,-81202,-61812,65275,63917,106169,101326,17562,-47934,20724,7429,-81997,230,110637,-34765,121727,67984,80757,-49278,32596},
	{-92905,-63628,-100839,-64917,-52439,-30159,50842,37519,80491,56274,112276,-68553,-103802,-7105,-41746,95997,111291,-37046,-70062,115966,82913,-7237,-44031,39163,-40292,107134,-49802,-32973,-104962,-59596,103446,99118,80437,-96761,105010,44892,26445,-59841,-74686,3477,-49125,70291,-67925,36235,-28386,-13153,-34627,-99544,-94221,109438,24720,81408,80228,-60316,-40463,-114429,-70142,-80468,-27049,-49080,113087,67283,-34822,-29477,10832,-86349},
	{-19132,-106520,-79786,113683,114112,54723,15809,78696,-34402,5936,-33474,68264,-71552,81506,-87291,-15181,-59306,-94629,21739,52625,10533,-121240,22397,67214,120139,-49179,83982,10946,-110012,-41662,109735,-843,-34562,-8226,-21589,-97090,102856,-60882,4396,-86612,-78876,47864,-32026,99907,41913,91745,86821,11534,65313,-9900,92294,-92536,-68073,97187,-72402,-3535,83376,-877,-58212,66416,-75349,9103,43053,100656,13267,7639},
	{-81130,-39794,-16477,-87567,15570,21325,-63026,-11955,-113044,-79147,-116305,23534,-39010,-21490,-65704,14112,50591,76008,36383,-51420,75496,70140,16824,-87476,-74322,91613,-93663,-95639,-99612,48316,-27274,76663,-54214,70443,-92110,-64559,-62033,5912,83479,18889,110768,10241,-15432,76396,-98502,51997,-110879,-109685,15485,73471,-114603,36115,-31690,-8995,-80762,110125,-41803,44016,27566,-65513,384,-51470,-37645,42206,56430,-56245},
	{-46712,-13788,-96102,-5669,-82544,-18088,-118088,-12771,82746,-99200,-89231,-115863,119859,-57362,21684,-49023,3488,99867,45523,67887,110742,6535,-105327,-69240,78597,-96029,119109,116204,99762,110022,-34415,-94673,101214,-68625,66778,49889,-116333,-119338,-75946,-55836,20472,-117813,-28586,96997,37646,-52947,34352,-19242,-48763,-118694,-16927,95860,30292,-5681,-102108,-64465,14390,-18124,1350,85375,-49624,-44558,-59436,20255,-102003,40955},
	{73981,96697,-26085,-82468,-45738,-82111,76551,47626,-13365,-8084,93735,-67481,71543,92522,38418,53394,-66976,111753,98998,-89165,62576,82195,-5719,-117521,27232,107618,3243,-95051,1671,85438,25912,34070,-114843,-26895,52708,-25053,34141,-30279,-108810,-23314,110214,65283,92861,18725,-16098,66167,77315,-1810,-84358,106754,52078,-29139,-78333,33646,-95583,-115492,-113578,90666,-56617,69826,-15812,75874,-38494,-86917,64900,-40433},
	{-29686,23742,-14795,102436,84892,-46640,58680,-32524,-19058,98344,-38969,62331,72179,116392,-101799,-34451,91967,-9800,106707,-105612,-115867,80733,41924,103620,29092,20573,77903,4099,-21979,60795,-27639,85030,-89828,-22078,14554,89264,19954,-85028,44282,120246,-113749,-79044,60028,90336,-65058,-33947,62580,-73692,64025,59077,72315,-18291,79670,61140,-59607,53607,23484,-6072,-87611,-34048,15789,89984,-36562,12745,-72637,106080},
	{-56835,29856,-39916,-114968,-31107,77850,-17242,-103175,86076,-40887,-40542,94565,111851,36122,26649,-96196,-32394,39477,32276,-97011,112069,-69520,33837,57708,-73962,107583,-94396,-850,-18382,-12945,-75411,60248,-87261,-80953,-17485,-62390,-109983,-41799,-69044,47239,-22867,109977,87042,44103,-98357,42603,-6756,-99637,-2018,98634,43537,55768,39894,-77916,-30639,119915,-36233,-11934,46966,-111076,18895,-79038,74486,113992,87395,76145},
	{-26464,-104513,42123,-17968,17100,-61060,32179,52114,57756,-104391,-74603,-95821,105629,-4360,-109,-21807,75152,61442,-89396,-59011,46285,101609,-28131,-42396,20972,-91843,-38854,49017,-99421,-51668,-115188,-60248,77976,53484,107048,66228,-87343,84663,-83331,-11210,61647,-28776,29711,4876,84489,-6915,-86270,81155,-111517,-67596,55036,40232,100700,-48418,10321,70118,25907,-20623,-73228,-87007,114505,27188,70673,69605,33346,-14627},
	{52707,60009,24998,92188,-27764,-17832,-114988,-89171,40880,17557,108618,-23781,-48471,58132,-3285,64004,-58713,76472,-28034,36195,90274,108648,-87425,-56371,48370,-90321,93647,-57943,16233,4687,40689,-38022,-10587,88358,57563,-101348,107691,-64712,-20813,98559,48309,5100,70939,-26383,44658,96809,-34837,-103629,-84716,79005,9878,-71645,-1922,61122,96015,-12094,-29451,-9313,51001,122587,31501,-41282,-44998,-17938,94229,28966},
	{-34081,11926,71884,114624,119334,-46833,-86771,-115798,-38292,-64093,-48812,-43057,13069,-33777,-33285,-75818,-78407,-59385,-62909,10953,72938,91006,-500,-51544,-108338,86345,-111926,105718,-112623,-57237,116699,-56689,-35650,74166,117304,7905,-55150,-65032,84386,111240,82815,-23120,-62949,-66534,-51125,75905,-117085,14109,-113693,53276,102229,50514,88359,-21709,90499,30130,116342,-87651,107230,87965,83510,-89861,-104384,-8397,40692,-40839},
	{32449,-1230,-40206,7493,101918,-72257,107927,-62452,-51948,-6996,-11562,-118827,-113937,45521,-109893,-114462,-110379,-56417,107196,-7260,106006,112236,96969,91431,-103505,-19651,16082,117871,-29653,-23790,-5246,54177,-63059,-73569,-88659,-91120,23859,6978,96422,-25816,-62914,105496,90831,-9033,-69973,100241,98645,-7105,73481,28872,-9551,-93685,9313,-80850,-71118,110496,-116841,9463,-30467,118728,-87465,115056,-83160,19457,-102412,85947},
