#include "kernelMLP.h"

#ifndef HIGH_RECALL_CONFIG

const long long w0_stage1[][26] = {
	{10740,-12917,-2947,-17264,-3929,-5584,15119,35206,-30354,16421,-3599,26021,31877,9892,28921,13596,15705,-23191,-27708,24703,-65400,22156,58358,8277,14896,18891},
	{-64941,4532,-461,-2521,-6042,39810,1154,-39223,15841,-33650,35712,-16671,24333,-2497,-32757,12752,-37508,15847,43111,-39336,3070,63530,-37696,34807,118091,41389},
	{-49751,-37665,-4687,-94503,65292,11338,25595,-24016,-3244,33173,-4001,15306,24094,39121,-17238,-16919,13368,16819,-22074,34293,25360,40685,-126883,-43180,81756,-19287},
	{-17943,-13757,-22471,-30583,11269,-33255,-31082,1785,-5903,-24483,-80345,-10326,-891,49903,-62812,-10134,-31811,-30675,-29305,-54691,39565,98535,-78202,-119749,151852,42781},
	{-82621,-53120,-62936,-60507,-59849,-16409,-83478,43987,-10635,-44240,-11215,-32981,-6002,38190,-29953,-14392,-40559,-267,44108,40029,47631,101901,-211579,-286358,87220,-27643},
	{75101,25086,39277,-21575,25607,-3276,18530,3133,-36522,-36790,-39489,180,-3487,11952,-20666,-11120,-37313,-7393,13296,-4458,-43045,-21823,125072,3536,123596,27255},
	{33207,758,-14028,3684,2916,-14169,-14803,-16494,-7604,23481,-64651,22266,-21493,47978,-32136,-5662,-28555,-22686,-29394,9064,69609,54731,-48277,-214582,44509,13672},
	{88508,65437,4691,7703,24993,67933,-15642,-20043,17734,-17952,-12054,-43882,40008,-8450,-27263,34747,-21427,-17921,11871,-34681,61704,-28687,117987,210519,11990,1989},
	{-8539,3357,-10504,-1958,3755,537,30668,4991,2306,16156,3352,-8094,8052,-4271,-29296,-10734,-11620,-21558,-15036,-8512,10419,63070,-76190,27314,59227,3699},
	{6958,-30814,-15489,-29964,38067,-7575,-12338,-21561,25300,-10318,35130,-41422,11642,5747,8824,-42569,2976,-9865,14031,20945,-39468,55139,-61811,-244889,83834,-23850},
	{-3968,-484,30151,39457,-53366,25905,-2383,19983,10402,-15430,13817,-30895,53724,-4329,-4659,-39441,47662,-19332,18124,-8768,-56713,39967,-35906,124200,-100836,-7703},
	{-83480,-37756,-1106,-52075,-15607,2600,43251,-1818,-30570,10182,7822,-10677,-34096,19071,-20352,15170,25658,7034,-20415,16618,23619,-39131,-146053,-5661,14811,-38019},
	{-24437,13811,22546,19817,9881,-42517,25702,50709,-28174,-39380,6473,-23702,-12672,13114,-12937,8878,-29989,24807,7420,31074,-35654,22385,21812,-43906,-122966,8545},
	{149408,40511,-126363,25833,68534,-9149,-72626,79655,-2518,87104,36447,1606,-45266,-69263,-53168,-7861,-2488,1200,24905,-47965,-139,-3137,186117,252753,-188232,-31805},
	{-3591,6017,9226,22942,-39450,-2098,-36026,-10223,-19242,-16541,13661,29214,2067,1521,-14785,6696,-5699,20336,-17850,-30774,27197,-26706,39197,45558,-69009,-9258},
	{-365256,282237,-12690,94678,70263,-259867,-89177,105038,-14453,-440,110825,17196,-92116,-58202,-16294,-68818,13161,-11499,-53794,54448,41824,121155,-339001,77887,352259,49220},
	{52375,9411,11459,-7539,-31663,7045,45636,35155,-5438,46215,29761,35101,11883,-32359,24451,-1517,-36999,-18510,-38748,-36094,-18063,15333,105477,28144,-74615,13136},
	{-193926,-52489,142913,-26480,139351,-1321,-69758,-13311,-18721,-74609,-27454,-23616,39318,66924,66714,-40705,-47005,10734,-5009,-43460,21223,-1311,-194583,-99276,243369,50766},
	{-26636,-9526,-28181,-34458,-26112,-15570,27654,-51580,-33108,35865,3577,-29853,15159,16720,4735,-13326,3253,11783,-3396,-19052,-1798,-16913,-89480,-169790,-46369,-34169},
	{25415,14114,2541,-57707,-18423,-53584,23605,-43744,-3632,20735,14290,-26630,2857,-27228,263,4890,-7732,2163,12580,25634,41481,50400,-29686,-30715,31172,-29184},
	{71138,-40965,-49077,16748,-48157,-56606,-68445,69152,28827,5688,-55875,-15188,-13538,24138,-15993,-9459,-4534,-20527,-37723,9709,-68980,-19131,9994,-63876,29327,13197},
	{-19671,-19357,-1594,17739,-4101,9221,15072,-20526,641,32703,-35044,-23009,18106,-21965,-22585,-29694,31665,19534,4795,-20541,30042,-5159,-61542,164530,53729,23105},
	{-10891,-7428,-2598,30436,11674,8333,3273,36392,595,-20481,24677,9792,-12714,27331,-3090,-14318,-29026,-7132,17697,27323,-67026,33083,50834,50145,-50202,12605},
	{-87988,-72397,-99585,-46942,128,-18939,37829,-23048,-19179,-29992,-17956,-25293,-27643,-8191,11610,-30027,-38740,-5045,-354,50450,61727,102229,-207077,-18832,20811,-13529},
	{4724,-2655,7309,-28468,-26422,-4916,3266,-7265,-796,9079,26345,35437,-3301,58600,15406,-11680,45525,-6312,-2996,22401,-9139,171414,12472,188967,89730,-6872},
	{36045,1552,-30634,-14997,2593,-12543,7060,24868,-19578,32658,12195,-33216,2545,46368,41924,49119,-21459,23623,-18947,13896,13435,5435,34869,-292770,-10570,-46630},
	{56183,9729,-11792,38269,-4493,17504,49859,23323,-14386,25826,-3351,26195,-14196,-11837,1135,15253,-9747,4162,-13793,-2442,34926,-8231,78613,174416,97532,-6580},
	{19564,-29621,-45599,-27961,8507,-8008,11290,-24584,-19103,28120,13943,-32325,-9320,-35627,-29186,-7385,25772,15513,14718,27328,77872,60665,-74485,-83494,72275,-31778},
	{23698,-16105,8806,21248,23163,-14425,8138,-5406,27913,8430,-41128,-37,-32892,2672,-22342,-14089,-5468,-16170,-32956,6218,22079,21151,-9734,-95309,-80009,-521},
	{29354,7631,-4254,-44594,-17444,22208,43371,-21143,-18533,-3027,-20437,38746,-7383,-26892,27914,-9107,-30732,-18745,1524,-28133,72786,70963,-15189,177981,96699,-4326},
	{434,-1820,13060,31982,56245,41228,-48131,-41480,-53460,51799,-54217,-48918,42567,28141,49188,-30555,-29982,27404,7260,-49295,67330,-57843,-42504,-67975,97030,27556},
	{-54205,-42285,-7660,-80384,9708,1219,47148,-1956,-10228,-28975,-9504,-27030,12153,1778,-18436,-1235,-29731,-386,-3612,-9197,43693,-52709,-125063,-20473,4012,2798},
	{-44460,23563,-15339,15061,-9086,54974,-20698,-3598,-32933,-17530,-28129,1519,-16166,-6397,6811,-34363,19563,-22173,-25899,-23030,58721,-66705,-43631,-23035,-115400,-30796},
	{-24425,-5886,-53272,17993,30663,56381,6759,19558,19316,1809,22174,31886,23110,19462,1343,317,2929,-6305,17201,-8617,-31871,-10419,-50323,-42955,-65876,-43556},
	{-1358,-36706,25700,-7090,-8516,-35439,28996,13952,22074,12401,-23561,-27819,-21731,21958,-27011,13744,-19913,20117,13302,14537,-60435,39666,-39074,-118787,32652,-14535},
	{-42405,5964,30225,12716,12994,-10820,-22040,-1088,36515,-32388,-36838,26440,15255,-8103,-29723,-38748,-11565,2041,-9239,26122,59630,19623,-63161,35708,-123167,-29404},
	{46027,18057,6506,-29706,47638,22191,-33832,-43344,-31233,2082,-25172,-32046,10760,4870,11999,-43445,27742,6080,12199,-35175,-35514,43086,53168,-146583,1894,-3247},
	{135548,108985,46578,61920,-1773,121584,-38277,89229,11719,84238,44114,-6472,18787,-64662,43849,-1557,-1011,48390,60293,57397,-40832,26292,310848,152713,-205772,-21549},
	{157167,90585,3878,15550,82748,16469,83006,71252,-74382,-78493,-87082,-118158,3096,58145,-64704,-40343,20593,-36818,68574,70684,-122309,97693,303427,180044,-305555,-46877},
	{-43323,-792,-36278,-22335,85583,22111,59362,-7013,-10055,-414,32906,1769,-6576,16281,33057,-26777,48212,23420,-15945,3244,52611,-46293,-25540,9282,99309,-17211},
	{-42093,-38166,-54724,-24625,-59430,-36459,8582,47035,-20136,-39274,-9971,-24724,-31251,-40900,44965,39414,-34509,7395,77,-31321,61834,67342,-133758,122007,62380,26896},
	{54179,-20848,-24310,-15337,-16840,28130,20833,5024,4535,11690,33131,13019,-1552,6343,-175,3264,29528,-597,17913,26864,9232,71692,82278,148790,155077,35688},
	{-183597,-144421,-119839,79852,-54175,82737,76156,-20707,13702,-91643,29387,2380,-56916,110982,18098,-60489,-32090,46759,-11664,-23310,-68962,63700,-267369,13896,248102,57388},
	{38495,5593,-19988,28054,21223,-201,-28219,2675,809,-46950,-48891,3748,6347,-29594,-3260,8131,22893,22385,-507,-37010,20841,-64406,11759,-107356,107517,37303},
	{57345,12207,-39113,20197,26610,4763,20656,-24990,20208,11995,-23134,-32500,9351,6086,-27857,-27288,-21017,-5319,1859,1976,11182,-34216,9034,82585,-7962,-3378},
	{1333,-153,11733,14446,-22903,-21936,-44733,-5794,15583,-3971,33513,34111,30307,-23107,8594,3024,25813,-7013,-12288,-14674,-25435,52747,27747,116128,-3513,13654},
	{816,-18921,646,-52512,27636,7677,-4890,19104,-26475,4261,24839,35992,28129,35302,22924,39606,-20524,-18,23413,42296,-18773,87690,-59940,-150628,54498,13159},
	{-43627,-10313,799,2803,36203,42402,-2121,24304,14372,-45911,19188,12175,8998,27671,30828,1432,40550,16169,-22130,-46673,-59567,-127416,41672,-64354,-70213,26727},
	{18640,-40899,-38303,-11347,8294,32471,30266,21644,40693,1464,-75252,-11810,21618,9752,6446,2350,6346,-25848,-38793,11539,-94172,31493,15887,-161224,113387,50799},
	{33880,39911,22409,30905,17826,-17066,-30255,-44687,-29065,-6986,31203,-30482,43327,7123,21571,13067,-3418,-246,-38513,-24391,40049,-41403,1787,-47120,-88765,-32925},
	{-40230,-22516,35836,19786,-18054,-26908,-38092,-9092,14570,-25773,18189,-20787,27282,1586,47685,40017,-11249,-27142,-26040,-5186,-54007,30111,-16806,-86514,-83166,14085},
	{-11381,21087,10340,-6346,58541,-27716,13344,-8578,29329,-15140,20615,8857,-6523,-26525,8219,17992,-3775,-14349,12836,8969,-43721,40616,61461,-43803,89318,30372},
	{42963,24085,-1241,30159,38314,25258,7883,-17836,-56766,-13999,-26294,45006,44370,-40074,19657,4638,-4600,-4307,-9481,21431,-25154,-1505,58901,260251,41293,47108},
	{69746,-26552,-43897,99684,-49841,24972,-5980,-30937,-3805,24532,-3722,-54191,-16856,-34192,15837,-3892,-3867,-1877,-8455,-42233,61045,-38151,16350,-279399,73344,-40403},
	{-31952,-26154,-23994,26045,-14302,26139,29679,-10472,20231,29897,5327,17310,10460,-1186,23183,22781,-32993,17879,-11066,30355,7308,22098,-71839,-97450,52829,2092},
	{1577,-49715,-44416,-47046,-15211,-43862,5680,-20051,33002,-12765,27248,11019,-24636,-2114,8438,46975,1521,4144,-20903,2986,-84824,-17854,-64414,210163,107711,42243},
	{-3483,-37487,17887,3584,15670,-20453,25983,17728,11307,-33690,-3833,-10584,18111,-24801,1809,21620,13281,-11283,4808,-17226,-39423,-22557,-50889,-58204,-51856,-39646},
	{64361,32372,1035,31886,8340,-31748,-29756,4485,708,-17761,15658,21110,1950,-11002,24724,-15862,-23006,2510,23564,13225,-27286,19050,116896,9322,37146,36346},
	{-9743,1412,-3588,2906,4122,-32388,-5828,29170,-22048,29914,23834,-4851,-6287,-4097,-1617,-24560,18757,15981,-27725,-15015,-8428,-10160,3358,-31961,-42070,3158},
	{80223,-106568,47912,40703,-25158,-9254,-54442,-14404,2720,-41130,16625,-25308,19596,38594,-46882,-32506,44636,-28135,26621,-2716,-41016,-20528,37783,164761,-84882,-14983},
	{51833,15446,-7168,65733,-10050,-1362,5264,12251,13612,-51872,9075,-40751,34822,-6667,-562,-19106,-34598,-5622,-47748,11855,-51100,44671,132812,-12418,-104215,-12324},
	{351190,-214297,-132367,36725,-133498,22799,2498,39163,22512,-34987,70668,21982,-82802,-50176,107213,12932,-24034,19441,-51166,38672,-80536,45645,303005,93488,-363317,-88447},
	{-20489,-23671,26106,-26841,-3497,-30243,-599,3989,9827,19242,26205,-17432,18347,31866,-3974,4386,-29817,-10624,-14658,-18834,39487,4076,-76847,-161691,35287,3751},
	{50968,36251,-15332,795,19065,20737,-30002,42803,-20375,-33490,-438,19364,-22060,-14487,-23737,-21616,-1938,-29275,2876,29726,-35599,32099,89247,90598,-39413,2677},
	{7899,-41233,45624,43184,-28066,-3552,37837,35247,-13903,-26705,31247,-25240,18743,24623,-19211,3911,-27534,-17011,-25239,-18318,42419,39809,21840,69457,30955,-38596},
	{-85840,-49752,22476,-65495,-14318,18934,29927,8691,-9975,-2757,12424,-20440,26988,39345,8567,-26636,-25326,-15592,-27281,-8258,41794,84602,-139804,-16158,27003,-22751},
	{22244,-14425,-1720,22865,12906,-23306,2389,-30109,-2793,22964,19,-35155,33406,-28538,-18547,17065,27760,10989,-7253,16081,50653,32354,4566,32498,30023,4001},
	{77836,21279,-12489,-943,52663,31874,-20113,-14785,-11216,-34615,-34102,-32028,32810,-12143,12590,-14107,-20893,21916,-17713,20090,39940,-10227,74698,266712,132394,-2926},
	{-122748,-102120,-18803,43552,35836,58997,55510,-2171,23197,28361,-86254,33619,36686,55245,53548,47148,34292,36645,52992,-53362,37443,-22571,-165743,-143525,167989,28229},
	{-95639,-71094,-16468,-7064,-69014,17559,-49616,-26880,17216,52560,56924,86284,65848,66577,15319,37117,-26611,19923,-37048,-33549,45018,-47163,-166578,-50100,61742,-33342},
	{76343,26993,-50487,18711,-71445,-41047,25310,3884,10701,-43383,-33285,18616,-42097,-18987,-23005,-24009,4205,-3525,30339,6066,-37356,-51300,126842,-17500,-100861,-22334},
	{12203,42583,-48240,28158,4038,19047,-2407,-9484,36058,35125,-14361,35106,-21473,-14124,-47633,-40976,1826,-14463,-19180,35340,-3740,-41917,7141,151496,-95669,17378},
	{8364,13880,13467,-29792,8784,9443,-33590,-13139,13479,1015,-28116,549,-21089,8900,-4263,15861,-27469,-12106,-20712,12408,-12284,-37321,25578,-22967,-18380,-16331},
	{-47872,-37806,-28642,-63581,-14202,7511,-74666,28442,-38989,23849,-42808,-13524,12776,-17331,2900,-8431,18259,-22356,26643,48422,6421,-52142,-108167,-203502,1168,-20497},
	{-5933,15363,25297,-38473,26792,-3382,33293,-28141,-6818,-11698,14643,2556,10828,13349,-18649,11997,-18223,22261,-27181,-13354,45248,41259,21724,39553,32196,-21237},
	{-70583,-13273,16846,-15598,-44232,-93800,11290,25687,-1161,-55992,5971,35579,40043,-33792,29961,6337,-25177,14659,-2521,31098,-90619,-96136,-82943,64631,110125,51275},
	{-45446,-34726,13059,-54884,37550,-59699,5787,32875,9889,-35498,17324,-21115,-36988,45753,32036,-11195,-2965,19737,6415,38977,-113919,-79304,-26587,119940,96951,34737},
	{-14616,30502,29744,-104108,26333,79167,-21741,87509,-43607,-17191,62748,61306,33449,-8882,-3773,21698,33242,7932,-39617,23981,-28782,-47935,-4950,-264655,-166587,-7988},
	{10221,16624,-1018,18989,-27416,-60932,31962,-2766,12106,53749,-548,37203,23452,12247,-18057,-46661,25562,-22410,-14168,1213,-7940,-27614,-10411,115258,81538,23122},
	{31076,55435,19016,22872,10033,7623,53665,21119,-45699,-30083,72944,51458,-29123,9827,16913,-18874,-20779,3216,-13701,-22996,124847,13284,4158,243803,-45197,-19621},
	{-139758,-76760,6912,-8465,-63015,8046,-66378,-17550,-11105,47749,58487,23670,51886,70633,53544,52716,-48856,29368,38091,-54833,63321,-58033,-231833,-75974,194803,56157},
	{-12814,-12766,-34639,15174,22736,16563,-8469,31953,-27179,3628,-34500,-10119,-36377,22327,13369,17383,43013,-22589,-16709,17603,45935,9851,-87328,140606,89477,35965},
	{-25851,11381,-11627,42726,13777,-37513,-9810,33537,-32836,-7071,6352,25785,16806,35130,15404,26720,20432,-28475,10188,11913,-25155,-22552,21508,-157293,93999,27212},
	{26383,-29293,-21976,-24078,-5355,-43200,25890,46143,9239,5047,-24542,10037,-35071,-16156,-14953,18527,20477,19307,-8616,8819,-17630,-8022,-9537,137772,88457,29091},
	{81014,58643,39206,92525,-26118,19103,-35955,29744,66479,-41883,-43509,40782,60590,8060,22239,45489,23143,-3026,36918,-36077,-89847,48500,210294,311667,57873,23424},
	{59319,24805,3421,-10078,-19499,35476,25786,10298,6251,-34367,-2894,31355,31606,26567,-13704,19449,19705,4292,22060,20742,-39930,-39904,91486,74769,-17977,-8282},
	{-3886,-19003,-16856,-4235,3661,8467,2264,-11919,33189,-3,11333,-2133,20958,12229,-10168,-32,-4815,-17555,-26662,-27460,13085,-43971,6304,36265,-73919,-42681},
	{-83964,-48837,-15830,-41058,-35769,4832,40354,-32893,-3683,-27165,43659,-15722,-32356,3719,-14020,-14176,-11852,-7618,17640,24279,-5164,29447,-119197,73533,20496,11114},
	{63707,-17073,-40447,-10677,5193,-58459,-2028,43733,17246,-34111,24981,-22812,-28253,-4784,-11578,-15913,-2106,16918,-30094,-15275,34075,-80965,57331,4484,51369,3978},
	{-30493,-28147,22086,-32330,18080,-24463,979,1862,31922,25664,14542,9455,26233,-4580,-32541,-13367,-28814,-15527,-15678,-6589,30672,30633,-51389,-87942,-12385,-18420},
	{6466,-42534,-49393,3434,12285,53424,4702,28096,19130,11811,26301,-12037,13427,143,-29546,-3899,-1442,21657,8455,-4900,-5864,-49230,-52304,-25702,-76685,-51238},
	{-49013,-17610,-31588,-9003,-41405,-12459,-59076,-33590,7679,-40375,6113,-43757,10903,33006,-11806,-31208,-27705,11736,11623,-20539,-812,-29944,-112851,-115885,-23218,-14702},
	{7996,42707,-11743,27050,-20409,8284,6371,12965,-26653,4403,-16617,-5442,-22894,1456,19964,-4095,24224,15535,-7080,-2677,-18061,29608,61153,79829,69895,62207},
	{276201,-111798,-192052,19099,94475,-18882,-75875,-81320,60403,-47047,-53990,-69963,-5667,39178,95149,44550,63997,-5535,-40865,51269,139103,20884,186898,54300,-225880,-21185},
	{61764,12557,-10458,53684,17777,-1378,13075,-9330,21432,27822,-32572,-6665,-34046,9919,13849,12710,-12476,26474,-26909,-8114,14851,-9634,113542,-37324,6094,-11286},
	{-19527,57816,-22320,36541,-19465,4747,-26808,15292,-33097,4175,1100,-12542,-29809,33345,11212,8471,-32580,-19221,24345,-51342,23845,-21831,23428,-68899,75392,-1321},
	{-53310,-39224,-38836,-37290,36908,-2065,-48467,1085,-4158,-3394,-31290,-19688,-12809,-25174,-30497,10145,16541,20082,33206,31509,16573,39958,-86714,-17202,9894,10849},
	{-18890,1631,-13089,9424,-20651,-38887,18397,22632,22339,29626,33252,-28630,-30563,-4039,-8625,-1150,12831,3606,15251,20154,-52255,-42234,-25105,432,72730,-724},
	{14689,-43901,4476,-3608,7284,-22231,22378,11237,-40355,14795,-53555,10911,27869,-2082,-13157,-910,9166,5495,-22557,9008,-75650,41454,10609,-73006,121863,46536},
	{-31363,-8220,-32752,7161,13818,17480,-42446,-3651,11534,-26341,9120,-45150,-33624,31777,-25859,5023,17486,-12697,11960,-10440,-3135,-38307,-72777,-151578,-104247,-3911},
	{62069,20564,-6242,20940,30872,52957,-7981,68660,8092,-46204,-5318,-26016,-5241,22953,-25431,-27812,14773,-6995,-8728,46166,-32385,-94472,158222,201178,-131690,-41020},
	{22386,-16836,-23124,-15397,-15110,10644,25764,12938,29223,-12216,-4091,26618,-1490,12114,-14143,-24116,30409,9278,-9913,-27013,-7321,-29359,55851,83946,-42875,-39153},
	{23187,14489,-44661,-20918,463,1270,27754,-27561,-27479,-12422,29339,13799,-5260,541,18164,-35036,13774,-3371,-3701,-5572,-47853,-40022,-2572,-114780,44554,-10362},
	{-11169,-6369,25458,13802,-6509,28121,30189,-10301,19886,20674,-23263,-1557,31103,-29732,-427,35852,3620,-3971,24095,25507,-44084,-34362,41193,138615,31785,22321},
	{-13262,-32984,-13810,-36741,4297,2188,9581,-27806,5029,-27930,-17416,24048,-10224,37,-25803,10509,-1659,5725,-14592,23646,-41682,30832,-55105,55140,57694,5782},
	{22959,14209,60027,-37695,-2094,-29705,68933,12289,30082,36469,23456,18305,15086,-37423,30268,29943,-24521,-10495,-23663,17463,46041,17559,53266,49843,-26302,6033},
	{37632,25295,13102,20707,38242,-34459,31270,-1406,-5560,21809,-24099,-37325,-15196,-33717,-14691,17539,19984,-13471,2703,-25867,43565,37017,71928,-73598,-104484,-41780},
	{-5313,-45774,-17882,-113544,95787,53877,-38279,32500,-41426,13161,-11949,3038,-15066,-27416,-5182,-25241,-24634,6991,25957,55301,-1396,-14529,-45321,103599,74160,25661},
	{-7579,-5623,-611,-4953,5144,24750,5041,3331,-13064,27223,5444,16125,-20095,2762,-15073,-19112,25106,24591,-28611,14154,58721,49228,-51131,-92657,-49820,-50507},
	{40556,32535,12410,11001,28297,-20021,-33423,22794,-21335,-31522,-17934,-37168,38879,-12949,-20372,-32228,14356,14925,-27856,-14896,55482,-31367,67102,192783,-24228,20614},
	{-24532,20529,48601,-37507,-33469,-39915,62436,53856,-32603,-5727,-24059,38248,-25409,-2473,-12715,-20179,22049,-7386,-23591,-17608,94870,-23906,-22290,89699,39503,-880},
	{135569,59529,26377,12096,-52130,59806,-6766,1389,-53921,16613,-48465,-30835,14095,-44515,28328,3501,-44906,-23878,-34003,-13393,-43621,2479,201595,51246,-153533,-49257},
	{22085,-61545,-27187,-48092,-3666,37381,40850,54095,53731,40038,60590,-4941,19601,11898,8152,-5017,42662,-5894,29983,37744,-101513,25365,80064,30901,138410,-23021},
	{-29095,-11104,-18039,-41048,7118,-11122,20092,-10919,-31692,1027,950,-21395,17841,-22899,-2921,-18028,14701,11025,21026,-30559,47551,-21673,-51279,-138353,-31553,-6220},
	{33381,-20227,-3866,-15625,15254,-14990,5644,-52900,2815,-801,9404,33322,-4150,47860,-5755,-18214,26596,-14687,16893,52498,2165,49310,50107,-42357,32380,-14919},
	{-24273,-17848,-28552,-33044,11234,-50158,-8411,6467,12773,-49424,-882,-1911,858,-30870,-9883,9872,23741,20927,-2963,7546,9896,-109748,-28711,-249752,30314,-15041},
	{-45431,-31519,-6503,-7769,25727,-410,-5886,9297,28897,-17306,27637,12855,931,-15604,5057,-26708,-21433,3379,-10473,-5775,-12153,-23843,-29483,-120015,-32823,-38138},
	{-3816,-21644,20292,-13030,38363,40234,57784,1228,24096,-21602,-43874,-30701,-31178,23524,-39069,6004,10125,-9441,-4584,-35338,13469,-16488,-66826,-111279,94493,32982},
	{34980,33446,1132,-13998,-20071,77001,11868,-37710,18670,92,-23990,-56737,-31309,-33323,-40240,-41433,9748,-5965,-30223,29251,-5161,-55949,97699,1545,-155857,-36170},
	{-66465,-37340,-5071,14730,30107,16278,-54783,-46340,-21917,5222,817,-4946,1233,-30873,-33555,4470,-9331,-8228,8796,-9873,-9591,-9210,-69196,-226119,-128883,-16161},
	{-69340,-58947,29320,-12906,-9949,23726,-45969,27562,25015,-16072,-23773,-41622,-24231,-17161,-49397,3443,-20727,-17727,-25418,-34200,11350,84365,-100004,-52104,137408,25859},
	{31238,-10917,-32334,-15570,24466,-9304,21913,-19564,-32912,18691,-24054,-22017,-7145,-19750,-16207,-26190,-14393,-13088,-1500,10942,42365,-25702,-41318,-115263,3072,-45104},
	{129,15710,46938,-21658,-26995,9098,35332,38132,15204,-27284,10158,19881,7655,15970,7068,17267,-11947,12543,18518,-31710,-10426,26251,63151,23871,95570,51237},
	{471435,-217485,133510,-191388,-45067,-87177,-61919,47974,-129999,-68629,66822,-43524,-78200,-139937,-62775,-43286,-55090,-61884,36203,41083,104497,31676,320966,-30631,-419991,-78866},
	{-46606,-53285,-49853,64318,-10659,35190,36817,12241,-31508,22526,-13427,-7026,13640,-16548,40522,-2195,2870,18414,5865,22197,38599,-58991,-88443,-304320,11121,-35788},
	{-28916,-8306,-5284,-36442,23815,7512,-48360,-3195,23228,26615,-22043,-38123,17050,-36140,-18362,-16054,28960,-13139,16051,26976,24021,50158,-77033,-61264,-50417,-53554},
	{83812,12659,-7794,37561,7190,-43362,-63147,-21754,-19707,-24645,12766,12667,45128,28023,-32299,-12391,11607,-906,-46931,1114,50233,4435,98817,-15979,-124392,-18823},
	{-24919,-5946,-24275,19757,-4348,69037,-19360,-8974,24633,-23112,-13880,20343,13302,12844,-19710,-3090,-6287,5866,14857,-2712,1882,64402,36559,118433,-60487,-3990},
	{-15330,-456,-5225,-28770,-369,-26668,22659,-38910,-28213,9615,5264,43434,-49,24734,9334,6881,36289,12127,16639,-13123,-14008,49192,-19226,-76649,-102843,-49791},
	{-210687,231496,-13657,-13616,-53217,46277,-93668,-62152,-30963,64300,-41970,-48131,3175,-29891,65838,61550,31201,27068,-9797,43635,-42305,-30157,-131424,-100785,67841,22682},
	{-93110,26771,-1964,-19208,-34327,-24005,-2491,12642,23670,53706,-4905,-54443,-5204,-18037,16826,8802,15569,23756,53631,-34781,-39890,23083,-112003,58360,25460,-10434},
	{-21907,17068,8927,13096,-19534,1363,28302,-32104,31456,-21114,28266,29938,-23294,10096,-13770,-19576,13440,-1895,-11987,29100,-50429,51459,11092,-84358,-36485,-20690},
	{44289,16758,28502,17035,29641,15282,15269,-7940,2093,-7148,-14444,-13878,-4378,-39641,-6847,28690,-34755,14076,-1773,19006,-22246,-46038,85198,27990,-25132,25394},
	{24774,35199,40403,34138,-54156,-17387,36550,52331,36314,4983,-46400,40720,-15647,13423,-9279,10787,-8857,-2674,-15543,28265,49620,-35774,80797,189720,-53444,-15118},
	{43856,3561,-31830,61674,-27641,-65838,16149,-54221,29548,34151,-46008,-64528,8867,58924,39013,8070,-29351,15796,-25956,8011,37943,29274,-8357,85411,118482,35196},
	{9712,24810,-43848,-32505,37839,-91874,39337,-75090,35452,2,54044,22842,-37312,35318,29978,10720,-24801,11040,-47147,-18047,-45343,72751,-16933,25082,-122706,-21917},
	{11820,18862,-8678,-9657,-24742,-14461,11867,21505,10562,-10659,3987,-31931,-4404,-26655,-13387,-5528,26948,-23736,-17427,-17827,41880,46078,-4589,-2648,12044,-21973},
	{-73612,5557,25894,36843,-5697,-12310,-27028,78321,-46174,3258,-29743,-5927,-6288,-5082,-45101,-50051,-22523,33344,19140,9026,55117,17432,-92923,-70821,-145735,-31574},
	{59457,24358,1436,13573,21987,13004,8804,-57983,1173,24426,18103,-4238,-1353,-38587,-24344,-20398,-41837,12417,-16265,-28618,-36361,44929,69630,-43886,-89379,-22096},
	{14390,-452,139937,-47936,-36254,-28983,-23559,9604,-31323,19207,62591,-39499,-76081,56894,-5139,15798,10058,7271,26561,14476,54166,-7935,28934,-67075,11761,-7731},
	{6750,11402,-24208,-14710,41283,-36858,-31705,18845,36367,-33907,26069,-21231,-11022,45095,46463,-38620,7616,25445,-20200,-38321,10258,7264,6907,35263,-29021,14813},
	{35679,12761,49757,-22552,61536,-62055,-18913,2966,-12983,-19733,5976,33059,29263,-33481,-25862,-31541,-17209,-19624,-19612,16946,42939,33869,19472,164300,102470,19598},
	{29695,-97077,23979,-2705,28508,-41532,10435,-63228,16213,2727,22691,20769,-6586,44897,-5936,-3758,41764,-4585,15591,67934,-40450,49760,-8661,94307,-73467,-18316},
	{-15957,15285,8443,-723,10562,49970,-20315,32748,20378,29729,21879,-29502,29379,-922,11724,-12126,20634,19450,20930,-18615,24630,73204,-17665,-30961,-118757,-40579},
	{-89893,-88783,-117999,94571,-39493,80159,34098,16913,14647,46795,65988,107578,25218,102575,-25724,60039,-42339,31755,42629,-26379,-56975,51021,-79376,39831,82148,35125},
	{-12317,37276,27292,-22780,-25097,94622,4235,-5531,-5897,8281,-6234,40433,29044,8723,-28879,5259,25529,-16273,7179,38281,-27241,-62133,53026,223628,-117018,20673},
	{64219,34111,-129543,47229,-13826,47159,-56280,-52159,-41808,-3163,-39013,-4025,-9180,11895,60657,30557,-7980,-4943,-6704,18480,75247,17511,74509,156374,-41526,20362},
	{-6228,-34927,-30463,21,-18287,5901,33925,13446,-43586,411,25724,12358,-29185,-18694,16859,-40827,4302,24173,705,-34077,-680,-24708,-76462,-167638,80088,7155},
	{-51449,-27717,-14880,-2747,-20655,-31490,15062,-44909,-26504,-23436,19229,15859,19037,-7375,-4540,16569,10189,-23904,4275,23265,-21467,6333,-96923,-165535,30604,26274},
	{7511,-14542,-11729,-19277,37960,-4370,-20110,4661,-10759,-20403,-37194,15310,28226,-12548,39310,-20611,-21177,-13254,-16039,33926,61363,64588,-50393,-84079,-18787,-26101},
	{-8665,-16591,2675,20233,15305,-43423,9964,32699,18124,614,21881,-7149,16353,-8126,-921,-3335,29891,-13237,-15391,25327,-8328,18085,15348,74179,71833,-8557},
	{-56855,-48296,-27088,-22425,-19739,-64169,14960,22881,30286,14955,21221,41853,-11072,-1944,25923,-39667,11508,19979,3356,18069,-74873,71419,-22405,-28751,114140,38988},
	{91523,64497,-29055,10648,-10663,19448,-48542,-9471,22651,-3728,4487,15227,33733,-45350,10526,11030,2962,-14360,18894,7157,32911,-41001,131694,53453,-92435,-16730},
	{-49588,-11104,-291,10500,-7420,-21290,-16087,-40775,-33586,30717,-16496,33926,-9976,-19723,9351,-15864,5944,-11384,-17139,11630,28558,7017,-67806,-82591,37770,-3591},
	{18240,16136,15967,15806,14613,-24907,25748,-14374,13360,8949,-16814,-32354,28539,-20432,-8659,-3177,7120,6390,-26297,20223,20158,-68470,66009,-7875,-64418,12608},
	{11102,-18933,-33088,-8306,12339,-29317,16097,-26303,-10934,-43398,1631,-2521,-2048,-29860,-26683,-880,12661,-4917,16139,18111,37489,-51120,-68991,-99250,-2252,-15396},
	{-15383,-31751,-22678,20772,-4643,35918,31336,17867,28351,-19772,-38188,-23104,5743,10771,-12273,-15034,-7147,20371,-1493,24141,7716,41495,-17415,130779,4587,-5566},
	{139911,53124,23224,2204,36838,-18227,39641,51893,58959,-65229,54007,-29874,38407,17861,18515,16795,4237,-18147,-72163,1438,38004,-74472,215724,-95097,-164391,-39756},
	{-8751,-39268,-13940,-15233,-2008,-18489,-44512,22854,20625,15114,-31892,-10900,16883,-5643,46252,-31901,4307,26011,-8571,28318,-49235,48949,-56231,-234379,50054,-19141},
	{-32997,-42181,1024,-484,-36641,-31761,-53380,24550,14450,24922,-58522,-6726,29065,-26117,-32282,-43204,1433,40090,4832,-38143,27207,-32127,-126471,-61249,122482,34273},
	{-123678,-104311,-94296,150803,-20512,66210,90552,44263,62132,27801,-53965,16839,-7928,-34006,38413,64098,-68953,30856,-23774,43919,92244,52146,-217769,-40795,217606,51787},
	{-40334,-43871,19951,23926,-94324,36278,-9260,6371,-22776,-17102,27022,63813,31978,42762,-36325,-58082,-13339,9822,12849,-14002,5988,-45253,-81114,-54405,-138253,-51758},
	{23649,3788,23606,44425,23505,27805,-3938,-1256,-23044,20588,-12133,-9806,8106,-26059,-45566,38873,-31214,11031,15240,20018,-59189,52813,72499,-46612,-88552,-45847},
	{24872,20072,-27270,-41540,-45492,-31830,-33137,-4237,-24251,31960,41096,-7154,-4170,-39298,-9176,-18771,-23244,-19930,-498,-20577,31765,62939,-14684,-35291,-99255,-45364},
	{46820,89223,48993,-35073,26168,-13067,-41398,-8188,-23617,46258,-33131,6497,36703,6314,15488,-50114,-129,4677,50621,-12591,93386,-42483,38510,198624,-122707,-2305},
	{-241311,-58892,135847,52544,54295,95563,47019,-4715,20850,54281,35882,73949,-22203,97844,-54816,51007,57358,-3526,-43514,-54361,-25682,-69436,-210641,-112468,221914,31282},
	{-5998,-12267,-5372,8085,18996,-33127,-27053,3241,-19360,-17246,-6625,-28173,-20257,-16126,25794,3527,11819,-4710,-13285,-13788,41553,-41075,-14813,-175034,-40483,1759},
	{-4860,4879,48862,30874,50838,66728,27365,5270,33177,29358,-33897,32181,3101,14340,31725,12571,-8352,-14693,29867,13630,31527,48680,17129,199122,264,41384},
	{-33829,-15754,-14526,65304,27046,-41179,22420,23763,12643,20320,-42942,-50241,-36413,-17053,-13042,-21941,-28868,-13986,19408,-22231,-71879,-61929,-52026,-221252,-107340,-24353},
	{-69231,-31658,32138,13957,-32934,11615,40390,32371,33527,10192,-2114,-6710,33225,23766,-15530,48832,41970,-1276,-22277,34299,43132,36159,-70900,55586,44407,10331},
	{59564,58601,-23570,-35547,2981,47540,47299,-25879,-6348,-31152,37059,31241,-57746,-23270,41731,-34249,-60096,-57969,33058,2809,25143,22349,104334,141084,82127,8156},
	{-90874,-94424,-45422,-777,-20230,-87478,67542,-41626,34343,-12242,29858,-38966,-44730,36972,8883,41422,20712,-1195,27879,18802,-118440,32529,-130308,-68998,70447,-14472},
	{-49447,10637,11719,1888,-34173,-24787,20441,-36191,12396,47425,-30114,-2845,30671,19879,-8834,-39215,22855,-19352,22910,15696,20847,25717,-56955,116100,73787,14403},
	{-13392,4325,-15449,-36176,-14140,13098,953,-8310,-22089,8371,39114,-12280,-11189,-21090,23977,40438,-21326,2366,37234,-6839,-35215,82227,-45812,150719,75756,2069},
	{-9100,120451,-48703,6213,37316,76308,42664,65000,-66060,-20248,80651,27819,-36741,-17511,21709,4958,39998,-32773,-42402,-34731,182668,-59080,-11151,103961,-157111,-60814},
	{-97880,-61960,11623,-1148,35681,35650,58698,1672,3275,36457,15820,6092,31364,2810,17512,28073,-8922,22776,42392,-18844,-11925,54704,-129302,91918,95969,27360},
	{-1867,-8521,-771,-28571,-24440,-34108,-23687,-42410,13902,-25197,-25832,-26124,15845,-12968,-9495,19574,12187,-16786,-22443,15035,18465,-4434,-30926,110548,101864,31561},
	{-36508,-17861,67467,71327,-51169,-88522,22138,-36439,56573,-766,-48165,23912,-3989,-8996,-17703,-42581,-49247,8052,37108,28003,76862,-12048,-103771,-56459,-88851,-27061},
	{85107,17053,-36572,49357,-14799,-54143,26280,-6891,32550,-54141,-32370,36069,-45092,-28832,-5380,-14680,-29649,22698,-9784,5525,19198,12266,81349,134405,104074,21450},
	{-67219,-40055,-71541,12951,28494,-11452,-54504,19463,-10043,18118,-29810,-21997,-3872,26168,23752,17856,-19821,4197,17861,-3365,-22134,-65281,-121916,-96066,-86678,-31364},
	{7211,-21336,23164,39386,29539,69938,41473,2078,31549,7561,16269,29664,15551,-15905,-14040,29130,-7351,-19592,-22806,-15142,82809,-17140,-28966,-11885,-43770,-6600},
	{56520,33579,32224,-3702,32900,-44903,-39399,58091,50686,-41130,-26102,-29181,-8225,448,-11023,37610,-5016,17744,-27236,-28688,54639,-8110,65170,174044,-25201,-21492},
	{32907,28705,3649,5450,-47732,-1630,-28367,-11236,16107,-25671,-34553,-21480,737,-9235,-15173,22667,-26709,-3333,-18860,18870,33336,-37000,-23402,61220,-23207,7861},
	{68545,22002,2382,27858,15946,-7406,23268,-19128,25390,-27364,4679,-25238,46559,-42567,10906,-18169,13667,-2483,23579,3756,-11357,-37758,114988,-19348,48133,39218},
	{74484,41387,18624,-13892,-16922,-12779,-24727,21205,4789,-40845,-34990,-15052,-25201,-28040,1551,20523,-22599,18852,21256,-24242,-33621,16089,125322,-3548,-44271,15716},
	{65621,40694,-947,-13871,19192,64700,-24817,-33019,998,-22550,-12056,14645,-3540,-49121,-40534,36363,-21108,7461,-16695,30130,63708,-32766,66255,170646,-31402,-750},
	{133462,55428,74633,42353,117739,-15159,120605,-5223,-48699,46895,-6764,-5421,35461,27731,-20756,32390,-7175,-22982,21538,-51928,65497,58849,246035,266472,-151673,-46184},
	{43414,-17568,-24142,-18356,-6145,-8004,-12613,-6985,41439,-20935,21439,-14718,18185,-11765,-31571,1329,-3635,-18889,-27894,-11466,33644,-69295,-11407,-76247,-27008,-26421},
	{64290,36657,24764,36773,-42424,-33352,-45050,-8169,-17015,-13561,-19431,-1198,-27185,-19915,-10918,24739,-19496,13841,4893,32986,9564,14511,109077,116860,-94999,3165},
	{29226,33617,-59467,22862,11790,-11033,20932,50978,2616,-36373,16434,31365,-5431,20000,-29175,-4009,23596,-395,-34351,-22705,-29810,-53873,83492,69508,-75015,32146},
	{-33975,-12582,11480,36858,43735,29973,34598,15839,22857,32088,33338,33187,-4187,-18558,29248,-22978,-20149,4131,-6952,13221,-57121,-48732,29576,-69954,43294,34438},
	{10376,26475,-1300,65767,-14722,-16637,-5014,41260,-20091,-29697,-25234,23652,-948,-2857,-12494,15495,-20298,11819,21761,13126,-40048,-41764,71052,24505,49897,18121},
	{29,17688,39309,17254,30388,5414,13969,-29863,-4340,8424,-26621,16790,9307,12239,-17605,38783,12364,16533,-39322,-27948,-22046,-77131,16818,-177819,-129021,-20766},
	{-82887,42045,120008,36380,21720,-12223,-17058,-8628,24636,-33413,31923,45885,35766,-35368,14265,33373,25429,37072,-3191,-9646,-25048,-40188,20061,-95682,54192,1481},
	{12848,181837,-103427,-26921,72131,-141457,48360,-13568,-52429,9767,-36558,20198,12174,-27017,-23194,68417,-52664,24679,20180,29697,-215150,15491,126953,-86809,2994,30715},
	{44308,2637,-2020,-27003,44146,18237,-4871,-44705,19759,-37550,-1910,-51247,50182,-22980,-28273,2460,9779,5778,8702,8872,51531,37020,54841,-137527,-19974,-26285},
	{-49864,-30003,13794,-38555,31151,18959,22003,6368,-24797,39515,16249,4166,8382,-16896,-21907,-6672,20346,26509,-4624,-6626,-6562,-18659,-70466,-151141,-49792,-58526},
	{-50220,-65141,-28692,-16643,-1586,50564,-61461,-43336,36253,-498,-33285,1702,-27570,-18960,55730,4078,9255,7131,7374,37745,-104734,27204,-94045,-30674,142627,23308},
	{6677,2269,8143,-1536,-26204,11823,-32655,-30339,-37648,-37690,16681,-660,16972,9468,4345,-36653,24472,17713,22672,29300,33542,-39343,-39605,-63943,78489,24381},
	{70058,52929,-152899,30377,43255,28705,-5388,-14976,17912,-4887,-38548,56198,-8105,38873,18849,11117,42471,-24396,-33145,30494,-28509,1938,75733,254599,-28129,26252},
	{12930,-26781,3728,-20185,-11238,-41656,7995,-3172,-8027,11919,30467,6944,5205,-3332,8093,-2394,-28576,-1364,11557,40216,-37828,82101,31442,14855,-17637,1452},
	{31890,12586,20535,4219,28415,46600,-10852,16174,-19836,-43259,-47761,-31923,-33303,17672,8272,16542,-4971,-1694,17006,-11891,-28184,-67863,73613,-88127,-76481,7560},
	{-25719,-32761,-28375,31862,19483,-26542,-13875,384,33710,-15104,-37582,-3025,581,22380,-34884,-38041,-51411,12380,-17905,5525,60364,-59192,-97075,-258981,-71972,-24370},
	{75799,5114,-36538,41374,19761,10941,28075,-11163,-19617,-30605,23939,18060,-34739,-29065,34768,13636,-2731,31732,322,20702,-56493,-17159,119798,137697,142044,24489},
	{66524,13555,-8534,10476,29306,55633,-21049,25438,3288,-42857,-21633,-6063,-35038,-32250,986,-26249,29511,-11081,20847,13742,-43109,6109,97456,39425,-111306,-29856},
	{-48663,4085,35389,27730,20360,299,-27744,-22016,14232,-19815,-50984,10911,-28046,37130,32878,-4147,-24982,-15191,13222,33168,6153,-35792,-31338,-82895,-66442,13453},
	{32088,18449,2299,-9728,29621,-5225,8081,1203,2348,-29655,-1108,-3578,-29576,-15331,-2455,10096,21372,20137,1233,18291,-7262,-100236,33168,53975,30682,-9850},
	{24521,47510,33620,32235,-55553,-37745,27828,-23515,4066,-13692,3850,-30918,-15385,-25636,-12531,24176,38163,22547,21872,-22602,-43988,21500,75087,-113172,-103914,14592},
	{-94118,61784,-4753,-5888,-46950,39774,-21723,51231,-32958,-16496,8456,20848,3573,21125,18408,-28265,17736,1797,-9694,822,-24094,20040,-55254,27957,41107,24194},
	{-17535,13425,15082,60245,14264,16306,-36639,22030,3036,-6942,4036,9517,-2759,-33120,2603,9824,27918,15680,13251,-50460,-17926,-99602,36244,-245410,-118528,12062},
	{9324,4770,13123,17439,2603,66624,-13750,-28576,27237,8597,-16836,4254,-33868,19035,-38397,46826,-19114,11311,5311,-21286,56831,2828,-34296,180116,-80370,12801},
	{-40199,-10334,832,25026,-25841,19295,46764,-234,34519,22767,9866,19391,-3395,-13445,-4176,37099,35499,-13653,-14671,-3199,28963,22895,-88579,74575,63391,14362},
	{-76740,21657,-51233,-30704,97441,-21337,236,-8144,40024,32446,57354,9123,-14230,26233,45921,40028,55956,-39203,-22357,24183,54960,-40447,-113251,-51205,77960,8619},
	{199861,126695,43809,39236,22839,7697,65430,-32776,15699,-52983,-99491,-113458,-71045,-74745,32544,45307,40657,11659,45979,-75260,-78357,37288,361399,-74281,-314342,-76139},
	{-31028,5632,16038,-17655,-19379,34952,36242,36556,27667,-1348,-19924,21634,-16557,-2354,25373,23252,-24447,-16551,40004,-14254,-18906,45018,-74426,-209,54041,-22749},
	{-2903,-18556,1495,-25185,-14620,-38321,11653,32812,-28810,18841,-10873,-18068,26701,8081,5880,-28924,-9150,16356,-19637,12678,-8618,-18356,-96,106454,20332,-21453},
	{-16681,1421,-17664,-14436,13668,12709,-16094,-32457,15105,-28587,-19528,25863,-33143,-19715,17816,9617,20015,14901,-5454,24560,12693,33823,-12604,15015,67218,11970},
	{-62427,-51209,-40260,39537,-7780,24719,9501,16481,-19216,3428,15302,-14779,-2952,-8450,33489,-128,8272,-15160,24939,17683,29770,-29174,-81860,-80907,-53418,-18338},
	{11812,-5493,7927,-22443,-58194,-11354,-52149,-477,-33732,-25870,-27931,-7122,2716,-4872,-17856,-27636,-27744,-7533,-15536,-21016,-44139,50737,16437,-87015,-88183,-30414},
	{-21103,-3668,32331,45531,-6506,19453,40,-18468,-42384,-5905,33790,35728,15495,20875,16277,4914,-17659,8225,-8961,-9489,-13903,-69679,-43847,167994,-66036,27933},
	{-16002,-548,10006,-8964,-7980,5196,-7256,-18886,-20347,-11463,26259,-934,6636,-22945,-15402,-16628,-24469,13528,-12866,14880,-832,-17696,-43118,-5797,8781,20374},
	{49892,79911,25676,8438,26809,78696,45301,55533,47128,-60886,-11761,-14376,-6811,28278,-21507,36680,-15727,59,-43845,-24064,110754,13318,106900,67335,-112231,-42821},
	{-47464,-8203,29239,1018,-23558,3864,-28999,-18083,5053,37567,21109,26601,24352,27579,32592,-15015,-980,-5408,40259,23390,-16317,73127,-4524,136510,63085,34900},
	{23613,10578,3464,-27597,26344,8089,17350,6806,-17146,-16024,-32699,-5305,11172,6205,-22902,-24051,-40165,-4145,-45052,-1592,9627,-68920,47293,-177108,-80013,-33157},
	{-37473,13624,3794,32600,-34751,-11593,-6158,325,-10966,-2539,5362,-11190,-3148,-28963,47055,-15932,-8235,22805,-11320,33071,10060,-37642,714,31257,-122727,-22971},
	{-38616,-63335,-115260,81716,65565,-106648,82509,-100708,14015,-30765,18560,22007,-54320,-48715,-3921,-44587,73510,33173,37483,3928,-27781,-22078,-109372,-102110,52517,6629},
	{70049,36865,42815,46333,-47400,14400,-21362,5133,-20119,-32780,27013,5719,3560,-17574,-43033,-38781,-19038,-23060,4284,-36160,-56278,60825,114918,220789,-12128,910},
	{-47780,-45184,-32479,-14478,4847,-21989,24330,-74095,-7745,42465,-12748,-1360,8637,22881,12341,-3580,-38173,-3144,17198,29234,58455,-10801,-153136,-139674,110118,13678},
	{83051,77317,65242,81510,31026,-2843,-22,-26969,14652,-55124,28269,-48742,-16851,-28154,19375,47263,36785,-7423,17336,-54043,-78560,28421,198503,-232513,-105195,36440},
	{-106885,-90558,-70649,47245,17913,-21517,9796,1304,17160,-726,-18306,-31062,-10147,-17703,23897,44971,-44064,12525,-8046,30557,83705,57746,-196694,-241270,159820,38855},
	{-61297,-52405,-21794,-46109,-67360,-3414,-40516,38323,-2983,-44902,31523,50534,16110,16891,34008,31789,-24395,2163,-40555,34415,58208,-36697,-132407,-88779,13758,-40235},
	{-14217,-15013,-1243,-7588,9723,-7827,-29783,11623,-4280,21190,5472,17038,-14265,15388,39092,19539,16312,-14228,70,18703,-4058,23453,-38102,-185574,-70147,-28148},
	{30792,60975,31573,28613,-13094,-13814,22806,-9976,24015,-20657,11698,-38420,-19143,-58613,-7662,4364,-27326,-12529,-27137,27156,-4762,-51646,75359,130174,-48031,32538},
	{31614,-9287,86482,-10108,80487,-112571,-11410,-41664,-27754,-17164,-59203,-55063,-27909,48712,13033,-41893,-33994,2759,39714,-6754,79349,20321,-43316,131184,101348,26212},
	{86023,40567,-165535,37464,50707,-14803,55545,15730,-29424,-26758,-67144,55255,59118,20527,28260,-837,50796,-2751,-16179,49852,24185,61545,114954,245049,-108050,-8474},
	{-57266,-2813,-370,33150,33179,4380,-40578,18350,-28711,-34081,-10592,-22742,-14551,-16395,-41771,7817,13287,-18506,17597,36411,-18026,8954,-82562,-81271,57201,1580},
	{-61960,-46512,-18729,-24474,-2869,-53055,6896,3801,-19424,14765,31765,9045,-22976,-12024,-1709,-15105,7572,14742,-22481,32953,-12090,48150,-78437,-239517,-51646,-50535},
	{-17080,-1780,17187,6122,-8922,66522,-8082,-16596,18725,40937,237,46557,-17341,36836,-10717,-41367,-10126,7569,8616,-6762,26936,-25201,-7933,209415,-73051,16310},
	{-53972,-47523,-15607,14018,11326,46618,-33369,10191,28172,-16559,-30381,-8708,6824,18613,-29591,5833,-31142,13736,5402,-12111,-8635,-70487,-47851,-146997,-87038,-13765},
	{4162,-25191,34821,-42001,20386,23770,-16073,-832,21753,-43563,27961,22754,-17142,-22956,20785,24137,-25555,3287,-34129,36600,22032,-42458,2871,-146476,52362,-26953},
	{-38410,-40602,-13409,18851,-27645,28291,52712,13338,-36087,15491,-12050,-28597,7452,-22157,4235,-27388,4710,20549,23890,-10735,10136,-31787,-93921,-101381,27403,-13058},
	{37017,-8964,-7008,-1087,9262,-30119,20176,-21179,-21066,16192,-1018,2648,-17345,-9967,5847,15394,1611,11502,15088,-29968,14121,-47405,10128,-36025,21451,13403},
	{-14816,954,8734,-50974,18820,-33961,32119,-7523,-37307,-30369,-28615,-17491,-35013,-23866,-20492,-14149,17320,14639,-13362,33614,53166,-5986,-107185,-177484,-39665,-31872},
	{-27876,-8198,-36371,26970,16848,12384,-61595,-11491,-14367,16108,-21749,2266,-11431,-4104,610,5875,-32628,14316,15525,19548,-50257,-43376,-268,-145946,-51752,25391},
	{181335,100654,-45185,28881,69510,-8923,92769,39595,-33350,81685,64251,32564,15184,49428,-45817,-57667,-47930,-18263,-70766,28345,-27355,50815,325277,-47676,-308890,-81996},
	{61893,54874,9060,3841,20179,1645,43987,-11760,12554,11276,8722,39635,-30284,24103,-28695,-3213,4830,-19569,-45528,-13472,83593,29021,59722,-45824,-98931,-44359},
	{108674,73773,10983,-2845,-62821,-10869,42702,14508,30338,-493,9697,27409,50712,-31765,-29424,28543,28871,-20024,-50790,35472,-41049,-36855,187184,-13998,-124990,-38403},
	{-233235,12045,-83299,-5334,-103088,111552,115738,14764,-43303,-47203,-34511,-33225,9354,-13821,-25292,7988,-5436,16547,-24961,-27941,-166394,-43055,-230066,-203819,306779,84693},
	{121922,81493,84717,54720,-6471,15928,-64947,37246,45440,-32674,22025,51160,46682,59890,-41475,53757,32170,33322,-19852,-51408,-85109,-36280,273557,31252,-160312,-9241},
	{21192,-35058,-36165,-26933,9814,-88128,38009,-91563,-50161,-42268,31003,7819,15283,-17556,16770,-50810,7667,19388,31881,-33813,-7181,-50081,-92976,-260347,114621,-17474},
	{10981,7204,18085,-47281,-9767,-23496,31008,33390,11646,-18033,-5674,-8533,17900,34497,-10776,1523,28675,22753,-18214,-22496,54263,2290,-54387,76196,54274,7024},
	{-121418,153210,-19029,79838,-7286,-67108,-23003,-31980,-46088,12865,35207,-35194,-27630,-11363,27630,745,28953,22936,-13319,-39448,10185,-16402,-73236,-111901,59082,29150},
	{17729,-30191,-6885,-27388,4927,25708,-18723,-28396,25103,-10360,25988,1170,3570,-6147,-16988,-8026,-14230,-11600,20328,19875,-8008,-27183,-17907,3797,82124,8220},
	{-75326,-27828,-21965,-4627,7079,46331,-68211,-37475,-37955,41131,32894,-5019,7094,-4169,-2200,-12122,-5859,7217,-8043,-3999,-7021,-18273,-81090,-278870,-152521,-29588},
	{-37887,-3352,-3858,-41909,9274,-12161,31278,19671,13675,-2041,4480,-6668,11877,-21676,597,-11930,-1101,-20389,20417,3578,3768,10365,-28292,41032,-2933,4596},
	{82428,-4114,-78708,41124,71531,83209,-98570,29697,-44292,66835,6887,14794,-22525,4960,2050,333,-16013,12554,-14181,41627,-98162,14779,139060,27803,94299,9527},
	{-3138,-3446,-6073,-11610,17581,-1498,-31393,21702,14849,-34801,-52823,13253,14772,-30986,8353,-15024,19557,26592,-7117,-29433,-63838,-68030,-26358,-164440,-2225,27433},
	{52318,38132,10953,22615,-27032,-16915,17645,20262,-24864,-39733,-19954,-15761,-10983,-16107,-46145,-30437,-20412,-16916,-8796,-39632,10448,30891,85977,161727,19937,41608},
	{-80863,-52123,-15955,7920,-22989,-14564,-24538,15354,-20800,-22840,43013,40084,30569,-17997,-16513,-1667,-5523,-15457,-7823,-7461,-15475,55037,-125958,64749,79504,15379},
	{4842,527,-17160,-51427,5264,-22958,-2700,-43961,-2091,-10126,10360,18880,16354,-20712,27504,9747,-26142,5564,10377,3544,37241,79479,-50065,-236935,-3034,-49635},
	{-3244,-35732,-3809,4490,-16034,44203,-6092,-17547,10929,28044,-24386,10308,16402,9285,18379,21137,-19909,-5384,24815,-17865,59164,82416,-51719,-16206,22827,-15164},
	{-23907,-6401,57409,-14126,-15469,-53949,35282,-53106,-37782,35847,7823,-9427,-20941,-21918,10959,-18700,19831,1242,-3059,30250,22530,-36401,-13265,-125946,52312,-16700},
	{21575,23506,21166,-3327,25107,47099,23893,10625,24907,27011,-36183,-34381,33223,15810,-4191,17100,-5355,11839,2678,-14129,42733,48300,69419,99568,10226,-13145},
	{-14003,-20989,-104342,31774,-10964,20702,-61182,4009,-41635,-36487,-46366,-20652,12529,-15061,-40419,35326,55670,-41592,-3880,-20721,-64058,52485,-80137,274190,58298,60227},
	{30365,14560,14421,7271,27650,-5685,-16657,15575,985,-29084,25893,-6260,2631,18172,10826,4495,-23799,28892,-16684,-26307,-32565,-34348,35917,-144124,-94492,10631},
	{18084,-6955,49321,-20332,-9963,22774,-28329,-29315,-17067,19952,-23546,13650,-32624,3326,13496,15867,-7500,-2545,25748,-36996,26495,66064,32502,53758,49065,-2295},
	{-3381,-39078,-20521,-41481,6439,7566,32361,-39188,6626,31992,27362,4586,22378,8959,8988,-10367,1485,12680,1023,-10379,-5322,81493,-40670,28151,72410,-19660},
	{168442,77918,69570,54551,-138824,-602,13917,14762,11946,-40895,-56823,3671,-15631,39705,39702,34243,-55296,-24235,-61635,70213,-71158,41883,252236,-20284,-214558,-14400},
	{65315,25767,-10774,-25196,8589,31968,-37620,15186,16289,18824,-24361,1423,-37799,22160,19823,-34348,-29192,-7192,6292,11751,27026,24234,53827,-72026,-89888,-44200},
	{11761,-6694,2812,30730,-27062,-7646,-19013,-4972,-6830,-28904,824,55509,-43081,39701,-5110,-9074,-15186,13637,4101,18358,-57736,-49436,73304,189065,116635,38110},
	{82470,32159,22330,46126,41491,4137,-49177,43876,-6237,41502,-3300,6869,-20212,-20849,-20059,23767,-28712,-16724,4263,22686,-23884,-3279,106299,-7401,-122025,-7820},
	{-26421,-9825,-172,-1452,-28538,30261,-42462,-16443,26592,-12169,19931,25846,-7798,-32577,-9415,-16976,15427,-14673,27074,41814,-52325,-6672,-70281,53865,46458,3193},
	{13902,11613,-11900,25362,9584,-16073,34832,-10382,-18099,-15362,14777,41022,39112,21328,-20652,-30073,40272,-18901,-38651,-27046,-16070,26730,70441,117631,-87410,-13225},
	{-54288,-67114,-26194,-12576,-16941,-13384,-60447,-9536,22037,-13480,-41836,-21993,-7971,29738,-29824,29245,-12343,-15697,-26181,-9303,-72812,-13133,-107303,-52014,41082,-6271},
	{17341,14158,41588,-81910,21293,8150,21423,-24203,-11739,-14834,45023,9832,30098,25961,-42135,-5430,-18622,6459,-23869,-7933,55782,-26706,-49705,120790,21189,-41046},
	{15786,-1110,-20178,12309,31318,14494,24499,-32522,26874,16145,-4613,15354,25106,-42348,12119,7576,18077,-3875,20633,-19672,-15333,-8698,34310,-100126,-62647,-33055},
	{66746,61020,-173332,35110,16473,-24876,-36697,-3764,-30583,4346,-45288,50903,2667,-1714,2626,18852,32966,2970,-28763,28860,41729,-5800,52667,152891,-120437,-27012},
	{68597,-90824,-17465,-222,26738,-21594,36138,43099,-28718,-42001,-21484,-38537,40640,920,32729,52942,-9648,15378,-54707,-23660,44397,-88498,-8461,110673,2067,-41302},
	{13125,2728,37496,-10364,-7039,-56714,6324,-1336,25486,6624,-39269,17111,27035,19601,-357,-2034,5148,13060,8035,14773,-12709,58088,30011,43851,107776,43893},
	{-11945,-28746,6416,13720,25789,-20705,-25705,-21792,-26501,-30359,7186,-19626,-1667,-8527,-25181,3542,-6058,22015,-6659,12016,12347,17976,-64714,85424,-78162,-16374},
	{68628,57437,12264,12413,32945,-33655,52626,44995,53605,-45874,51224,-40440,48066,19260,39212,-10082,10339,2029,20904,-34543,71991,43643,117751,115786,-89326,-27553},
	{-83430,-46161,-16812,-4348,-22436,7255,-1200,44623,-15572,36022,-31979,38858,14706,-17213,25097,22658,43633,7156,-18794,-1892,23105,63289,-115352,157165,17666,3123},
	{13900,24592,24501,-18096,4032,46416,1063,34392,-7855,1823,-22459,-31365,22144,4510,9859,20872,-11123,18973,6386,-759,29655,-57627,42172,119183,42255,18230},
	{-53186,-26365,56176,42916,7406,-20781,-56894,-67863,-69530,-72841,69629,26039,27166,-49415,12884,-84583,-11140,-1459,-47968,71760,77574,-87903,-107840,-146503,143467,28811},
	{12673,24503,12420,30814,1113,15,-16657,-8849,-31782,-30092,-29860,-14134,-12483,15535,16097,9158,-22283,-14016,-19083,-24203,-7263,52214,36971,6212,-112201,10339},
	{29422,-1290,-2761,-13818,26840,3477,1476,-22548,12385,-25829,-37756,-9256,38593,-31343,2149,-19534,11253,6744,-9693,-34042,31899,25626,3756,-100148,28912,4789},
	{37536,37822,16978,53256,101316,10442,-24810,6032,-41030,44684,39007,42509,-4891,-4457,29887,45120,16789,9755,33970,23797,-73027,52347,135383,-20930,97797,21771},
	{37669,2428,31213,52495,60,11268,31415,53417,-17994,-18295,38933,33249,-8344,-22219,25480,7500,11409,-20182,654,24501,-2715,-83401,103316,205205,36201,35416},
	{-42893,-34110,-19419,71546,12012,23843,24412,17245,6482,-24845,-49106,16217,-5495,-4052,-20491,15603,2792,28819,26427,-24211,-38473,-59752,-5365,-176725,-93942,-50351},
	{-44870,-65344,-36817,-38172,9589,49029,43684,-34252,28578,-55748,-51621,21810,34993,-46904,66666,-25162,-14122,9294,-50644,54084,39073,-81094,-103543,-178499,1921,-56641},
	{57362,12883,-1397,20004,5130,16149,16940,-1896,19025,18414,-7920,-25222,-11018,-21378,-26295,1545,-7921,-12232,14366,-15315,-68653,-52737,93895,245653,109623,44277},
	{-6089,-21178,-25658,-1967,-21338,42380,42430,24656,-26546,-3851,1664,-9295,24693,-24406,-22026,-8643,-24595,3009,25010,27930,32060,43260,3202,-86409,96064,6116},
	{9451,10682,925,21593,-18148,32211,-8905,32910,-75,24767,8895,-31503,5037,-21714,17708,5965,241,13037,42556,11699,-740,-39588,57812,176021,87792,6330},
	{29337,41432,57026,41361,77809,1618,92354,-41950,-12506,53839,-13863,16306,34603,22470,-151,47788,-5266,-20425,-39740,41462,-9219,73064,133085,178009,-108481,16820},
	{-16587,-2270,78326,-43630,-20916,-9309,10706,-18390,34610,139,-12000,-50512,-32674,-24691,-31926,9338,15475,-11310,19578,-21145,18985,-47164,30216,-184981,-13619,4086},
	{106242,11497,20993,-148311,-91583,-66957,-76888,-6797,-40011,363,-67839,6530,13659,45149,-67902,31084,-48513,-36446,-16126,-35589,-15737,213705,29530,125377,40774,-14343},
	{-23354,-7801,-10040,-4277,-21311,-13623,17654,-43762,3288,6266,30453,6176,-1854,-20295,3885,-27149,15391,29373,-12223,24654,-23808,8490,1202,-175011,-49884,14154},
	{-21478,-41486,20747,6325,-18950,40746,40292,35778,-21680,27717,-45314,-24168,-48062,9400,-21122,-11727,-4552,11714,-16090,-3590,14231,46524,-69556,62911,62657,31138},
	{11824,19438,12679,15161,-3627,1279,-21370,-7125,-24873,29331,-28976,24924,33329,17308,1526,-12811,-20982,-407,865,8041,21371,61097,-739,65831,-117481,-46844},
	{51551,3443,10691,68552,-33235,-27072,-14976,17142,4041,-49491,-26078,-2940,-25738,-11877,-38938,27750,-41663,30700,16620,4357,-31826,-11469,74886,-195712,-59437,-7472},
	{26601,16537,-81,-2184,-34248,24399,10389,-24627,2839,-8767,14405,37420,-50556,16742,256,12624,-26439,-21583,23210,16726,-15295,-42038,26815,-73859,101724,64490},
	{-52147,-56313,-18769,23993,-22287,-49119,-17917,24664,1729,-8984,21887,12678,-36430,-8501,31370,1262,-15278,8692,-12309,-13759,-17530,82945,-93222,78226,43136,-12786},
	{68442,5043,28307,25156,-97952,-17405,58839,18512,40010,13399,57123,8231,8238,38218,29916,-7530,-10913,12837,22655,-45941,31726,-43172,64839,76284,-131691,-48632},
	{107030,50207,32691,134016,-68689,-62533,-66232,-6383,-12477,-31994,-31897,34334,35712,22509,17591,-12418,36158,-1019,-4037,-52220,13966,14279,155680,193649,117782,68278},
	{20301,-10740,7691,-24188,18295,22150,-12751,-25763,-33974,30298,25005,21585,-1229,-20670,7279,8339,27692,25105,11215,-42453,14055,-23385,-34278,-60130,114938,2827},
	{-17669,16420,27509,30004,8379,-18721,-10757,-30378,-5675,-1319,17967,-25865,-22262,37107,11404,-718,23484,16719,6681,6576,-16165,-9875,6542,15613,2222,20545},
	{-23959,-34190,6765,24347,10544,-24058,-2418,28497,-22072,-11295,-25574,-6780,1769,11292,-2048,-4691,-19400,5072,-5028,-14231,-30030,18876,-44940,51935,-92486,-27395},
	{-4478,11438,2252,7314,-15280,3144,24524,-5965,-13763,102,29753,14167,-12297,8065,37424,-5394,5850,22825,724,-16704,21573,-99083,31408,53202,-57971,-28209},
	{-41936,-13191,21773,28199,-15612,32332,36463,39422,-22660,561,11920,-16814,26108,-12388,14823,-36862,690,-17302,5440,29840,-24835,38483,-53324,-115794,31049,-4793},
	{243014,-157648,-4505,5390,62404,47984,-45438,87666,13656,66464,11351,10312,-36268,30628,-41812,30442,-10926,-43520,2731,23228,42634,-42426,229032,-23821,-214103,-49385},
	{-5327,-25034,-9351,-23553,-13467,28899,-25589,41054,14030,10343,-36767,-34312,-527,-23827,-19412,37988,-34439,-22862,37576,-39779,55520,-12093,-9331,249635,115010,22724},
	{19427,9979,-11044,31252,-12772,14997,-32535,5156,-23783,17868,14715,27705,13279,-5263,-24435,12931,6483,18560,-11674,3810,-36300,24398,9058,77842,-5715,-21949},
	{33194,-24640,-5161,3377,13031,-32752,14781,19874,-17030,-75154,-63705,28434,12209,-5761,-37367,32306,-15085,23982,972,18633,-67639,35581,39611,-225143,58042,-30317},
	{38336,15477,-16515,-26440,-31321,-6990,3961,-13673,-23258,16842,23965,-49150,-2069,-28451,151,-11753,30217,-15144,10887,18407,-8367,64399,22565,-124819,-57839,-26726},
	{-46450,23126,30483,25750,-4002,22635,5535,-27033,-16482,-354,6021,50279,3674,-32289,-9072,34950,12449,18862,-14547,-10692,-34100,-49010,8072,316896,-77066,49076},
	{-38792,730,-3054,-9339,-35417,17525,-10524,5974,16255,-10989,-15256,-1585,-5560,16056,2139,24556,-19886,5760,-10746,-9456,31347,-45091,-19873,22515,-35566,7342},
	{-50225,881,35441,-865,-26128,82662,-15647,28570,37159,-54869,-38834,-8643,-8198,-9971,-22056,-6556,11235,-13447,1893,-15201,61867,17465,-45671,58008,-107810,-27263},
	{-12011,23628,23394,38520,54798,15776,1074,7042,-28762,11283,53672,-35341,-25146,-18728,-3618,-31819,-18100,-30071,20125,17988,-67141,-19917,79878,-19183,67564,56009},
	{-501,-36394,-12699,-99427,51135,38211,58492,-36151,25568,9873,-70588,-52327,17672,-63307,16876,53907,4465,14408,-24210,-56352,91230,20782,-105409,-81020,98320,-27296},
	{18664,15817,-17152,11293,21717,-6665,13707,-10276,-2472,-19021,-20557,-26658,-11329,7546,-24739,-23897,-24261,12078,6392,-25577,-29403,-42675,4046,87798,-114358,-11819},
	{-20156,-27303,-15530,22830,-21832,23296,-7865,7945,-3590,24592,-76942,48418,4374,48204,-11962,27769,31254,18457,18808,-12136,-478,38519,17703,-32927,-68652,-12251},
	{-8564,-14702,10426,20619,21130,33025,-4350,5585,-24402,15174,-43622,34725,3981,30716,-3524,5769,28027,-16960,18151,-3345,16656,7653,-31789,76270,-52609,211},
	{-23314,-8523,42901,-9942,-43256,-5477,12280,29245,-18263,14016,33103,-25595,24690,43658,-9597,-27794,11150,5005,34174,968,38806,3712,-79379,54968,-59157,-23892},
	{-58329,-88273,-44998,-28318,-13979,-63518,-41942,36892,-49044,30674,33933,-57151,22210,13123,-9942,58967,22097,-27760,-41015,8965,-141517,39737,-73650,18839,120535,19567},
	{-53144,-10909,9497,6788,26935,50265,5868,19605,-1079,67921,-3724,-2622,24080,-26117,-36165,-61611,-20286,-10765,27302,-31172,-52885,-102457,-6724,94558,-108312,-4494},
	{5916,-42121,-4238,15572,-5668,8614,2918,29922,-1559,19942,28022,-15754,-6527,-15231,1014,9341,20549,28886,9668,-11391,-7288,33610,-36618,-95729,-96899,-26417},
	{-44144,14137,2391,-30148,-686,-17246,14981,13561,10813,-24336,14141,-6503,4534,17438,18650,5141,20600,3143,6613,-21289,-48134,26273,-58301,-39917,-49238,11620},
	{-12157,-26244,-16620,2000,-1100,-17065,-6116,11459,-10917,11239,-8510,16211,-17239,-15740,9362,29401,19862,-17425,14671,-20213,32940,88882,-55287,-32326,-85117,-42045},
	{-15330,-9162,-16296,-50080,-5585,12183,18578,-16516,17577,-13611,-15342,17973,-12518,-19291,-38568,-19688,-22962,-16956,24848,-1392,43087,-14493,-74826,157466,42721,36974},
	{-39258,-44590,-26098,11569,8979,-8903,53223,1066,-27517,21180,-34896,-27519,8899,-25298,-45185,-32447,-37153,16052,-23071,23891,39551,-26925,-130006,-15294,99038,-23847},
	{-30632,-13139,8343,20048,9987,54131,-10759,-39157,-30542,-8710,3545,48263,-13544,4890,-21689,43751,-6097,-13290,-23064,-16933,18558,-30579,-13666,56080,-131589,-4060},
	{-45671,29079,2584,29848,33458,-13352,45024,728,-4919,-8130,-819,-94,-2457,4296,13407,26674,1491,-3293,-13176,6689,-10596,16182,-31719,-22589,6424,9617},
	{-66071,-20472,-7644,-4633,-27619,-16252,16332,43119,-850,16534,-14332,10305,19329,-3819,5722,-37051,-8428,3855,26889,15518,2691,37272,-113165,50869,74893,13363},
	{2212,-15580,-37560,63909,4188,-59004,23907,12037,-16555,-40608,5781,14347,14451,-12993,5244,-13361,7399,16291,28419,4766,-8910,-67174,20210,-179594,15996,-21240},
	{-6324,-16721,5598,-11378,-14001,-52284,16217,17163,29037,19385,-28747,-9631,21167,22131,-19012,-32026,15069,13907,24206,14742,21929,-32144,-22620,-64963,65763,35728},
	{-30079,-52354,-23636,26387,-17469,32528,-58852,-4207,3181,-62472,13179,-6010,10633,46256,14642,-38108,41116,32054,-14907,51848,-17888,79266,-67651,-29755,74091,14204},
	{-95309,-73952,106205,30588,-35681,-75170,-38696,32707,7486,31063,42873,10205,-24948,39328,49188,62232,-47318,12551,26967,14040,-28519,-41599,-99578,-91376,25418,-29126},
	{4795,7168,-5928,-10798,-8785,2469,-9265,5573,-41311,8215,-32041,34496,6299,4910,-35135,3078,3538,-9518,-15949,-536,-40421,54778,15972,83663,87903,25363},
	{-11408,8729,27653,14908,7329,-24976,33087,-14864,17654,-14304,17317,-11238,14278,18745,-9759,-113,2101,-16857,-18458,-16865,-9772,44979,33466,-29303,-24069,2619},
	{-5778,-54454,-16912,-19387,6736,-2201,-45905,22157,-31971,-12019,57005,-51250,28167,-16958,-8402,38802,-13801,24477,11114,-22746,-84952,-67445,-59168,-154853,137736,32273},
	{45066,-43323,26613,15241,-68668,-4020,2372,2465,-22789,-34516,-1800,-14321,8688,-3570,22259,61041,-25936,-17810,-16136,37878,-25001,43441,36146,-24091,-39305,-13552},
	{-50469,-9400,35976,12213,-14549,-34073,-43656,-43391,-34691,-35518,22301,-27861,-30977,-5106,-29150,-36593,24745,7490,-33681,-19306,-33973,-14110,-42533,-187439,-124232,-20999},
	{12452,12087,35701,-26506,-10142,-21519,-3182,22807,2867,-15014,3384,19115,3419,34378,25298,-10089,-7726,-12832,-9026,19063,17640,35780,-13673,46882,87586,39538},
	{-15542,-42882,-64688,27300,23958,-92373,-38042,-20074,26039,31689,13919,404,-30388,-9684,-1401,-5773,3601,-19958,-19150,8367,-37877,-27956,-2239,-41467,15323,25511},
	{36084,10049,-18402,-26315,12112,25578,-23184,-10331,41073,-5191,-44633,11804,-26926,6047,3605,1994,-2318,17798,7183,-5625,34733,-101730,60151,-60655,-87297,-13720},
	{-75143,-4292,11740,14690,-2059,24326,841,9135,18887,29201,-24872,-1705,2181,-4319,-21781,-36573,-4236,-13067,34633,3389,-1548,42349,-86433,41137,5602,12647},
	{1341,8207,-48521,1155,15099,27694,27623,21211,26560,-30137,30354,6225,-32573,-28463,9531,-6226,27335,24492,-8839,5848,-72848,23358,65879,-116030,67804,52859},
	{-51603,-9881,15690,-30404,-19112,1106,57868,41040,14584,-22085,-17424,-13580,-26694,-18460,-50286,12591,32800,17927,-37607,-38740,2089,-16551,-112989,-105529,121195,36174},
	{-148436,-84083,-124554,-19558,-91900,68265,103198,-12568,-71001,32324,-8421,-48548,-60036,-33919,-336,70334,-35551,-11095,80209,75131,-46025,-60939,-238636,-52481,215645,15672},
	{54855,45331,24593,12112,-2077,10648,17600,4947,4876,-45942,-54773,-52495,-17611,-48962,5468,21383,16952,24648,20851,16603,-34249,-74172,118530,-135433,-101531,-11613},
	{114045,96538,-5657,-13726,13134,-66394,-74476,33663,43375,-33668,-23211,22627,42322,5481,4468,-3762,-1266,16914,-25683,-45157,70055,-65127,144210,24671,-44678,6040},
	{-215942,237185,-8185,144084,8610,-46199,32859,25759,15585,12158,20119,-30251,-11436,-17390,2426,-48774,8989,-3400,15879,-14228,-75138,27088,-60706,-179546,-67223,-18426},
	{-46769,-39964,-48215,10558,4361,-41105,-45326,31463,6210,1592,-6982,-1084,5842,-24003,-22548,11021,-1744,10394,-27286,-29212,-40155,8241,-52277,66319,-72359,-23480},
	{23718,20929,34367,22804,-16855,64141,-24121,33202,-32197,13152,-20957,-3851,-8075,20663,10213,7060,-12503,-24036,12140,-6878,28323,9573,64411,133792,41678,-595},
	{4300,-22654,-340,-677,21512,-54534,-197,122,13869,11972,-29501,-46509,1619,32424,38749,16928,-33157,9271,7151,12436,30025,-15828,-48615,-155765,24832,1874},
	{42298,39915,17355,-26071,3780,-65019,-18166,-19984,-37343,18159,-12757,338,-25925,-654,-10186,14179,2996,-19509,-6282,-26266,-45634,-48524,27880,100736,54831,37722},
	{47305,35937,45375,2607,-46490,-230,15178,-10591,-4153,-16907,-24056,-18380,3604,-16651,-29629,20453,10950,-8470,17581,-9530,-52917,3004,41218,-132656,-82516,5063},
	{-65767,-35132,23270,-9396,-17900,19345,-22607,-38185,-10464,20838,33357,32547,-16195,42301,4106,-2129,-10828,-6210,-16885,31193,23014,77107,-69705,64187,112953,27689},
	{125153,112735,24372,7895,42532,90773,-95440,41873,76163,-77537,-17052,15085,63005,5836,-21762,33047,-40680,-3555,7376,7605,147367,34051,181750,163643,-182845,-27780},
	{25355,-32385,-21085,-51151,49073,10847,15329,10487,-30901,7317,-28984,-22662,-11110,-18576,-22572,-15186,15399,-4072,-32105,25153,52233,-14971,-1556,-37773,18013,-47505},
	{171877,113395,-24339,17338,43988,16346,73186,62692,-25364,80096,10770,42151,-10991,41838,-16025,-6247,-27193,-41586,14394,-57949,-14746,-68497,321181,-43553,-306759,-74991},
	{-50510,-43744,-16868,-31893,-24156,-304,12899,-6952,10241,-1931,-28306,27440,6106,12476,-26604,-15335,-14447,-13448,-16466,35908,19113,53938,-68441,110951,17850,1934},
	{-29315,-30842,-16144,-9679,-27665,24793,-65264,17432,7481,7314,24477,-4011,-6131,8442,3762,16686,7655,-25675,-28848,-12831,-19522,43373,-39755,-64529,-71231,5300},
	{-12005,17360,37094,44590,22978,50655,1602,-21169,-8288,-12230,15504,20402,-19996,21865,9044,13335,3544,-18416,-25756,9240,-47577,37231,53930,-12035,-28099,17324},
	{-47241,-40670,-24197,-27021,-44062,-539,-29671,11871,5825,-20062,29761,25862,16010,-12519,-1005,-20865,-16687,-14390,-15505,30623,10704,84477,-117725,149724,90405,-24506},
	{61083,35113,11419,58054,-42715,212,2333,-4867,6048,19287,-10486,-949,-27243,-33767,-6376,11176,-37045,6430,17950,-33398,-54280,16289,73509,7506,-108527,9849},
	{-17331,2401,52266,-32145,3310,-12073,52246,-26962,-20027,10322,13437,-557,-23832,-3388,7934,17097,-20126,11336,23149,18559,60350,7088,-19178,-126717,38125,-19084},
	{106540,64873,-57778,-9249,-31708,-61586,-49585,-16421,-38760,-38529,-4740,-38196,4254,13766,8971,10127,-460,33087,-37908,-46982,5459,-63725,146129,13743,-182324,-36139},
	{-30703,12665,-37651,24267,1932,83578,-22181,-744,-2151,67224,-6663,-1864,-13045,-37953,-10460,-7969,-15932,-13873,12885,34442,-45114,102715,27095,192143,-119770,-28645},
	{48341,46228,18069,7375,19767,34324,28680,-51218,22788,16181,-20152,16367,21201,2568,527,-13076,339,21588,-38475,-37566,52216,40230,37323,-100598,-22081,-23649},
	{-14773,-4683,32625,-24,-24395,23219,-27969,-15098,-15037,-15114,25235,-8348,34364,-494,-10311,-23029,-2838,-17600,39010,28295,-6332,78323,30514,156982,75790,22210},
	{-38759,-17402,-19192,28714,7724,-41358,-42811,25269,18574,1011,25464,22263,15536,-12230,12027,-17897,15903,5901,19565,38774,-71557,29132,-64659,-200167,-95639,-20362},
	{90153,58246,59834,71923,37071,41454,-83952,-30552,-28697,-26538,-5059,47438,32929,-26571,-13523,41935,-12468,-10676,-37672,-40910,54181,29289,149710,173237,-96751,-25401},
	{-18607,-18361,-11554,47876,-17463,-2074,-27550,-3264,22214,-14247,18312,17597,-9716,-15791,-26012,-2263,1132,18914,-8832,-4394,61345,-44364,-80849,-268515,-76995,-64845},
	{14436,-28175,-21524,6634,46154,9291,-28116,-5575,8787,-29474,1222,-18803,-33456,3879,-40014,4863,-19408,3755,-20252,25209,45809,-38343,8824,-125693,48170,-35092},
	{-30660,24849,20075,20079,10042,-18922,13342,-23818,11067,-14106,-7788,-27158,-19547,17802,20253,-5580,20005,29333,12645,-21119,7719,12529,-8300,-133242,-109996,-3634},
	{-190840,-84249,-13085,-7623,-61120,-72623,84530,-27112,-50931,-50027,20075,-18034,-56864,-32423,-1719,25067,30790,16227,85506,-15098,-23178,-65778,-271971,61664,239793,73084},
	{-120792,90368,301,35985,12035,33373,13151,54600,20205,6381,24533,30405,45824,-10706,34005,-6079,2503,29813,16097,-25408,-55631,89057,-11069,-73302,133910,40138},
	{-28641,-6063,46646,40030,8673,-46019,-19810,-41448,-38326,27273,30700,30556,35475,24060,7233,-23263,19547,11742,14114,4187,7384,-38443,14244,-63786,-39788,14849},
	{-1627,-16148,-29328,40121,37469,18114,25804,20954,25649,-24576,53669,20960,-9280,-30531,34872,-18449,-17357,-24225,1870,-10461,36174,42797,-14392,226500,24482,-4384},
	{-41784,38271,12371,99506,-40411,-517,-10767,-15027,4557,83266,4981,-9154,-18446,51861,62630,-20070,-21093,-39139,65179,-46746,-120547,48197,104627,174708,-71238,55781},
	{-8374,14524,13591,4053,-35283,-18675,16573,2818,-9340,-25293,19777,-34864,-8360,-21198,-19929,5080,4549,22996,-8,12360,8917,-17762,-13093,-147845,-101577,-45621},
	{7073,-19483,-22699,-2839,-3612,18065,-33395,12111,1727,-43288,6075,-21265,-4565,15670,-33066,7808,12130,23385,-15227,15061,20447,-24701,-61892,22197,29997,14277},
	{20640,-33069,-34567,-16403,32026,5175,26087,9886,6096,20918,-35953,1763,-27765,11807,-23343,-16286,-28267,-11360,-23102,-5842,-31252,14004,-39686,76192,51694,13589},
	{12290,-12979,7475,262,7247,-22255,-25774,-27443,11921,-36945,26176,-49316,-32408,32750,832,38919,11,10922,4558,-15505,25141,-64893,-14274,-135702,-92580,-9662},
	{37572,15407,-18281,28233,-15214,25250,-26161,-10718,-21334,9910,7093,17090,-11476,-21506,2840,5461,-9032,-3499,-11243,-9678,24104,63551,65773,172754,85466,36697},
	{62212,34065,395,-14313,-28769,33828,-32304,28089,32281,17906,-30175,23231,26697,24290,39762,-15882,-11915,26615,-15950,19096,-44523,27078,97643,-103534,69190,19580},
	{-5571,13529,-113796,29344,3975,53202,3719,27212,42227,-41135,53879,-23774,-2686,25770,-71795,19057,-23829,9563,-25581,-31694,2302,32811,-33709,80875,-120820,-49426},
	{21302,-4287,-21720,-33167,23853,-40180,6767,8573,-19610,-21957,23447,-15078,-23402,-12545,-15535,17307,3768,-15120,-18139,-20483,21929,-44471,6242,-161612,54780,3057},
	{42802,5710,-7058,17596,16771,28003,-31977,-39119,27837,9890,-1761,1027,-19877,4419,-26661,-21617,8979,14035,-28696,-31128,12216,-20345,74287,118672,-84224,-20887},
	{8906,21118,24012,-31934,7874,-5191,-25798,-16216,24243,-11293,24351,3651,-7638,-27875,-33063,-41507,-13890,-4451,-25416,-21681,-31107,10756,24232,133574,-51415,-5821},
	{76485,35271,36051,48129,2301,11454,-6813,42984,3549,-11606,-29566,-12617,-16823,-18451,-28348,-5041,17445,16142,21043,10780,-11467,-87664,139952,14930,-14265,21601},
	{-36210,3634,-20070,-14648,-31812,16532,16099,27199,27692,16311,20707,43137,1970,3142,11851,-1522,12696,-29917,19914,1049,-62029,44416,18154,18831,114351,44112},
	{-63120,16686,-5041,-31661,-5841,-23151,-2431,8547,18247,24532,-3905,25547,-25618,-11004,-5010,-25191,-7070,-24122,-12060,29621,27113,78094,-68339,-91294,-60272,-41425},
	{-112210,21887,-44096,-23508,96464,-11270,-53182,7196,-1398,-317,-4852,41636,14687,-14051,20965,-36916,-5504,-18532,23139,45075,-12559,113207,-139548,-207392,138804,19152},
	{-65496,-48865,-55909,-8779,-10852,-23227,30581,-1866,-33909,8434,-13506,-18803,-22030,-31498,-97,-31017,-24041,9919,-16530,46712,50413,70245,-145437,-2554,73672,4712},
	{-5724,17693,14909,-17519,71205,23177,32277,-4461,-552,-18035,17217,6088,22844,5989,-20846,2267,6403,19082,-9600,-7789,-9981,38836,58137,-70264,84474,22978},
	{45837,74475,21563,-4683,-37017,-35687,62896,10268,-8553,39391,25321,-3790,11453,-40948,21535,9893,17808,-17661,16944,10146,31623,-36877,70697,71009,-71403,-12659},
	{737,1021,-5769,-10807,3125,977,-22277,-20862,-11245,-19208,-30101,-30459,18171,10555,11458,-17511,-15788,13991,-22450,34307,42430,-7845,-32663,84292,-4721,-6919},
	{34286,23112,19134,-35075,25130,6522,971,6633,12688,-31095,32842,34001,-27097,8036,-21021,8803,11257,19757,16424,6368,24474,-58538,59275,-121004,-71438,9422},
	{36172,21781,42054,-11232,-23659,-2350,-8460,14272,-24273,4115,31527,-28280,-38758,18729,-21732,493,-27043,-13855,26734,-41135,40659,-8983,-19125,-45595,90864,2251},
	{68206,25160,-11285,42450,-40220,30825,-25637,29455,21550,17681,24835,18328,25460,3971,-20202,-14116,7788,27778,-2870,15765,-53157,-17187,113153,-2705,43517,9830},
	{-41921,42835,-13251,22653,16168,-27452,-7676,65916,-32029,-25982,-26460,-10118,-10454,-2351,-24617,-32991,-29414,-208,34911,3019,37266,-28690,-14385,34628,50944,25859},
	{-654,-20802,-22559,-14447,-43001,11354,13678,23764,15199,-2292,34932,-36031,26099,15816,35415,19757,28013,383,25028,21646,-71182,39573,45677,23707,19513,22048},
	{-68947,-13596,-13112,-25016,-36269,2433,-11382,-39515,31008,37737,-29212,-52838,-14183,-8737,5955,37529,-1747,-12812,42482,29193,-3245,31552,-90508,19591,103250,-2202},
	{-54043,4210,40423,22985,-19042,-21559,-6630,25933,-8747,5907,-13351,9481,28133,-3922,23142,15087,20297,10416,-20885,27541,-22582,-8501,-43544,-89127,-41700,9376},
	{74222,-30952,-110236,-48181,17312,43546,19103,28408,-49377,-38323,7776,22923,-43079,-56653,13562,12396,-16090,-8276,-9133,-48939,4893,44328,30973,-43470,-97361,-50099},
	{36149,31566,10883,5018,16699,-17754,-62236,-34607,28916,1205,23792,-5777,-37299,5849,22530,3849,2926,-26395,5758,8713,45500,-8463,63700,5529,-100282,-30548},
	{756,22814,13881,39590,-13448,11449,-19631,-17707,-25628,19518,23942,31735,36050,-11865,-27918,-3879,1614,-5664,-4798,5458,-21015,45038,-26961,138434,59634,51948},
	{-60616,-55339,-26204,7265,17846,29271,-64698,-7834,5902,-27162,-28213,-10345,15325,-19699,5577,-6974,6195,29438,-20846,32758,2195,-15187,-67159,-130432,-5276,-32329},
	{83438,55438,-31315,-23155,-30406,-4173,23919,-3439,-37516,-13184,5631,-27853,6546,-2066,-7671,-32746,-39349,-26208,-46582,27390,-50962,-36698,151234,-12662,-128886,-29560},
	{-10673,23924,1117,-735,-33976,-49414,24336,45691,-21762,8485,-3392,50543,-39232,39706,61010,-16344,21132,205,-1003,-25700,-68966,43012,18649,68123,84270,61312},
	{71994,-38878,-33737,-21243,1102,-36345,-12968,43730,-69838,1349,1617,-15047,159,-13894,-58065,10361,38218,-17493,2109,-40067,-8751,1096,1177,310698,175461,-31441},
	{-1081,-80496,-86106,-1216,-66396,-87109,-88691,55589,30651,-41093,3670,-53371,-24604,46898,8503,-44019,-2778,4390,44350,2421,-67935,-34129,-105300,-86798,92025,9868},
	{-32916,-3352,22695,-34122,-9489,24151,-25258,14421,24225,28785,27328,42116,-4612,-19683,21034,14909,3220,3232,33117,23986,-47192,56618,7583,22476,102759,23734},
	{19776,73389,-108569,-82337,80429,-62444,-42663,15070,-35300,4726,-68900,-30453,112647,34759,4902,43396,-23944,9351,-44450,12374,-120992,18591,76563,-58590,60080,38246},
	{-35460,-30843,-3031,-65065,37238,37714,-12977,-1314,-13504,-26200,21426,24588,-9122,-23611,11208,7295,-15136,31073,-24906,25945,35118,-55056,-88736,-128426,-104619,-72979},
	{24943,10543,14996,25512,16277,13761,-6947,-17686,-11011,-3109,26712,-28878,-5006,-1632,9068,28421,275,2073,10769,22721,26971,-86712,5321,36977,-114176,-16039},
	{2767,25106,-2250,28216,44088,-12666,54648,25962,-1809,41059,40756,30924,10669,-17164,43790,-6347,24272,13433,23314,-15962,-41739,28843,78853,48776,-61837,9400},
	{-34285,-6686,14471,-18389,-39188,-1053,-34896,-11305,3421,-20084,37530,-22408,11321,-16111,-8952,26617,-28058,1379,-20591,40772,20218,57224,-105072,21568,102678,41482},
	{-50444,-35236,-29814,-22453,-4830,-10206,-61902,9578,1601,-31538,-40885,-28618,9164,-19229,-47590,-62,-16268,24691,-21448,27039,2469,63649,-111146,-146293,46882,-13509},
	{-38962,-36852,-2187,34449,-2136,17332,-349,-5630,33136,-25839,-8516,3504,-24542,-4581,9176,15496,-3789,2561,-2622,43164,-44073,-45590,-22976,113467,-47732,2364},
	{16985,-12710,17906,-30242,-11987,-8628,10246,27942,22836,-10117,-2035,10493,18223,20837,-23825,-15827,-29090,-20469,-17985,7245,25586,47857,47339,-12519,-28252,-20860},
	{-82298,-59533,-25871,-27149,-6471,5788,44358,16944,-19900,-21406,23698,1038,22534,-2215,13863,-38822,-12791,22889,-16049,39279,-43644,-24172,-126471,-140249,-17151,-15273},
	{-34571,-12183,-13127,26919,-22758,9039,61075,-12183,20513,-31682,20169,-11687,-15295,-13514,-9371,6010,25713,-5058,18614,-14613,-28713,-32956,-37018,90077,77338,45956},
	{20982,-5077,-5872,-64108,5343,7081,-2651,-8696,-25874,30727,-29613,5123,1004,35033,-10098,-7101,-38373,5392,-12862,-26026,4394,157941,8545,-71906,-26476,-29991},
	{43912,28371,29318,-15364,-213,-33806,46795,51687,39733,4051,31942,-1639,-1878,20212,29187,16634,-2334,-10758,3497,4997,-13447,-6189,42475,129026,45309,-2489},
	{22372,-33717,-51877,27258,21508,12484,-25537,-14381,9747,-22335,-18729,-23430,29721,3116,1070,-2266,-20791,18933,13901,-14,-46737,18755,-20461,-13909,-47249,9509},
	{81531,64486,23231,-15238,-50769,-66181,-63204,56231,65193,46833,37995,-2698,45298,51758,33136,2563,-28723,-21978,28437,-58727,-23866,19132,103827,71679,-150535,-22660},
	{-17083,-9104,-18670,-28316,42280,9765,21148,-8662,-4389,19871,-47653,-37956,-10948,-16245,-40079,-12004,-2721,601,-11210,20607,-11303,45486,-8246,43600,112743,37639},
	{29244,42839,30259,64914,6859,-1011,-48560,-4871,47407,24487,-38,34101,1865,12170,25697,29420,35042,9286,48185,-57262,-60539,-61147,94315,224161,-97468,22875},
	{15131,5504,-9260,12486,-22777,-20981,-8756,-8592,19753,24847,-6936,-16319,-7702,19993,-18311,22069,19286,-17486,4170,10916,-29965,-2443,1258,13292,52683,14501},
	{-103383,-79529,5408,3295,-25536,-84497,-33388,-46209,-32051,-27697,-38212,63648,-30626,-6953,-31026,9152,12403,-20602,-20638,13053,-64338,9993,-163412,-84714,38270,23883},
	{36000,17171,14947,-33636,7866,3819,4975,11397,21475,16613,10133,-462,992,18287,-16827,-20910,-33788,7971,-986,-42295,42409,39135,34955,-149614,3875,679},
	{-53916,-2487,11988,-33499,960,20147,-55940,36775,-22878,-8454,20986,-34425,-19370,7458,-1801,-17561,23470,-11043,14893,8632,-51874,33342,-35172,-92767,-89715,-13327},
	{6250,-4851,1007,44884,14052,1338,-37425,-33113,16365,-1935,17400,-30069,-20266,-32107,-4090,24149,8609,-959,21541,23963,-241,6269,54409,-86175,-100024,-32948},
	{-66666,-61829,-68688,-52061,28265,19580,10244,-12908,-10476,-33210,12085,21831,-4626,28637,-11724,-9156,32173,23259,21557,-24735,60266,34724,-183599,16648,58345,5750},
	{11594,2986,-16708,-36262,27726,-29933,30107,40254,-36998,27264,35641,294,26252,16041,3383,-6726,28988,-6393,18455,30470,-31811,-15888,40393,-110086,-21806,-35491},
	{12423,25937,2840,-46682,8661,-23713,-27507,-48123,-16380,30850,21136,-31452,-20446,21612,-11613,-11218,-33275,24441,208,15544,48005,5160,-36493,-217856,-56534,-52962},
	{-14981,19996,24948,-20065,26977,54145,7355,-20975,-11702,-13719,-7691,-21988,-30936,-12723,-24563,-4136,-14633,22063,24482,2996,23853,15580,-206,112551,-20683,1762},
	{49619,38539,20616,15954,4084,-29191,60636,-21543,-22732,-7316,47827,26273,10733,-652,24167,-17976,-6309,-23357,-9226,-19104,90694,37021,72686,222490,73483,18121},
	{-61125,21273,30333,6805,-16455,66911,-11723,31757,-34163,-3969,-23996,51300,-10989,8869,-6151,-11872,-11260,20151,-21624,-7361,18672,19408,-32335,227079,-83563,20489},
	{-55887,-60107,-36875,-24832,-36489,41627,65315,9643,-46613,-53242,14403,14597,8824,-32790,171,-44268,-19675,-6963,41960,-33974,1290,-65540,-140537,-55748,115429,-17484},
	{53367,20100,1423,2352,28748,40232,-3723,-22138,-37764,-37170,-22140,38412,36230,19391,-10723,27296,26379,13010,-33809,-20439,45508,63291,65063,-21903,-41816,-15737},
	{-18328,-10776,-18786,-14478,15670,-10766,-38527,12912,-29469,-22265,-27363,-34377,24113,27609,-29069,-12515,22219,25952,-25351,23856,4125,-54293,-81931,-141019,-48877,-41166},
	{13390,-18436,23188,-6824,10878,-26221,-332,-10531,7380,2506,-22980,12754,2916,-5551,36484,-6896,-11284,-12514,-2795,26041,7094,115770,-40676,18091,111375,2394},
	{18946,13223,17650,1722,52480,-41890,-2241,-10474,-30496,-26839,21115,23829,-24611,-7935,-22410,-14037,5993,20128,33353,26306,2010,21293,-16695,-55140,114140,47982},
	{-50059,-18273,9408,-48687,-25315,12554,47852,-17235,24918,31553,-23597,-4613,-12281,14809,-7543,-17940,-4839,16880,22075,28773,-49807,59600,-32556,54043,26320,37607},
	{49753,22734,-8770,-1314,2612,-10538,-39071,33381,13478,1532,-39299,20159,36095,-8934,8739,13444,24978,24478,13485,-24532,-6797,-48448,82856,13282,-58246,-2363},
	{-22587,-17384,-4938,15441,15815,47612,16172,-7922,36487,-7647,-7852,4749,5042,-1513,-23462,5876,2128,-13076,-24710,-1167,15499,-49737,-57543,-104878,-51106,-16337},
	{20963,6365,-57672,31546,41128,69861,-26475,-55065,-20259,-50346,28421,59411,-11654,-57992,-11010,64203,23900,-15921,-41094,242,-50974,-24550,65654,-71463,36947,32837},
	{39041,27031,18905,28133,5847,-13831,51401,35925,28367,-24253,-34545,50283,33934,10426,10955,49504,5527,5473,-14089,-43236,-65702,-29269,144314,60111,-126927,-21575},
	{-18191,6826,34585,-38144,44334,28541,-8380,1918,-6460,-19149,-21388,-16770,8734,-35661,-34267,-9751,-43073,13446,-14897,-1919,34043,-100768,-35392,-3059,33449,15728},
	{-13751,17005,9808,10511,45730,-1631,75355,-28590,-11964,28545,51065,-1495,-3400,11586,37356,21704,8589,10337,29913,18885,-12606,46580,73112,113377,538,25697},
	{64552,28140,-3986,8094,36463,13324,-23382,17740,-7325,31956,-13502,8382,14572,-41709,17310,-17384,34057,-2248,-32685,-20259,-11659,1227,71745,140075,-30773,-13584},
	{-8063,-27375,13640,-29771,-12216,-63675,17088,-35051,-12687,36304,-27870,15528,31264,-18281,45075,509,-28649,-10992,-21250,19518,30274,-25898,-1154,-81258,118525,15495},
	{-91632,-62046,-51055,-92461,-12423,-4455,61758,-2020,-54310,-61733,2106,-30365,-12326,16889,-9686,-37219,-1957,-33078,33669,51652,42736,-86551,-197225,-166625,79186,6599},
	{-54364,58532,451,-727,57274,115239,-1461,80679,-24313,-54653,34661,6851,10228,1620,-42340,-55358,37339,10593,-26286,-16305,2409,20411,-6320,57029,-128045,-33448},
	{19149,67165,14809,90546,-23277,-63361,-80215,55125,71224,65891,6316,50053,8662,50510,41808,19895,30573,19226,-38126,-72827,-90120,45669,139213,118259,-121943,-9480},
	{-29448,-31020,-13318,-20135,-28289,5897,11090,29469,921,-3846,-5377,-6327,24948,34742,-948,-20683,8352,-11866,7495,25327,7032,-2494,-79217,-40655,21851,-32656},
	{52142,52581,43950,33029,32233,32772,34579,87371,8741,-33484,18172,66281,15605,-65134,-30944,-9682,43241,-14778,-6843,-22073,-62387,-43146,153580,355010,-78367,40570},
	{23286,-9251,-8644,49253,-489,11335,-4931,-26720,-620,7040,25359,-47408,-8256,-33892,-11877,-36513,-35269,5590,-13024,-9557,-5799,5450,51432,-120566,314,-16770},
	{-20224,-39834,11781,-69560,8948,35952,6354,7666,-8094,6099,-31299,21147,-967,27331,-22340,20674,24601,25294,29477,10342,28383,34331,-90464,-81198,-44316,-62484},
	{-42093,-1760,1890,-25926,8001,14646,14377,5256,-29970,30598,-3073,7023,19125,-11751,17547,-23522,20829,825,-23809,-14043,46925,26514,-91019,-162355,-90251,-51556},
	{-322104,202608,-21888,117342,-37623,-23908,54854,-55308,-76755,46035,-93102,-13857,-82429,-36813,59320,77544,15416,32837,-21671,-36515,-79600,34389,-236064,39314,322827,72633},
	{29030,-3766,-43397,-19033,-38582,-54503,-25023,14324,-31203,-27757,44484,19026,6394,-6843,-21570,61044,9370,-19272,-40889,-14215,-59067,-42952,-18824,-179437,77835,-13809},
	{1626,-20605,-15477,522,-22637,37704,-42806,-1916,25841,-12291,-22765,-2669,-40402,11161,-23374,15403,-9622,2194,10878,-10962,11438,-31380,3925,-61355,-65827,6405},
	{-767,11570,16469,-18282,29821,-5626,3131,-11471,-8183,38013,-6901,-7168,3857,13126,25804,-746,18863,-25415,-27725,-12016,-27866,1803,57233,232004,37017,16556},
	{35614,24064,22001,10418,13745,-13077,-10334,-21067,15096,-29419,2926,1111,-478,6045,21932,-18178,17472,-9341,7710,11456,-19443,-44338,70567,45679,68267,49377},
	{-135683,7372,109906,-20646,-57880,-13205,64600,-46521,-54789,-46050,13279,-10438,-21591,-32250,17375,-29385,-2651,2564,-12934,64095,-21656,-9946,-150455,11320,157472,31809},
	{-88791,57883,-8861,-15797,110056,-11281,2678,-41231,-7394,10514,74582,-32034,18715,1808,-62704,-40292,1654,-3252,-28302,-20816,-22974,85048,-28372,50650,36695,-2981},
	{146305,96937,84685,9105,-86891,-2848,-22094,11180,-23440,29480,22753,17042,17011,14154,-272,43482,-57773,35797,16481,-53289,-79043,2475,247798,-31894,-176257,-29149},
	{-44126,-13873,19535,20718,-990,-18704,29615,-26278,-33791,9349,41851,30156,11296,-7462,12930,8757,27288,-21881,-7167,-10028,57308,7972,-48895,89154,-105681,-45850},
	{9865,5601,-19735,2153,18308,74867,8921,42525,38615,-40567,2502,34856,-1286,17185,23775,-301,7992,-14355,-15638,12469,5696,17025,78760,-20273,-89504,-28922},
	{-6042,-1327,-41504,8764,24948,3976,-15824,-12545,-24765,25293,14045,30670,-28375,21451,-19604,24942,28033,-16768,-13968,-11779,47564,23697,-44792,51403,69203,1205},
	{206,1186,-49803,2947,27593,-44890,30140,60238,22581,-9604,28448,27361,41211,-71,5447,-1366,6388,-15853,22982,19490,-34232,-33461,8965,37280,-33616,-10053},
	{-63436,-55617,-56498,-39186,-27932,8819,43477,12418,-9578,-25976,-4811,-21179,-11661,-26714,11206,678,-27532,-22507,17354,-24100,40612,99296,-139166,135124,81828,-11968},
	{9796,19840,36997,-6657,50989,-11494,56579,-38726,-22333,23363,-10182,10646,21888,3944,29976,10114,-12436,8072,23345,6982,50868,15896,34799,-19543,-79071,-26344},
	{3975,-14003,-15494,-35731,6086,-1020,37524,22378,27369,-22416,30285,-10323,9242,6702,14455,-36067,-13933,26527,-6628,22474,-32612,-81313,-7301,-17119,68893,93},
	{31984,56890,-20329,14883,-2075,23181,51715,-7295,25591,-25220,-30710,-6813,14509,10189,714,-14351,36503,7949,-3828,7997,42461,18021,72230,143026,27564,42975},
	{41532,19680,59802,27824,64068,48125,34399,8983,-1745,51140,-3719,-27236,-48517,34212,-31862,-65510,-32202,-28085,31492,-42899,-69596,-87146,147334,66773,-77580,6263},
	{-901,13746,68105,35593,-32532,95261,-1466,10642,43907,-33584,-25252,-9055,20158,896,-10123,-21905,7709,-10472,29602,-16119,54884,-10980,-28562,-67923,-53735,15278},
	{-11714,-42497,-16465,-20524,1152,20203,-47247,19107,17946,24362,-19384,-16864,31226,6753,16570,-29373,25257,24828,20006,31618,-2748,-19358,-18709,-107679,72391,15817},
	{-43585,-44847,-73671,-41284,2001,-97401,-39092,-8166,35041,-35607,58703,-63870,-37877,64440,4621,52715,13106,13596,-22986,36854,-82413,-47606,-145832,-140131,124594,48552},
	{-24703,-34462,-8066,-24954,-6057,17741,-49577,-33514,-839,23655,4625,-44141,-25895,24959,20824,-32400,-30967,5679,-15260,-46529,47012,-35267,-103682,-88162,126340,8060},
	{18235,29866,35873,24140,-52638,-6465,22683,13359,31943,25025,-27915,-25885,23259,-783,-11257,37252,5242,-24703,-15167,43480,-10834,17101,14210,148215,-114615,-37915},
	{15881,43081,36100,-1240,-2688,-10654,42420,-5868,-28653,-16852,56367,48886,-14545,-16982,3432,-505,-11299,-16849,-20200,-11095,81361,-39463,11787,156663,-48473,-43810},
	{85937,-33007,16319,17555,52257,17216,-50873,34472,36420,-26269,17447,11415,34114,7535,32828,5829,-7356,-14863,13334,-23113,13731,-16577,90257,65888,-27778,14044},
	{77393,62168,-15688,1612,-22843,-56967,-59930,-22398,16384,-17980,31773,34975,-30505,-33001,34797,-3952,24589,-18937,-32389,2871,19370,21919,81717,34452,-122759,-34171},
	{-6505,-4887,-60059,-36623,30887,-25142,35382,45033,31417,7975,10063,-13211,15410,8519,-16176,9696,29907,20650,-26716,12208,-41685,-7285,-23071,-17410,-10498,12259},
	{-25047,-26287,-28986,-14354,-27058,35858,-49949,10388,8178,12802,14943,26894,-25135,-15072,-5345,-16112,-3554,13365,12101,-35600,-3625,69328,-13496,-104647,75424,-12619},
	{134548,-9470,-108337,-87631,-20023,92447,57483,52028,48146,-61286,69402,45048,-97381,-51677,-78282,15746,-76728,-57156,-27076,-16520,12495,75041,72416,150404,-5406,42969},
	{13334,-24681,-12362,-38272,-11693,-48297,-3969,-41759,-1956,-39050,8175,33849,-988,32133,-12393,-11384,-20497,-15733,-20009,24661,43017,49228,-56563,82799,68053,-24727},
	{-86986,-2015,55762,-79031,20019,-100114,51768,-30545,-56600,47434,-39315,-6158,-9735,27289,-24190,-16101,5735,-7105,-20439,-18131,-13752,-17505,-131496,-32450,85985,10308},
	{-52708,-19359,37525,4460,-1234,21913,-9602,7591,12714,-10391,17005,-38726,-35583,-3515,-8938,-12520,1393,-5982,27691,-7512,-792,5356,-58864,-151866,-43644,12526},
	{80510,28931,25365,-45393,-23200,-57892,88377,44482,-10918,36474,-7789,1945,-3328,5157,4530,20868,-12447,-17348,-17869,-22025,79250,-32807,60285,249490,164572,7876},
	{-9778,10377,25007,-2722,-10190,14941,-7883,-4063,-13698,-8362,28892,14746,-22814,20433,24473,-20646,-10334,-19708,42692,-16833,12842,5161,-40514,100539,87319,32962},
	{185513,79827,-67182,12425,-172929,151622,-16211,4548,12080,-57381,-52288,-57051,-29593,52724,45687,-60812,-30867,-13126,44254,-57398,-32700,-6655,264462,-36648,-234867,-42082},
	{-68056,37015,-18504,-2127,3254,15200,-31824,-33532,21431,-20576,17058,29512,-21934,21428,5516,14988,6191,-13043,4500,-5611,-45494,32594,-33627,-101996,-54662,-8089},
	{3423,-13078,-11763,27969,17113,37112,28792,21202,-8123,-2911,-3688,-8333,-19940,-8429,-32229,-7773,29771,-19184,-7772,-36964,21558,-13514,-23072,68604,96999,16980},
	{42845,30806,11807,46014,-7792,12868,-12715,-5726,18241,34918,-8973,-4258,29411,-25210,2216,14165,25546,4410,18670,-31389,-48320,33996,89173,-11628,-84230,4367},
	{-42460,-9816,-9141,19861,-16390,40359,14299,3691,2143,40052,5155,-23494,8709,19886,-21784,-7463,13851,-14601,1962,-9113,-3715,6927,-18202,103045,-43504,12427},
	{-9721,-55049,6258,-31410,3634,54834,69476,16847,19585,-7196,48212,-16687,-50899,9113,-31124,24520,-11642,-19860,-7223,-26523,-114850,-56753,86,56241,22715,-4380},
	{-3276,18763,-33543,13972,8512,-46679,-50684,-22547,14984,-33970,-11142,-10696,-27694,11377,-16335,-26734,-2107,14056,-23148,-28343,-30923,-25232,-12638,-17753,-95746,-21961},
	{-55030,484,18975,5629,8342,60801,8722,-13779,23954,44826,38441,-21807,-34020,22902,16094,20930,-13686,-11872,-29987,-17877,25701,11731,-41914,218361,-106992,-5633},
	{-53117,-32541,-8963,-16945,-37907,-12198,-38906,24623,1523,36776,-19063,58037,56693,73130,52630,-32362,-28100,21020,664,-37393,43097,-27688,-97159,-105384,105043,9748},
	{76056,22316,16147,57583,17514,7949,-39508,-18616,26085,-19939,32111,3197,-36211,7091,35757,-829,-7500,-8120,-13152,-34723,14421,-10008,118186,308240,72034,53876},
	{-27331,4467,59726,-27741,-22338,42861,55354,-60438,15264,52745,40308,8690,18893,-8689,23482,-34209,-8596,-8110,36045,-8584,69139,72013,25008,51785,72353,-3629},
	{11742,35154,36311,39351,764,-40210,39693,-7719,-30161,-13005,29833,-2681,20952,17971,-21226,29219,-25384,-18868,-28164,-40714,63906,-25414,-23210,89593,-82056,6241},
	{-11003,32383,17252,19027,-46812,41246,-26587,43127,-9796,26838,13674,21324,20591,-16968,-12574,-39403,32704,-17140,-17457,-13086,-20919,18531,1446,97746,-91738,-39651},
	{-73280,95377,7865,-9313,19964,73394,-10293,2409,-14151,-6204,-23538,-48107,-74404,-6058,-62682,-80217,32601,-24783,10511,-2059,26152,-147341,-527,33579,-106658,14339},
	{-8901,24499,9218,11032,-22121,-56393,-3341,12928,35045,-22772,-43929,-35835,-29999,-24194,-8158,8276,24348,-18217,32263,25437,-25283,-22662,-5759,-40962,58659,39786},
};

const long long w1_stage1[][512] = {
	{-6059,13225,23080,23472,54813,-23736,60348,-34326,14544,21326,-13137,3158,-1875,-69424,-5956,37196,1581,52776,38833,12364,13274,-21756,-26575,-878,-4571,36648,-35817,-230,6792,-12527,40198,-3231,14152,6506,8834,-24377,21925,4502,-51909,-12045,-7716,-39533,21824,-14824,-35030,-9049,23954,-8908,22578,26829,39478,7273,-52096,35080,28952,-24942,-21625,-14847,11127,-19792,-8472,-42533,44421,-30924,-23407,32161,1521,-58021,31154,50692,-21683,-21039,6056,31246,6796,-20065,-50913,46515,-6773,-37150,55289,-28584,32980,-53278,-67533,-37167,-7663,-15079,-21444,20075,-9254,27364,5554,-109102,2282,20174,-9255,9399,9740,20581,-62762,-20847,24851,-17459,-27156,-1718,7511,-24861,17898,-40504,-4842,-1606,-8979,18850,3101,12877,9622,1300,524,31388,12136,-772,-2957,-88336,46025,20765,-437,-20963,8174,30800,19785,18257,-20642,-20247,-1505,-780,12371,-4955,8122,12387,-17982,-47196,-12484,21848,24241,-21492,-61500,5634,25474,19562,-17520,12340,-13789,34440,-1612,-20986,-32090,-10797,39588,8477,15885,16773,11253,29723,-21875,83662,18440,-39268,12441,7454,-38886,17600,4487,-7052,-25479,-10287,-9973,2642,-59293,6892,-7671,-59286,4849,-13185,-10093,-26278,-52599,1065,-19372,-23165,2674,-18132,34257,50396,52243,6854,28549,7987,8935,-55048,-6098,1177,26592,-44435,-48460,30970,-37034,19633,22076,25944,-8656,12777,16830,5576,21481,-24467,-8792,-6528,14820,-25914,4435,-24885,17244,13950,11590,10091,-27376,26161,43386,32366,29717,29638,-15375,-48934,-71376,661,31773,-9268,8118,21926,1763,-11444,14729,21287,-1442,7685,6520,97363,-8756,16906,-4727,52221,-7377,59688,-475,8570,2186,-23565,-19100,40709,14133,38550,-4662,-39755,12998,-7528,8020,5920,13645,-51921,-2567,-4279,-22146,19621,-14094,1447,-48970,-48683,-176,-38465,-24535,-12627,-17649,23122,7703,1957,-14649,-46376,-5294,8306,-39716,6275,-26667,-5029,35670,-10973,27179,-8164,-2824,1278,6028,-18539,-20888,-48522,-2196,7657,-15738,-14885,29033,-20497,-36672,-6620,-15752,20050,-41268,13948,-22098,-3588,15472,-28664,15009,-11009,7207,32017,-19869,4160,6864,7109,-28787,-16329,-1740,7492,-313,1131,901,-1973,48317,4476,17034,17213,-681,42524,4246,6614,-8077,4463,12638,17678,36025,-4478,-9876,53233,-9898,-6251,14674,-3301,25906,14585,-35724,-13020,15505,-3244,27985,7998,-19712,3217,8873,-8608,-810,17774,-11149,30260,-35353,42685,-1552,24758,-13281,39020,20624,-55667,-20095,10746,-17125,-33519,16895,-19097,32701,-36690,12304,-22141,-13717,-30240,20143,38524,45838,1530,11990,-2248,-2478,-81,13404,278,-10262,-8179,17847,36112,-47580,6155,5767,10858,-2762,-3476,-75300,26425,16277,36586,-2832,-22727,-6886,25098,22708,-29705,-864,12750,-23700,20051,-19616,-16224,7371,-4492,-38603,7402,7946,27513,26409,9133,-22353,8693,55399,-16704,-30612,-21037,-8204,-4191,5479,1327,-3499,-1399,-14979,12567,19379,-20837,-3247,-15688,-34106,17853,22322,-9869,10157,6741,-60174,5659,6089,33077,45285,45093,-2096,-23150,-18031,46285,8869,25377,-16082,-8613,93,-8829,-22883,-3258,-11086,-25595,-24780,5067,20345,43552,16812,1927,-26991,-30040,5077,-4297,22141,-81485,-10748,35186,33627,-32805,-4436,10624,32520,-24092,7519,5100,-37870,3684,-2360,46246,-49254,21201,-8017,7141,-20402,1206},
	{961,6805,1863,-882,-66,-2075,1934,-9958,3484,3424,6387,1939,12717,-1159,-3236,8879,7520,4617,-2623,-3440,-1890,-2470,10757,1115,-4424,-1826,-10047,-3197,-2571,-3344,-7490,-876,-5026,-4193,-5917,10422,-3535,8437,8876,-6572,5543,-9297,-8061,-8225,-5835,3100,7575,4521,-7658,-2588,4037,-772,-4244,-21300,-7890,2265,5847,6414,11643,-8014,-1433,-11267,-550,9799,-9123,608,-4490,-11158,-12529,-12309,-1760,8181,-777,-9280,-438,9281,11130,1632,7480,3662,-10753,1937,8407,446,-10918,-7400,-5664,-4365,1405,-3380,-9003,-8125,2497,-1942,-10662,3334,4997,2836,5151,641,-2839,-2631,-280,-9288,-4982,5712,3549,-2825,824,1844,6297,-2344,-11673,-1044,-1979,4854,1165,-3621,-12403,-3427,1376,-9241,3220,-281,-8058,266,-9215,-4332,-6098,12479,4334,-1338,-247,-1893,-2789,18648,1423,6582,213,-4532,7544,3335,-3304,7837,-5964,-8271,-8892,-1308,878,5496,3883,9210,-7848,-1805,869,-4057,3420,5058,5632,-2088,-1199,5033,-4066,8730,2258,-15718,5899,5505,-3018,3231,-2231,16,-391,7048,750,2944,1235,-943,-2429,2329,-8716,1168,1282,-3807,1732,-7257,-1255,-8974,1420,7532,-5158,1761,-1238,-4735,8038,-14426,659,-12592,-5212,-2923,4482,-2,4245,-839,6295,1686,-5194,7467,11557,1536,4131,6617,6793,214,-1460,-5895,3077,-9336,3645,3376,-4803,-4770,-158,-5770,5482,1736,-1494,182,7086,4018,-4949,631,4889,-3362,4743,5925,6841,-342,-10935,-10093,-6895,-5776,5546,3028,2677,-2183,-3050,8423,-3107,1086,4515,14711,-10870,-4015,8313,-12813,3452,9556,4564,824,-1743,-8311,2452,10885,3164,-1363,-4873,8874,-466,-6579,7663,2763,2915,-9034,650,1690,3865,-15305,5530,8570,8423,9948,-8758,-3184,9484,-6979,-1025,-2317,-11088,-17703,5815,-5216,-1190,7144,-7191,896,5058,1193,-142,1716,-4525,1722,-2289,1601,-12173,-4757,1348,-1726,-3012,-9966,-9005,2807,-7361,-8875,2557,-1309,-2467,5868,-12129,9141,3614,668,7592,-1351,5722,4814,7510,6651,5259,1568,-3584,2081,6750,-5112,2313,-10440,-9011,6641,7000,-1635,9,342,9190,4000,-7659,8847,2508,6091,-14272,-9800,2769,21818,9881,-9722,2054,14898,-7135,-4595,2976,-1771,44,-196,4520,-3353,1908,5212,-2792,-2780,10682,-5005,-399,11984,2490,-3905,-12600,4082,-366,14648,1132,2493,7309,4845,-7920,1553,-7939,-5961,-8257,4609,1558,-8095,9893,-5464,310,13632,11253,6002,-4952,1769,-5875,6001,-3097,-8235,12914,-2198,-7617,5048,-4104,7009,-940,-9238,-5612,13787,-13224,-1647,92,698,-5730,-4978,7024,987,-3217,230,-1744,6901,4918,-2383,-2362,-185,11407,-3911,4980,1194,9374,793,10900,-4223,2494,5673,-1831,3369,4816,1080,-8454,-7547,-830,7775,7182,8051,-935,-14282,-4592,1279,302,1315,175,-3611,-1248,2877,9965,-12641,7661,-6284,-6562,-2306,6081,548,-8445,-4485,4345,5262,7214,-3697,3312,-4220,-2797,15175,-2985,745,-10064,568,8404,-4199,-646,3299,-16546,5931,1774,-2667,10464,6708,-7806,3647,3680,10726,-2076,686,-424,-7683,7587,-3116,6955,-218,-2201,9506,801,-3319,-10652,-9031,15275,6603,13940,7943},
	{3810,-3954,3731,2099,3266,2469,480,-2655,-5714,-4140,3961,1626,5685,3512,-2248,3915,-675,-1257,-3138,1304,1216,2476,6700,9047,-2805,-2118,3783,-3258,6956,-3442,202,-598,1658,-418,-4,5858,-191,-5569,4308,-3429,926,5219,6466,-1247,5064,-2133,2183,3968,-201,-4204,-3818,2281,2302,-2955,803,2984,5083,-1718,-657,3085,5422,19999,-1315,-1430,-233,-495,5139,1628,1046,2013,4312,5417,4799,-2516,-5437,-8702,481,-2852,-1948,-1277,-136,718,-770,-2020,-7116,-3124,-930,826,4552,4809,3133,-2811,-5850,9622,-2258,2730,-4325,-4143,5776,-1392,1167,5134,3904,-804,-232,-4672,5211,6741,6446,-431,-3431,-2958,577,2026,-3728,-149,-3698,2328,3778,3265,1887,307,774,3540,9626,-3776,6892,6184,4429,-10889,-9529,-592,906,-1336,168,3650,-2763,2085,4392,-7394,4857,-3644,2645,-232,5794,-7901,-4949,4307,-6736,-2952,-2849,-1944,4511,-1099,5542,5472,6921,8286,-3751,-898,1908,9006,-791,-2806,-4311,2384,-1813,-1864,-2340,-3069,-1355,546,3042,-3324,-1869,5129,2595,-1786,-926,7891,5272,1488,2237,-244,-2015,-4340,543,-4213,-3269,6031,-4746,-116,-1605,1964,-4375,4502,-3259,688,-6304,5937,2166,1082,741,2075,6536,1147,-1653,-7196,-6020,-4727,3141,28,-203,3632,-4558,-1501,2655,5468,2568,1877,-5351,-1950,2910,-893,-3281,2617,-5639,4860,-4033,3361,-2443,1811,-5802,1062,2271,-4479,-1027,-415,-2078,113,4026,5295,5846,2860,10478,4198,775,-8963,2202,4752,-108,-4043,3938,5291,-3124,8519,1839,2582,1207,-4984,4556,-5244,-3504,3307,4368,3281,-3270,4732,-1733,-2335,5846,-4730,-792,5449,-1836,-2790,5470,8222,3221,7337,755,7290,1460,1325,4237,3869,-2028,770,7517,7460,-6834,-1878,-6464,-4693,-4653,90,-5085,4533,-425,851,-4275,2520,6424,-2237,-662,3676,-119,5685,1409,13708,-5248,-2652,4149,-4851,-5451,-3733,867,-8339,4971,709,-1140,5997,-4847,-3531,-4122,4256,-2736,-527,-338,2577,7430,-2045,1561,712,2988,6663,2174,-133,3342,-3632,7482,-5783,-5343,5785,-181,-3414,-5548,-1201,-5413,3044,4170,-1040,607,2033,839,-6069,1832,-3252,-1755,6481,8428,-2801,478,-2939,-3234,709,3507,-3304,2807,4346,-4436,-2452,514,3559,4177,-4084,-3804,-4582,109,-473,1884,3467,-385,860,21,-5153,923,-326,-5544,2670,-4739,2289,2958,3955,1231,-266,2228,-4160,-4260,-2384,-1707,-4655,-5547,5703,-7056,-877,6738,-2683,-2250,-2042,-2547,632,-95,1342,-3658,1789,2518,-3596,-3829,-405,994,3237,5557,7739,2008,3037,5066,5084,-1838,-2467,-317,3535,332,-3461,3047,-856,3724,-1750,-7751,-5398,-245,3339,2818,1118,-2940,-3347,812,-454,-1425,-1721,-357,3872,911,-685,-3151,-6075,-3678,144,-17,449,-6949,-1927,4926,-3088,-4297,-7284,-4897,95,-2226,-5646,-3324,1909,-920,8345,3062,6034,4337,-3337,2828,-1898,-4087,-6726,2811,-827,-468,916,4433,3885,-4795,877,-3689,-1500,1648,225,3497,-1019,-482,10623,1836,-3296,-5874,4503,-5165,-2254,1046,3454,-604,-2909,-247,-648,-8122,-7537},
	{6326,-1453,1584,-3153,3946,-1254,-1292,-1968,2354,-1082,-2282,-3817,-2105,7200,-729,5070,-3086,-4881,2839,814,6703,175,-724,4827,-512,-2270,-563,3083,2344,-5040,-1531,-1517,348,1304,1918,1401,-3629,6762,3998,3722,-544,1973,5788,2204,-2045,5600,4723,-4345,2369,3437,-597,-2685,2582,4315,-3449,-1052,3769,-5980,4343,705,-696,8610,-1172,5250,1951,-3255,-438,-4517,-1430,-836,708,-6150,-5311,4804,-254,-932,-3670,3979,-5829,3062,5933,-1857,-2412,-2685,2671,701,-716,2274,-3899,2868,1358,5772,2080,2530,2375,-756,4446,1775,4182,-2830,-3326,-3215,4148,-1335,4017,-2349,2772,-1353,2901,412,-2468,-1116,-137,-2899,1373,-1332,-2563,-5233,-2229,-4739,5158,-417,-2312,-2150,6234,6965,5282,171,-3833,-1543,294,3574,2718,823,1870,788,4300,-3758,1550,-2912,3704,-5789,3386,5563,7306,2531,1728,-2541,-6044,613,5689,-3493,3645,-4744,-6293,3399,1590,5723,5413,1346,-4841,3143,5580,-1310,2659,-3020,1044,-4774,5116,2441,-563,-705,-5715,-876,2673,4298,4505,-7342,-5055,-3385,3780,1946,2520,1110,-1931,-3009,4031,-1113,-1798,-1593,4790,-3697,-4254,-4526,6425,4141,-4170,-1833,1090,1996,-366,761,3128,2990,2199,354,-4520,-4225,-1749,2768,-4150,-150,3957,5471,-167,157,2129,-4288,-521,-3547,2784,-4609,-2327,-5342,3622,-1891,2130,648,1927,-2333,4211,2493,-5526,424,-488,-3756,-1991,825,-251,5406,680,-4797,-6000,2761,6436,-1776,3410,2654,2281,-3352,-4907,-5124,-2272,-2162,2838,-1254,-5146,2197,-4304,4842,1146,2208,-671,-2671,-4664,807,3460,2276,6694,-2631,6234,4453,-4968,3874,691,631,1852,-2539,-607,337,213,1536,2684,-5613,-970,4658,3755,-2547,1989,2563,3288,3237,2821,-2345,-3243,1493,-5979,-4433,-3410,3330,-2429,4744,5882,-585,-1990,-1232,2008,-5736,2499,1348,-1464,4725,2881,2041,-810,2691,-1263,1790,5835,832,5056,1431,-421,-37,-6772,367,3023,5293,276,3933,2468,-3703,2845,-6581,4993,2507,-3376,1985,-1934,4944,3798,-3453,-3166,-853,126,4331,3290,1416,560,705,2912,-723,2221,4688,-2587,664,-3372,-2978,-1608,-3567,2082,4151,3065,-3552,5513,-4132,2159,-3153,5489,-2191,101,-1275,-3869,4860,5337,-2312,105,1262,1375,-2551,-5680,3814,972,-2878,1691,2337,7790,3483,-2699,-223,4920,-1669,6376,5168,3970,3354,1669,5139,1039,-6532,3673,2949,-5228,-2798,-792,-3494,3292,1416,2120,6326,-804,-5159,2384,4187,4958,5998,-904,-257,507,-125,-495,-3842,5063,3255,2171,4670,496,3489,-186,-121,-2970,4476,-5172,2846,2826,-4221,-1882,6302,-3237,-6494,-6218,-766,-1344,2009,2321,-1959,2116,-3448,2114,-3660,4066,538,-3410,-3640,-3528,-1811,2605,-1593,234,-4183,-5591,4388,-4170,2090,60,209,4316,744,-4907,356,154,696,-2574,3675,5440,5665,-2865,-4812,-1349,4036,-5582,-783,283,2945,-3859,-3338,-5287,-4138,-2468,5412,5156,-1933,3708,2348,3370,4143,-3247,-1032,5986,3204,616,5234,1038,4075,4553,758,3234,-1986,1703,-3552,-2455,2908},
